doc_id,u0,u1,u2,u3,u4,u5,u6,u7,u8,u9,topic_cluster
00aef918e51b5d3f93d93916,6.6835127,4.791705,-3.9337955,3.4204476,0.13699745,2.1098115,7.6761365,2.6699314,-3.7240205,-8.367216,-1
00bdafe1c3a82c73ef529c4d,6.7216654,5.3703675,-4.8708873,2.5077322,-0.6284712,3.1834397,8.577199,2.6720197,-3.7745917,-7.8278885,5
00d80ce0d8e916839d6c0200,7.365278,5.25773,-4.6137643,2.7745917,-0.5615981,2.7662506,7.988569,1.4712569,-3.2976341,-8.21962,-1
00fb57fb8af6c8b1321fe950,6.962284,4.2553425,-3.7832901,2.4191363,-0.5325754,1.6713835,7.703882,2.5190234,-3.3567374,-7.7704525,-1
0243aae57d53fe295df73970,7.188653,4.982228,-3.925677,3.8454032,-0.252267,2.3387642,7.508735,2.6227527,-3.5111322,-8.1709585,4
024456928cc8ca0eeed8aaa0,6.505929,5.3069015,-4.3698983,2.7483273,0.125211,1.2740986,7.1588116,2.1352203,-3.3499565,-7.6500554,-1
03827740a0dd016fcd0fa2f4,5.392848,6.616236,-3.528451,2.5629377,-0.49344915,1.9402882,7.029933,2.7969253,-3.6689007,-7.8576236,0
03b34133b276b6c7a5b48637,6.718852,5.46816,-3.654166,4.3660493,-0.19914465,2.9207847,6.2148714,1.627442,-3.2805264,-7.255422,1
03d5e2a2cb3538101d3c4470,6.8461823,5.437421,-4.9043694,2.369497,-0.5206982,2.9386084,8.496003,2.5309231,-3.5519118,-7.780484,5
03dbd8c580b42d969ac46a74,7.767578,6.2457566,-4.6091347,2.5529819,0.6205458,2.762029,7.3996816,2.2819345,-2.1533434,-8.368059,2
0433fa4173a970b3e870d933,6.360608,4.606016,-4.580189,3.3869672,0.44358167,1.1284723,7.7949243,2.2879596,-3.6261375,-8.0677185,6
044759339a4272bb2f6cd1c1,5.672312,6.3954806,-3.652461,2.6030188,-0.5693179,1.982943,7.0078053,2.8671956,-3.5785787,-7.927935,0
04842e76c17a3d9f50dd0759,5.339712,6.6575046,-3.447439,2.5760405,-0.5091564,1.9023023,7.0243506,2.787455,-3.6919973,-7.949301,0
04cbf374cfb5373a806fa52e,7.4971466,5.8308005,-4.7023563,2.478502,-0.22167844,2.4006038,7.8428693,2.13794,-3.774856,-8.200421,-1
04d5789244416c5b83b83153,6.541177,5.432983,-3.7202995,4.385975,-0.18919188,2.838215,6.170403,1.6702679,-3.2796936,-7.3175364,1
05782c8bb1bda940f805d4fb,7.583539,5.897886,-4.620218,2.4986098,-0.14087033,2.4198234,7.740543,2.195645,-3.8690753,-8.232167,-1
05c6f341e002be4f02f60176,6.438134,4.942434,-4.5560865,3.659974,0.089712344,1.1157541,7.850729,2.3185523,-3.494679,-7.659221,6
0676f180e7338c5235269761,6.871866,5.466068,-3.5660381,4.438862,-0.05686699,2.9645367,6.428007,1.7156335,-3.3309941,-7.1510854,1
06e9df5a9796986ac2026e6a,6.979006,4.459441,-3.9198728,2.483775,-0.4926014,1.5089494,7.5436025,2.6810064,-3.1931474,-7.807916,-1
078f63a8b8d78881d094541f,5.3316007,6.629667,-3.5747795,2.4027214,-0.61475194,1.9610734,7.0802455,2.7440212,-3.8844903,-8.027365,0
08444ac424c212bdb1d24a5e,6.3428907,5.046928,-4.094787,2.282761,-0.7058786,1.9548913,7.832402,2.380074,-3.4986444,-7.378759,-1
084fb5e662844ed66c6cdb9f,7.4147425,5.15447,-4.6847377,2.877728,-0.52443403,2.8199487,7.920565,1.2761762,-3.3715525,-8.260222,-1
08622aeeed2dfcddc86a6955,6.687655,5.4791093,-3.5996377,4.4415703,-0.19273095,2.9521403,6.2020183,1.6748832,-3.3351793,-7.1914754,1
086a7ba127d2c8ec3ba15da2,6.474989,5.4318647,-3.6429012,4.402036,-0.20646149,2.794427,6.1781597,1.6393377,-3.268483,-7.322091,1
090178c29bb4aaafe2417a57,7.6963115,6.1148725,-4.539484,2.662956,0.48702884,2.6888564,7.4045086,2.268535,-2.2654707,-8.285302,2
0a21295bda9c67e71be0f72f,6.6554136,5.2391233,-4.213996,2.9207551,-0.7560977,2.0548735,7.8337975,2.5003955,-3.638102,-8.293874,-1
0a4e3333e4e92990004211b2,6.4932175,5.453762,-4.1522107,2.8875153,-0.43092453,1.8652521,7.293304,2.7270293,-3.190582,-7.930738,3
0ac1dddf888e9d1ac1b4ca05,6.66627,5.0781474,-3.9425645,3.4865625,0.19221799,2.0590901,7.1496663,2.1837654,-3.4680595,-8.281067,-1
0ac6dc5ad492f70668ed6bf7,7.0131955,5.202172,-3.9654722,3.7179036,-0.42955342,1.9342959,7.455073,2.049592,-2.7246897,-8.351724,-1
0b00a7bb27f3f6b50d1e0168,6.6827593,4.8675914,-3.7864556,3.901902,0.31012022,1.9574949,7.2630677,2.7983615,-3.4159803,-8.602651,-1
0b0ffb6c3dbc731eea71b9af,6.8852625,4.866189,-4.0971923,3.161593,0.42222926,1.803163,7.9329004,1.9366511,-3.541071,-7.605619,-1
0b43dcc35629f0113cd135f0,7.659181,6.163101,-4.602328,2.6585972,0.64144444,2.7039142,7.3553796,2.1525338,-2.147625,-8.354561,2
0b861cd5623e0f3fd3117baa,7.3819647,5.82539,-4.464306,2.734822,0.1944893,2.4939165,7.3649855,2.4658058,-2.6188533,-8.150257,2
0b9b2a169d50bd319188f958,6.900906,5.355303,-4.943958,2.4375517,-0.5842556,3.0820384,8.560098,2.518984,-3.617707,-7.842031,5
0bb5cc74ae63f7a2028e972c,6.974978,5.462769,-4.7828064,2.3771982,-0.53852403,2.6284654,8.139813,2.6053185,-3.2539864,-7.7563972,5
0bc6b8f72ec1a7abbf72802d,6.5867476,5.1842775,-4.337713,3.1079462,-0.43150583,2.0219142,8.154229,1.5819257,-3.1244807,-7.443977,6
0bf279dfa75fd53f25ac878a,7.075857,5.271151,-4.4643497,2.8304045,-0.17023322,2.3562915,8.008636,2.4016364,-3.1212642,-7.524333,6
0c163007d6963d213d72444b,6.8379025,5.355582,-4.064835,3.171089,-0.47420523,2.4573703,6.8961635,2.3420007,-3.1144817,-7.519351,-1
0c67a9fe0095f1b0886d916d,6.6781335,4.6089935,-4.353225,2.8494108,0.18113244,2.475711,8.031002,2.248971,-3.335735,-7.635751,-1
0c6cd6b523a4af4671b8c859,6.119903,5.3710046,-3.9314892,2.4753106,-0.7718989,2.6109283,7.7594676,2.473372,-3.9310024,-7.4987445,-1
0cbe18e12aa6ade1fb5c34a3,5.334478,6.6644793,-3.4715226,2.4689217,-0.56803715,1.8873922,6.970783,2.905661,-3.7833312,-8.008207,0
0cf7790401f14f71dbc7e492,6.8135867,5.7048836,-4.1076007,4.374431,-0.67637414,3.4275799,7.1391215,2.4991145,-4.1274166,-7.6004567,4
0d7e65f767b29ff3bb30da77,6.817238,5.2114415,-5.137675,3.672224,-0.48065212,2.4149568,7.656681,2.5646362,-3.5779517,-8.055388,-1
0d888d9ef0014c0edfb3e3df,7.598366,6.0747085,-4.5049324,2.5575383,0.38634622,2.5479348,7.243231,2.2924573,-2.2394044,-8.276758,2
0ea5af7d3fd597fd75f329fd,6.9094844,5.5563154,-4.085468,4.22931,-0.67565346,3.3211753,7.260081,2.6184871,-4.0609612,-7.7508154,4
0f51478e4486001dc5bea238,6.8741,5.3349795,-4.9369884,2.4612632,-0.60582715,3.067353,8.589126,2.583756,-3.6996775,-7.744936,5
0f920d4dfc172e207f8407b9,7.25909,5.07641,-4.2372675,3.152131,0.2650857,2.2587025,7.755352,2.094902,-3.205308,-7.415435,-1
0fcd7455bccdccfc3f9a75d7,7.4445086,3.9415581,-3.6346054,2.54833,-0.4923187,1.2032458,7.4558225,2.742883,-3.0194519,-8.04271,3
1030d1b6cc8978771c34e5e7,6.9994764,4.489599,-3.7158523,3.4404645,0.3932398,2.0619175,7.6216116,2.0599465,-3.5379415,-7.47772,-1
1032cd4667d0ded1dc34105b,6.998773,5.347436,-4.1261916,2.9904404,-0.19926488,2.8174918,7.5754385,2.3195305,-3.5655804,-7.728646,-1
11cc495b3efc1ed3eed739b0,6.62521,5.0609035,-3.8942866,3.5299613,0.16323932,2.0384831,7.1437244,2.1568966,-3.5074513,-8.299795,-1
123cf5cbb8a28359e50137ae,6.7183084,5.383236,-5.004803,2.5823658,-0.52996844,2.8705387,8.556263,2.5247428,-3.6829736,-7.849816,5
12971227109ea875d3b8ab88,6.5927,5.016432,-4.104354,3.8820071,0.2305206,1.7114397,7.277999,2.4258401,-3.1695979,-8.253918,-1
12985114e83e63157a779110,7.4171205,4.327292,-3.6163845,3.1972513,-0.45225027,1.3014933,6.851167,2.073493,-2.5564094,-8.022375,-1
13086db27696c6e49bbac71e,5.424399,6.5604916,-3.6933944,2.4948657,-0.6175717,2.0461893,7.28417,2.8156981,-3.8820648,-7.8059897,0
1371583b344edd419e775929,6.4031706,4.8795834,-4.5175123,3.2234566,0.04532482,1.0650955,7.712684,2.3753433,-3.4448662,-7.763738,6
1384cd1701545166777e1fc2,6.849504,5.377912,-4.395177,2.5207553,-0.6847282,2.0134058,7.331514,2.773229,-3.028615,-7.839548,3
14963c499382cde2389a9ccb,7.4388947,4.33536,-3.593642,3.2232718,-0.4754815,1.3121811,6.8581467,2.071965,-2.5274055,-8.04174,-1
14b612a4bc02307e49039dac,6.5023465,5.657245,-4.291487,2.413884,-0.6634489,2.7660642,8.150874,2.6917017,-3.7969356,-7.378424,-1
153b6454be343f4ed4b91ef5,6.9447064,5.413651,-4.037213,3.4569836,0.120559774,2.6634781,7.354456,2.2600334,-3.4364867,-7.7073503,-1
1613a37dc17af8f22957fee5,6.656933,5.5171537,-3.5927534,4.35435,-0.2530281,2.7390318,6.233633,1.4605525,-3.3367643,-7.2261233,1
165775fe800a1001d7af6b67,6.158355,4.8418407,-4.0658264,2.2263558,-0.47879317,2.3850703,8.340875,2.2620053,-4.0649962,-7.449475,5
16a6c6f708af23f2a94dba8c,6.710629,5.3442054,-5.0742445,2.577348,-0.41050792,2.668329,8.6075735,2.6399925,-3.6166656,-7.7708926,5
16a8207e0f875788d19f9a4c,6.7971463,5.311173,-4.6468015,2.4853032,-0.6078866,2.780128,8.293654,2.6347084,-3.5911677,-7.8927526,5
16ad7d4e0a1b0088cece40bb,6.5838103,4.4919934,-4.3366947,3.002466,0.34191692,2.3925533,8.000504,2.2010999,-3.28365,-7.6084733,-1
1757127b75d5de3b4ff86bb0,7.40651,5.161551,-4.5864086,2.8201697,-0.61150515,2.765552,7.9093504,1.2727587,-3.341985,-8.277019,-1
177f4f0d11bf790a91c08d08,6.8910856,5.264744,-3.9198332,3.5724945,0.8661632,2.4866555,7.228464,2.5689952,-3.6653366,-8.17052,-1
17a421712daa51b1858228ff,6.5436935,4.676476,-3.8448493,3.7625458,0.55446196,1.7731392,7.283792,2.7857358,-3.3713663,-8.659178,-1
17c335d4cff15ca96270f7c9,6.5724926,5.067397,-4.005148,2.46662,-0.47744912,2.3327575,7.9217844,1.981012,-3.7271042,-7.497606,5
1835f2572740e7e10ace41dd,6.354687,4.706577,-3.9624083,2.3622735,-0.48941192,2.2372067,8.110824,2.147027,-3.8711097,-7.3685102,5
1843d844bfaee2599ff4fe5f,7.332194,3.979508,-3.7012343,2.3596857,-0.5387953,1.0307565,7.3380475,2.837387,-2.9073598,-8.037886,3
1866f22b5f4b5b5f09762460,6.749572,5.0088634,-4.7074847,3.1268754,0.3016521,1.7561222,7.96188,2.395966,-3.455548,-8.104543,-1
18b51f41b7d38b5183eeec46,5.3989944,6.5308957,-3.4937603,2.4901404,-0.55162084,1.8872328,6.9378834,2.9094534,-3.7135966,-7.9268484,0
18edee8b8fb63a46e09944e7,6.7783136,5.501673,-3.6305506,4.447865,-0.23012745,2.8794136,6.140754,1.5589087,-3.268667,-7.328211,1
190185c75a4816139fb17130,6.7113457,4.4963417,-4.7004848,3.488226,0.065475605,1.7710379,7.497373,1.9888555,-3.4299128,-8.1080675,6
1a84f14576c3404698a19d38,7.698916,6.213149,-4.57579,2.5760381,0.59566927,2.7519503,7.3456635,2.2469153,-2.09213,-8.344109,2
1a851a8759d81ba576e8977f,7.032975,5.0899568,-3.5701027,3.1499708,-0.217536,2.3170338,7.5896635,1.7596565,-3.4849908,-7.5610113,-1
1afa6a3a6a40e92bacbf870c,6.966952,5.139955,-3.9153867,3.952393,-0.3279864,2.4368865,7.3884053,2.7860293,-3.4286757,-8.317019,4
1b4fd1a1c28f0db7cd77d408,6.7213254,5.3024445,-4.707201,2.4820051,-0.6378622,3.0916839,8.502475,2.6642456,-3.911617,-7.757439,5
1b92bfe73dc958264eccb094,7.7206593,6.179743,-4.6368966,2.5800219,0.64502144,2.753354,7.4470577,2.1975648,-2.1080897,-8.356834,2
1bcc3362cc9b1c68263b03ef,7.042582,5.1141977,-4.0701404,3.1407564,-0.0109020565,2.195054,7.1887755,2.0998228,-3.5374742,-7.8367167,6
1bf347004c2bd4756d730379,6.5331793,4.8312607,-3.9216764,2.53014,-0.4251542,2.5319378,7.9098706,2.0838668,-3.6795156,-7.5422044,5
1c0c666d21893df4165d985c,6.8681617,5.3469133,-5.0233293,3.7174184,-0.55177253,2.442823,8.06407,2.1291876,-3.6795492,-8.168686,6
1c1d8349c3984c49242a64fd,6.9358172,5.5769854,-5.0004683,3.0906239,-0.7366276,2.7652254,7.776683,2.9097128,-3.5016675,-7.8417873,-1
1c45a3880b3e3e5980443925,6.6478524,5.0701084,-4.455742,2.3343642,-0.5439008,2.7041173,8.34281,2.4039335,-3.6642544,-7.531082,5
1c96ecbba894c6851a519830,6.629695,4.8396697,-4.586028,3.2677364,0.6543821,1.2954445,8.054394,2.0777984,-3.616939,-8.071322,6
1cb96800dccf0ddd749d88e6,5.427821,6.525035,-3.8103333,2.379394,-0.4312848,1.8490613,7.1986833,2.7512047,-3.7612877,-7.8415356,0
1d23aec8a0849790979768a6,6.9209514,5.1185484,-4.3868475,3.0667808,0.24739559,2.2031066,8.073082,1.9965274,-3.2050297,-7.560531,6
1d652065bcbec5bac67dfb80,7.611648,6.0995693,-4.5124874,2.5880048,0.83742726,2.5791156,7.392544,2.1895194,-2.2971156,-8.47912,2
1d6c9e15b0832161c82afe51,7.576284,3.8387618,-3.5087063,2.3410268,-0.43023083,0.97507167,7.3758426,2.7600946,-2.9128737,-8.008693,3
1d9057f17599bbae1a3080a1,6.9359727,5.223771,-4.9515405,2.5787733,-0.6616126,3.22579,8.689562,2.8217316,-3.8264925,-7.8635435,5
1e0a5f993bdf59718abd1139,6.8909426,5.174034,-4.119902,3.0217378,-0.16327363,2.5664577,7.7443385,2.6303482,-3.6528091,-8.179816,-1
1e36180bf2fe653fa94d58fc,5.549428,6.5182757,-3.7490056,2.3359604,-0.5625741,2.0672014,7.2152543,2.8076842,-3.6310394,-7.970844,0
1e4c53189f41a988eaa14f23,6.9342256,5.5631394,-4.0625334,2.8270023,-0.3203629,2.6324008,8.030547,2.3166094,-2.7862005,-8.108627,-1
1e545178d81ed592208fcce6,6.879428,5.527357,-4.6124086,3.2136045,-0.616856,3.0551927,7.9469104,2.786361,-3.802287,-7.824534,-1
1e707516b93cf5a529a194b1,6.8729773,5.625716,-4.268416,4.1166096,-0.64397687,3.32645,7.4170084,2.56247,-4.11467,-7.701328,4
1ea85cc77f10b7cbdac50cf6,6.9353952,5.221109,-4.956795,2.5465014,-0.64724046,3.206223,8.702342,2.7934759,-3.8139067,-7.8383594,5
1ead1907f3de96de122061fb,7.036195,4.994235,-3.9237921,3.9549353,-0.10311408,2.258895,7.4616976,2.6252592,-3.4786355,-8.250145,4
1ebd1c7f472a96b3740ccd02,6.7854705,5.1285806,-4.5498695,2.3023496,-0.68253636,2.8718605,8.420847,2.5471811,-3.6627223,-7.7835073,5
1f34db77ac9affd8b128d0d2,6.8479896,5.1152425,-4.9555945,2.554962,-0.12629727,2.5354018,8.632811,2.443286,-3.403224,-7.6066375,5
1f7ce031fd69c5ce984b30e6,6.796274,5.4592996,-4.6316557,2.4651794,-0.17785688,2.3903391,8.153478,2.5708542,-3.548567,-7.923333,-1
1f91abb8f9baec77a1076dbb,6.4814677,5.6871667,-3.9392834,3.140498,0.6320946,2.405763,7.2816024,2.378222,-3.10629,-8.004006,6
1f95c0d5f6e7be0612d6ed67,7.6672463,6.2572494,-4.534723,2.5967987,0.76833725,2.8520992,7.4142666,2.2042263,-2.093307,-8.457779,2
1faf424e0bdd7501a3364e38,5.3503404,6.5985928,-3.5797215,2.5183148,-0.39461857,1.9671203,6.916508,2.6792414,-3.5665922,-7.7901673,0
2035a80c32240a32d6b3f64a,6.8629055,5.4983034,-4.551479,3.286389,-0.54943836,2.9611142,7.886165,2.7864423,-3.8061974,-7.8773417,-1
20513f5c69fa524af5eac092,6.3975887,5.4396725,-3.5281334,4.4318447,-0.18353409,2.7336183,6.1332636,1.4867498,-3.2422407,-7.2071204,1
2063c945df79ae83f3cca060,6.7343097,4.5521646,-3.847588,3.115686,-0.06957258,1.8453029,7.8084903,1.7356299,-2.9290292,-8.200351,-1
20a8dbd09aae7252c074a68f,6.68214,5.1715193,-4.6623807,2.6776984,0.80273175,1.7595278,8.14543,2.3784206,-3.6057327,-8.228149,6
2108c6657da165228d749c75,6.362655,5.421584,-3.483467,4.439541,-0.2107102,2.7211003,6.116382,1.4382949,-3.267148,-7.1979685,1
21282249011fc7ca58efc97a,6.6051865,4.805707,-4.4386144,3.7836387,0.15427257,1.2402111,7.7216344,2.2077913,-3.1490743,-7.786659,6
221c91042881ebc45c3202a1,6.902097,5.297263,-4.8034816,3.7916968,-0.41533485,2.3285146,7.8952994,2.1151848,-3.5622287,-8.180392,6
2223c2821c4d3dabd37211d9,6.833984,5.406431,-4.9663835,2.5126092,-0.6505087,3.1602776,8.565782,2.7564368,-3.7252402,-7.7883024,5
223a79d101ac441b7a957d7c,6.7874193,5.3472114,-4.8478117,2.4161332,-0.42387235,2.6415927,8.36898,2.6456964,-3.492056,-7.7464247,5
224c0a24516fa13abe101205,6.860501,5.380328,-4.959462,2.5955153,-0.6783546,3.0963657,8.504432,2.7499008,-3.667885,-7.8546844,5
225a31aafe1ab05555e60208,5.289417,6.6403623,-3.635991,2.3215866,-0.5329499,1.8979349,7.0555606,2.7793622,-3.7297683,-7.983034,0
23099d58faac01c104d747a3,6.650839,4.7192664,-3.8099668,3.8803766,0.44437942,1.784725,7.2028437,2.7960927,-3.4463968,-8.662804,-1
231cb22da87d50de261cdb2e,7.2971697,5.274021,-4.550977,2.856255,-0.36498934,2.6328862,7.746825,1.5137086,-3.3464487,-8.237945,-1
23358248fb3d9762079a29ae,6.350975,4.5869184,-4.654926,3.35353,0.2705724,0.88436836,7.88743,2.3039076,-3.5861232,-7.6573935,6
234bed51e1de002c57e7065d,6.544218,4.7291865,-3.8733313,3.227545,-0.2155923,1.6304874,7.776385,2.3283691,-3.1624782,-7.966455,-1
237d491a61abb2bbd1948b49,6.6875887,4.7872834,-3.7624185,3.9054477,0.4258371,1.8484622,7.193737,2.7631989,-3.439109,-8.661773,-1
23b4a9bfa2e7dc5cb47d17a9,7.6035576,5.9247704,-4.705811,2.464044,-0.20903206,2.3608894,7.7306843,2.210474,-3.818768,-8.2937355,-1
23d94a60d675e044e0eaa236,6.4205413,4.7224298,-4.6661954,3.129885,0.39047763,1.1623454,8.010482,2.2815049,-3.5224261,-7.81344,6
23f593e0bdd46df30ea2edac,6.8215303,5.056448,-3.9859715,3.6118717,-0.18245387,2.1513872,7.6313562,2.3533475,-3.1793122,-8.048774,-1
23ff3f2a9f66de931ea7af99,7.766126,6.123647,-4.5947523,2.7021234,0.93313575,2.7340364,7.306814,2.1077325,-2.169397,-8.505847,2
24216524cb7083f9779cbdaa,6.8639045,4.912286,-4.9345574,2.7197943,0.11673613,2.2382548,8.604471,2.4252906,-3.3604023,-7.5536823,5
24396a28909d00ed3f5c3a4a,6.768818,5.500591,-3.5247614,4.456631,-0.11481768,2.9111228,6.288333,1.6243426,-3.2577004,-7.1472335,1
245ddd8b4e16343e02a5e890,6.7422266,5.2472777,-4.707793,2.4402933,-0.5938274,3.0632358,8.529411,2.672161,-3.888466,-7.747671,5
24751b37f2c7eabdb0bb90e6,6.7327456,5.1082306,-4.1201453,3.0910935,0.11452201,2.1260433,7.8711934,1.8120601,-3.0451608,-7.6356926,-1
249311c43586b2b2cf35d176,7.663914,6.0921535,-4.5495205,2.649931,0.8365228,2.6291142,7.411033,2.1624453,-2.2306437,-8.484338,2
24bb4fe11e7a43590c757191,5.353007,6.6834803,-3.6079264,2.4515266,-0.54342353,1.9711018,7.000043,2.8499272,-3.6916955,-7.9233346,0
258077ec9a13ea6701b56c52,6.365189,4.79646,-4.0871725,2.2630394,-0.587255,2.480912,8.268559,2.1980875,-3.9493427,-7.355521,5
259bd4f449fbee1d727e119c,7.55378,5.879876,-4.707617,2.4063864,-0.2372612,2.4393654,7.770367,2.234898,-3.8135815,-8.268312,-1
25b4453c4b7b6e9a33bdd494,6.6390867,4.5268564,-4.670352,3.5507483,0.28139225,1.4173392,7.414622,2.135714,-3.2167747,-8.2037,6
26d776b2a829a3a807f5a612,6.8381577,4.9100065,-4.0345516,2.9043796,0.024890056,2.1018703,8.038563,2.0225325,-3.1667674,-8.205874,-1
27cf12f8dd438d1bb5edfa20,6.769519,5.500663,-3.9224231,3.8035886,-0.3277242,2.6723504,6.4980545,1.9881519,-3.1711817,-7.3732824,1
27d3363ac6a6a3045255bcc2,7.015125,5.2209954,-4.540741,3.217832,-0.12129042,2.212622,7.784991,1.6627237,-3.3746195,-8.094687,-1
27eb9d71a84673145795da2a,6.598647,5.160974,-4.40171,3.0379977,0.4235973,2.4353437,7.466843,2.2335339,-2.829233,-7.770509,-1
28b7c5413114c01152acbf87,7.3911815,3.8714025,-3.5801983,2.3867114,-0.4532311,0.9581647,7.32377,2.807819,-2.870277,-8.09037,3
28d6259cd4417478a9e1c214,7.508254,6.1523013,-4.6235495,2.5875456,0.4723433,2.7531734,7.309935,2.2809277,-2.1020353,-8.283267,2
291849ea7c726f531f7a4340,6.933692,5.301912,-4.774139,2.5084176,-0.3157854,2.724509,8.4082,2.458208,-3.2690456,-7.8114624,5
2952a7dc48357a332e7fc1c0,6.83545,5.6662364,-4.125805,4.2936144,-0.68457365,3.4025967,7.2296667,2.5531664,-4.128069,-7.6539216,4
298896597c4361b97cc0f488,6.5343304,4.531522,-4.498398,2.987939,0.26704723,1.0502138,7.9695644,2.3028889,-3.539419,-7.6853766,6
29dc9d2bc94011388f815945,7.402679,5.212736,-4.5174494,2.848655,-0.59751934,2.7628157,7.870894,1.3290955,-3.3920763,-8.280423,-1
2a03caf28a211be83b49b070,7.615836,6.258039,-4.5880885,2.521663,0.8641698,2.7530973,7.3522143,2.079372,-2.1410062,-8.40019,2
2b77d75e74403a4ca42365d0,6.949534,5.6185036,-3.668163,3.1411564,-0.33618656,2.6284735,7.470396,2.0870335,-2.9008014,-7.898328,-1
2ba5b777b3d4ca6c7dd83dda,6.6767106,4.8685627,-3.7970881,3.897702,0.3078716,1.9645053,7.274968,2.792075,-3.413342,-8.601039,-1
2bbe399795703b1a9f2ea4ad,6.5659738,4.682437,-3.852362,3.8168015,0.525093,1.7630966,7.268782,2.7937737,-3.3754783,-8.673523,-1
2be57eb1ceb49879913385be,7.6414127,6.137147,-4.5815177,2.6958094,0.8000067,2.6524782,7.358934,2.2048254,-2.1542037,-8.492071,2
2bfcdf04e48fe6d96910572f,6.850594,5.1900077,-3.955976,3.504912,0.93189293,2.346178,7.3205686,2.5268052,-3.62269,-8.169573,-1
2c0d50ea58418587cb5eba51,6.9890003,5.3510213,-4.7428875,2.5098367,-0.32597148,2.945117,8.454682,2.4920723,-3.5983422,-7.5241337,5
2c6e4a46c87f975aa6e93388,7.2011657,5.287968,-4.3168135,3.1750762,0.020983567,2.5009992,7.796108,1.8996443,-3.3204296,-7.473451,6
2cb4ea5ec1e9935b57ce80d1,6.8182254,5.449972,-4.621719,3.3164506,-0.40637684,2.385305,7.514814,2.2373106,-3.337371,-8.095652,-1
2d29ed92ccf8cf3b42311197,6.621822,5.539742,-3.670788,4.5688453,-0.2379922,2.9178348,5.9792376,1.6100773,-3.220201,-7.253674,1
2d2dea151ad1df88fd1bb43c,6.7616224,4.4744234,-4.720134,3.5739553,0.2358823,1.5574633,7.2654414,2.1842566,-3.2357528,-8.253596,6
2d55707f1715ad651f48feb5,7.401144,3.940687,-3.7366006,2.375901,-0.42807007,1.1944871,7.5295105,2.7328439,-3.0103722,-8.005463,3
2d9c815f26ffd00af876fb0f,6.954522,5.3842406,-4.9811225,3.5552392,-0.61030084,2.5635355,8.100504,2.2990491,-3.6370604,-8.168802,6
2dad9330f0922131d395067b,6.657855,4.2685714,-4.513573,3.08121,0.19333857,1.5226805,8.019254,2.1531618,-3.4721048,-7.773695,-1
2e4f31b3253f4f95e12654e8,6.6221857,5.021681,-4.584033,2.872279,0.5762877,1.7011554,8.013871,2.3676462,-3.5907588,-8.1879635,6
2f21790075c19f49d3f6ad6f,6.86214,5.220829,-3.9400768,3.4924116,0.86550933,2.3792298,7.3268194,2.4348838,-3.6025162,-8.079537,-1
2f293e7bbf4c4ffc6b919148,7.1597347,4.4611807,-3.716124,3.6688464,0.3840115,1.8799396,7.6503205,2.153199,-3.5669787,-7.521415,-1
2f697ac518c01e29ea61eb40,6.8149157,5.569355,-4.289711,2.9133832,-0.53188664,2.3516054,7.261597,2.2524655,-3.3725142,-8.282853,-1
2f95764b48cab241d0a5070a,7.1241255,4.9721756,-4.446918,3.1294978,0.17077895,2.1145074,7.547758,1.7729084,-3.1834764,-7.9296265,-1
2fb38af68e7beb76098ac0c7,7.394003,5.8167424,-4.4568067,2.710258,0.20869279,2.492953,7.3661013,2.458057,-2.600903,-8.143998,2
2fd4891587ec88a8a8131344,6.847712,5.6128836,-4.174483,4.19348,-0.6556337,3.3188949,7.322766,2.5645254,-4.0848403,-7.702562,4
2fe8d6955e8143b52af916d8,6.879706,5.633369,-4.858625,2.3893557,-0.55585647,2.7313435,8.30363,2.474205,-3.7269485,-8.008946,5
3005d70d160b9c600fb240ac,6.7700496,4.884997,-4.249,3.575565,-0.120023996,1.7967765,7.2621737,2.223104,-3.040161,-8.209872,-1
303f86b76a0028b02d92c015,6.581194,4.4661794,-4.314331,3.0535512,0.37923422,2.542805,7.919049,2.1597888,-3.2389884,-7.623744,-1
307eaef078a89008ab9f175e,6.6624355,5.259463,-3.9474382,2.9495008,-0.5598251,1.6796339,6.925026,2.664188,-2.9107766,-7.8029976,3
30f75b9d4913ecc347d3704a,6.5116577,5.6972632,-4.386627,2.3715277,-0.6859968,2.84812,8.236974,2.7374074,-3.8055737,-7.412775,-1
31e3a680449183f87ff9480e,6.655495,5.210476,-4.0954194,2.9279048,-0.48343745,1.5846394,7.143337,2.8178382,-3.0127728,-7.8363786,3
31fbb73edd56c251fca3e602,6.642171,4.9127755,-4.3478765,2.960958,-0.3351129,1.6982149,7.8235626,1.5360224,-2.477697,-7.579978,-1
3221c436a0afced2c12cb354,6.6734433,5.3624024,-3.8790295,4.0855694,-0.07852242,2.697142,6.4317694,1.5821903,-3.3405957,-7.4907403,1
329a4e0a9869ab50d632dec8,7.1060824,5.2056007,-4.4405107,3.4338512,0.089863256,2.2006292,7.446279,2.00307,-3.4487247,-7.9395084,6
32adaa2f4caa09926ab1c9a4,6.9020233,5.408416,-5.023668,2.4653049,-0.552757,2.946266,8.563336,2.6174412,-3.702451,-7.8167367,5
32bb789fdd5f59cc7b2e3d6f,6.4333725,5.6697655,-3.9865248,2.7526522,-0.05601309,2.4278746,7.3780723,2.2752159,-3.4561286,-7.8639207,-1
32fac6245965e358e5ee8ed9,6.502718,5.2574577,-4.362097,2.674944,-0.0081354715,1.3016068,7.1854324,2.2613225,-3.3165405,-7.6752777,-1
335e9b78386a16faa1f31557,6.6770825,5.0332184,-3.7040665,2.4781773,-0.098600835,2.0547802,7.70797,1.9195523,-3.1057572,-7.477321,-1
336535a9639bfd448bd9ef48,7.34094,5.1991706,-4.6418724,2.851088,-0.5578031,2.793447,7.9494715,1.4121968,-3.354671,-8.197896,-1
342760289f3be5396b823be9,5.244163,6.65703,-3.5211287,2.3900416,-0.47838184,1.8695633,6.984076,2.8415117,-3.7183838,-7.982059,0
3498c86bd7411c2208421e14,6.719216,5.3497343,-4.3406014,2.5290923,-0.6117122,1.7606705,7.2487197,2.7549198,-3.1022615,-7.8046417,3
34fc287da7f1ac8cdddc13b3,6.3904705,5.377302,-3.6101182,4.4095554,-0.17177606,2.7509212,6.204358,1.6476152,-3.2607186,-7.3211803,1
351594dfbc32e6c0eb7c7393,6.546004,5.5424857,-3.497839,4.331848,-0.15035814,2.9755466,6.3193603,1.6341014,-3.1932883,-7.2231574,1
354c12e23b8cd4f082eec9ed,6.7595067,5.2991686,-4.037199,3.427562,0.27216735,2.09817,7.2499804,2.0990145,-3.3724918,-8.225901,6
35be7a94d3148ad99c6ee562,6.330669,4.7578826,-3.9780116,2.3183374,-0.33233112,2.2294753,8.055483,2.056345,-3.9907665,-7.5022407,5
3619c591fbc718ce1b8651c9,6.8294425,5.5014653,-3.5600872,4.488187,-0.08636682,2.9679546,6.313984,1.6836909,-3.292544,-7.1556506,1
362b1f4c37356be5d96ab28b,6.707973,4.548955,-3.8975694,2.4815423,-0.52766067,2.4191756,8.083308,2.2304544,-3.660809,-7.800159,5
362ddff6ec43b1384fe0643f,6.848586,5.3871226,-4.882809,2.3852496,-0.5280818,3.1390328,8.594092,2.652527,-3.6467817,-7.7876554,5
36c9f56b4d086115b84e7b9a,6.84348,5.277213,-3.9050832,3.569787,0.9196756,2.4628792,7.1843443,2.6396134,-3.6516697,-8.275998,-1
374dd2009038cd1e1d3e5c52,6.007179,5.3597465,-4.0698643,2.47409,-0.44460732,2.2240272,7.9151363,2.4224906,-3.8936043,-7.6135926,-1
37545b97fe03c235f025488a,6.6638217,5.2143793,-4.5691104,2.2245584,-0.51985306,2.6433594,8.32677,2.542757,-3.5302243,-7.538449,5
378c545c3d71e24bb5f13351,6.7924857,5.4246683,-4.8450656,2.421464,-0.60932016,3.2279334,8.525007,2.6895905,-3.7378712,-7.8243146,5
37ccec51ab8a9c5c58a75a49,6.648732,4.876958,-3.8439517,2.7472594,-0.3056276,2.5111394,7.6512747,2.0921128,-3.5699782,-7.7216063,-1
37dd6b14c931b37190e3e698,6.815314,4.7437196,-4.832444,2.8463197,0.2459528,2.0354784,8.551273,2.3763027,-3.313073,-7.4888883,-1
3805a7400a5c2b501671c215,6.7838655,4.4191747,-4.7727733,3.5528862,0.2863157,1.5876571,7.2929306,2.2107577,-3.30259,-8.2896805,6
38593f04e05ffdc6f1b97a25,7.526554,4.1216755,-3.7159922,2.4457645,-0.51531327,1.2588768,7.3684707,2.8247464,-2.8541064,-8.032829,3
3860538d8c6ea9bfdff93e94,6.4018273,4.8024077,-3.9849207,2.456519,-0.49547634,2.4163451,7.994178,2.1602848,-3.7387757,-7.486681,5
39023eb126c1f411edaa4666,6.916387,5.247165,-3.9248621,3.234594,-0.074187554,2.0655239,7.792714,1.7793564,-3.406719,-7.651418,-1
395386a783cf868949bc75b2,6.9687185,5.351954,-4.9404745,2.479457,-0.5125933,2.9958956,8.504873,2.2627642,-3.5406878,-7.8893957,5
395b77d6e23e91d679e64b42,7.636831,6.083929,-4.5058312,2.674903,0.7938993,2.640177,7.380249,2.1837423,-2.2159092,-8.460229,2
39906bb66e971f4539c0622a,7.4579186,4.1904325,-3.7233088,2.4546664,-0.56831247,1.3137065,7.3931184,2.9212642,-2.8758595,-8.013346,3
399c3628c13323ad377e1a60,7.176607,4.9361753,-3.8876166,3.837656,-0.26750708,2.352624,7.492012,2.674032,-3.5477057,-8.139135,4
39ba6c8db42f461785968025,7.5582533,5.8931465,-4.6578274,2.4574459,-0.16822644,2.3941572,7.7463875,2.2102349,-3.8670523,-8.252101,-1
39cf17e6eb40c5fa0c47196c,6.9880147,5.2875614,-4.2478924,2.8966348,-0.5594191,2.0742104,7.9646754,2.2737672,-2.8593416,-7.3744073,-1
39f86a10de82d8b34d04cda0,6.6329317,5.140495,-4.3080506,3.2328792,-0.32267788,1.9117675,8.039107,1.6441044,-3.100288,-7.5367937,6
39fa34c3641d435c28334298,6.808295,4.896962,-4.3200283,2.3629234,-0.46853405,2.6562471,8.506822,2.4181123,-3.5129611,-7.789632,5
3a218abe2f7102116aa5f318,6.8569922,5.428347,-4.883898,3.6161559,-0.4138727,2.4089167,8.18879,1.892913,-3.3677237,-7.872093,6
3a5458953a421871d06ff512,6.8222966,5.6508727,-4.2893295,4.134443,-0.7156036,3.322063,7.43961,2.5757341,-4.128257,-7.7491765,4
3a90c1ffc126662de45017a8,6.4959393,5.606206,-3.9448986,3.1649456,0.44636148,2.1645374,7.298608,2.3339603,-3.0376663,-7.9523396,6
3a9a0868ef68cc8b8414ea4b,5.972983,5.5578084,-4.1427155,2.567939,-0.35968518,2.1455817,7.815663,2.491991,-3.829384,-7.7310596,-1
3aa76424d3b7b42148c39d3a,6.6256986,5.2422304,-4.1949644,2.9051347,-0.77932507,2.0544908,7.844671,2.4984274,-3.670404,-8.309672,-1
3aaf7fee13265e29e83e0449,6.148619,5.3836308,-3.9556675,2.4363573,-0.774563,2.6253908,7.7698846,2.4833188,-3.8824878,-7.483959,-1
3ae70b1ada20eb69d59a4319,6.4174294,5.5245533,-4.2839923,2.9632502,0.24896683,2.4802563,7.3435125,2.32391,-3.082132,-7.774709,-1
3b21bf365ca879bf1b9ffc53,6.6807704,5.547287,-3.7264056,4.604119,-0.23349307,2.9325094,5.937118,1.6496507,-3.2046301,-7.2587767,1
3c8ca3a82a1860884b14acc5,6.4456644,4.6280446,-4.477758,3.2839007,0.5384126,1.2822335,7.72,2.3223684,-3.6081166,-8.19963,6
3d00852bd7871d5d8f661e20,6.8408065,5.6279593,-4.2407193,4.1135283,-0.6636762,3.3649626,7.4142413,2.5942004,-4.1412983,-7.673933,4
3d2ac7489f31c3c991b88ca1,7.4730806,5.843072,-4.761131,2.3543348,-0.2853423,2.514981,7.900714,2.276511,-3.8209531,-8.212557,-1
3d494fe7775e0b2d6cbdc6be,6.7931285,4.9901786,-4.137915,3.027564,-0.66351175,1.8523557,7.494399,2.8148172,-3.2691638,-7.9819393,3
3daa48ee2a4b38108d24cdc9,6.7060533,5.311829,-4.459292,3.146289,-0.4643024,2.1058795,8.132796,1.6022414,-2.935403,-7.56009,6
3df723e384b8f2912f99972a,6.729276,5.1360674,-4.6296425,2.727361,0.752851,1.5793846,8.049007,2.1917708,-3.5855439,-8.114073,6
3e0e44c71b218fb1a36433a5,6.8040595,4.572936,-4.9760385,3.5860226,0.04666143,1.7762471,7.392472,2.2113812,-3.250805,-8.242943,6
3ea376d6a3bef92726368eff,6.9736276,5.2556977,-4.0316496,3.7319705,-0.360761,1.8806716,7.517639,2.0378635,-2.74115,-8.327983,-1
3ec762941a96dc7ce4517987,7.7623954,6.1841493,-4.478444,2.6703079,0.6391189,2.7602637,7.2911115,2.2094412,-2.1398737,-8.382579,2
3f26c6461ee0b340152c7e37,7.063208,4.4636545,-3.6717496,3.4295487,0.3940313,2.0289555,7.627781,2.051678,-3.5892189,-7.439186,-1
3f2748dbf5dc84f0787237e7,6.604542,4.7760777,-4.302626,3.0548656,0.59270537,1.5868083,7.7295585,2.1725152,-3.4915886,-8.329696,6
3f284cbd776af357b9ecf87e,6.8392,5.669663,-4.0595345,4.419366,-0.6293346,3.3837483,7.0793853,2.4598782,-4.0865273,-7.584384,4
3f2da82212cd116bf11087fc,6.9996567,5.5339565,-4.2720838,4.271262,-0.3754706,3.0062754,7.3676915,2.3987007,-4.0668793,-7.570157,4
3f9cdc5e1a516f4a8792efc8,6.8264656,5.3250203,-4.896328,2.409204,-0.17490876,2.7793095,8.530187,2.5620768,-3.590042,-7.797194,5
3fccec2df6803c486b4b29e6,6.6259303,5.50453,-3.6420834,4.4626613,-0.19746374,2.8656754,6.113709,1.6167562,-3.2600083,-7.232615,1
406870fa9c3eed79237bb230,6.850343,5.5593076,-4.329642,4.0015116,-0.27423045,2.4755125,7.354846,2.8255427,-3.0787005,-7.9684653,4
40bf009db7da97496399c0f6,6.8456745,5.363617,-5.116846,3.1465254,-0.6568561,2.8190982,8.396141,2.475492,-3.8124592,-8.059764,-1
40ecb86d30384916bf56c74c,5.388574,6.682841,-3.5439765,2.485562,-0.568357,1.7962105,7.000847,2.894428,-3.8122785,-8.0181465,0
4123f42478d5febef94c229f,6.962629,5.3179703,-3.986833,3.9122744,-0.38323694,2.7716813,7.331362,2.552954,-3.7567246,-8.026904,4
415c4c746057db8882f24595,6.576611,5.4268513,-3.6763847,4.3313665,-0.15443732,2.7214897,6.2990685,1.7586838,-3.2912555,-7.310103,1
418316843d8c59ef6136b7ab,6.5482764,5.4835243,-3.6293244,4.1143494,-0.27209243,2.8673904,6.387089,1.7373221,-3.4160182,-7.1757293,1
424253ba0dd9dea52993776e,7.0018654,5.118751,-3.9131494,3.98199,-0.33506823,2.4496057,7.4007306,2.7543032,-3.4322677,-8.287407,4
4242687895653719091925ae,6.5033407,5.0148873,-4.5917277,3.1681528,0.13009177,1.3285334,7.851291,2.1424918,-3.5121803,-7.8743587,6
425a09078064665d74edff98,5.279333,6.6726184,-3.5487738,2.4288647,-0.63395005,2.0278175,7.0156183,2.8334162,-3.843027,-8.00703,0
42fd181407f4d569908e9461,6.627621,4.760463,-4.3731647,3.673115,0.25778162,1.223222,7.6597795,2.099418,-3.127601,-7.864524,6
43c8f7b4960bb7545d1e0c1a,6.9397807,5.2574453,-4.8611283,3.7790759,-0.46756008,2.355011,7.974985,2.0648885,-3.604625,-8.201551,6
43dbb045219ae79e9afa1635,6.7712626,5.595342,-3.761378,4.263499,-0.072716884,2.7455444,6.5286,1.6970502,-3.139708,-7.3809757,1
44219ea23254867372857f5f,6.7859144,5.4672866,-4.968739,2.4458866,-0.4083619,2.7177587,8.493279,2.5364761,-3.36084,-7.765595,5
4448717593d61b74bf387e4e,5.3316593,6.6226463,-3.5595727,2.365274,-0.5291586,1.8294774,7.016259,2.8250794,-3.6756194,-7.9877796,0
446d078bda262fb35eeddda5,6.7655044,4.7839932,-4.417825,3.1307783,0.45611086,1.7699461,8.099624,2.0117507,-3.1887584,-8.104778,-1
44a8a1f49f0fe3a5e7c3afe9,6.6324477,4.99998,-4.1608877,3.1186776,0.39288893,2.2892413,8.052653,2.6674871,-3.7986047,-8.472579,-1
44f89553210631841101723d,6.387062,4.980901,-4.108735,2.2299159,-0.6850938,2.0089128,7.897146,2.2743082,-3.4857316,-7.294468,5
4569e4be621058f2817a8628,7.4273167,4.1456704,-3.819318,2.6613572,-0.3918785,1.3458983,7.505198,2.6999598,-3.0132856,-8.120777,3
4599d03df01bfa488bc22ddc,5.3923283,6.4689517,-3.5514998,2.4457407,-0.637515,2.1126287,7.106995,2.7856784,-3.8156602,-7.8492074,0
4635c8c17ff28fc7f246eeef,5.4487605,6.629861,-3.6016703,2.6234853,-0.49404556,1.9085002,7.064768,2.694028,-3.6599193,-8.078292,0
4638836303dd2f0601464fa0,7.4243803,4.0006094,-3.7823298,2.3585157,-0.37760615,1.1221182,7.4855685,2.7488482,-2.9085236,-8.008096,3
46c566e3bf5cbb436a46f8ac,6.384046,4.6141553,-4.017706,2.3667243,-0.43077317,1.9731816,7.9309983,2.2519221,-3.7918413,-7.4762406,5
46d4ae21a089f8a4acd52ff8,6.4503,4.972993,-3.900661,2.2887456,-0.44319955,2.2116315,7.874106,2.0041735,-3.394359,-7.2564483,5
470b3f9faea53b128fcbd463,6.754898,5.308683,-4.3776507,3.2827337,-0.38568494,2.016197,8.092943,1.5004472,-2.9110038,-7.518847,6
47484e17584b23df3fbb01cb,6.4428263,4.693882,-3.997897,2.3145745,-0.70083815,2.2349954,8.119296,2.1474674,-3.7489266,-7.375995,5
478bdc909cb6d99dde3ed7c8,6.7827077,4.9782457,-4.5709877,4.0081215,0.2095062,1.6042464,7.4963717,2.0989761,-2.9057913,-7.83551,6
47a22a804cd0fb40713be2a3,6.670213,5.2602305,-3.999469,2.9398208,-0.49026662,1.7141911,7.004694,2.6741226,-2.9392812,-7.78822,3
47bba74879e530f0554f926e,7.758294,6.2782607,-4.6174216,2.5470736,0.60868406,2.805784,7.362518,2.1988735,-2.0144413,-8.358596,2
480f552dcce4ee9ac745e3d6,6.719864,5.5605,-3.8531992,4.0057807,-0.1228515,2.7218535,6.591233,1.7487118,-3.14474,-7.4035997,1
4847da4417d258b905d4ae7b,6.8639536,5.2398143,-3.9378006,3.5327513,0.911398,2.4174592,7.272019,2.555326,-3.632971,-8.186121,-1
486b5493eac7109d198b671d,7.630219,6.086327,-4.513159,2.79491,0.6892715,2.6889012,7.3266344,2.1857471,-2.2273781,-8.376196,2
48c0b1d6302ffad07438a3f5,6.564632,5.4040303,-3.7308586,4.4016905,-0.00428073,2.778598,6.357849,1.7565473,-3.2023618,-7.138043,1
49540ba3a884bac74f79959d,7.446982,3.7977097,-3.662464,2.3884802,-0.38716295,1.0026536,7.4310656,2.8389943,-2.8825688,-8.055097,3
4a45ab781438abaeaaded1e9,6.870743,4.8255453,-4.8189983,2.8680143,0.3139543,2.086259,8.471289,2.3506923,-3.2900033,-7.5426297,-1
4addb18d2de5f5c60e0e5e90,7.567525,3.878023,-3.628636,2.4356768,-0.4430006,1.1322783,7.410485,2.7078881,-2.8861663,-8.041552,3
4af4614b101d73396ea82185,6.8332796,5.1234293,-4.114712,3.5712566,0.13811718,1.9868733,7.1004796,1.9606801,-3.3014011,-8.031763,6
4b0b5b8198e15f9efa255b35,5.3446083,6.5705066,-3.5213964,2.3699942,-0.54954034,1.9273688,6.9986763,2.8779304,-3.7304387,-7.9361305,0
4b116d928a97d1ed5507213b,6.8139963,5.297699,-4.8955584,2.3025954,-0.45679766,2.7161944,8.47382,2.554462,-3.4316046,-7.704294,5
4b33ef007fec52e7549e196f,6.633715,5.575886,-3.7002182,4.5986466,-0.2561921,2.8976974,5.928202,1.647662,-3.2105389,-7.2585626,1
4b6d2441af6a817033ca01c5,6.319347,4.8104653,-4.0221844,2.3395298,-0.22058171,2.125331,7.9463897,2.132961,-4.0166454,-7.6166587,5
4b81d63e9be95331876ddf1a,7.0758348,5.227167,-4.003638,3.109974,-0.24913153,2.1270385,7.6570396,2.5064967,-2.85751,-8.157787,-1
4bf5be7ecd40fd4864b9b73c,6.9461045,4.9597955,-3.933395,3.5627272,-0.22883302,2.4396172,7.595949,2.791318,-3.6257927,-8.262383,4
4bf8f8cce703c07545eff468,7.040988,4.787258,-3.9116745,3.7260654,0.29948825,2.0976262,7.2053275,2.2187574,-3.3680227,-7.917485,-1
4c4d83e6ab5e6d4a69eb5d77,7.1597123,4.4501534,-3.8835506,3.6277747,0.33791715,1.792083,7.5751185,2.2217484,-3.512447,-7.7273,-1
4c8335fa2a947840e4a10b1c,6.7163963,5.1313257,-4.6599097,2.7376068,0.82253987,1.536471,8.098716,2.1918728,-3.6226566,-8.132179,6
4cc09196b7a1fdc448300b26,6.6063576,5.5107265,-3.6923246,4.540655,-0.24957487,2.889856,5.985379,1.6348138,-3.2508743,-7.2767243,1
4d5be8476b6d5a78c8e9e898,7.680276,6.040315,-4.4741387,2.8659384,0.5620426,2.705298,7.3164625,2.1674979,-2.2418988,-8.204378,2
4d8d7e83f5d62db8be9c2315,6.649189,5.5289125,-3.6589272,4.568072,-0.28690782,2.9217038,5.9871755,1.6762335,-3.2355092,-7.305104,1
4d9048417143b2c57093c9c6,7.133846,4.775882,-4.922073,2.7735484,-0.20900102,2.2418172,7.8296604,2.2945316,-3.1181064,-7.9907074,-1
4dcebce1bc1a07092874094c,7.440138,4.369024,-3.591566,3.2518218,-0.4984751,1.3420755,6.8882966,2.070103,-2.5107799,-8.065429,-1
4e03eaa1e3d992742f8f5067,7.0118365,5.371845,-4.0374684,3.5730371,-0.39913023,2.5167654,7.533904,2.49024,-3.2935238,-8.235988,4
4e16f084eb0aebd8e984956d,7.4932466,3.8752592,-3.6475728,2.309366,-0.54653287,1.104894,7.376606,2.8966267,-2.9393792,-8.07337,3
4e25649b8d8091ab8b1f2498,6.8075857,5.70343,-4.1561832,4.3220077,-0.73121977,3.4538617,7.223699,2.593267,-4.1650605,-7.6709657,4
4e54f215f9221ec9d0e9658d,6.9116645,4.6745706,-4.577232,3.1275594,0.14342324,1.4358493,7.006433,2.1453857,-2.8522835,-8.104995,-1
4eda680aa8544f02f6af187e,6.358893,4.7900963,-4.6516814,3.468858,0.31218794,1.1011964,7.9072113,2.0974755,-3.3997297,-7.861373,6
4eedbb4e73bd5be18ae6d847,6.6621737,5.4872317,-4.0499406,3.1258166,0.22564147,2.1824265,7.409096,2.2230468,-3.106937,-8.223199,6
4ef67d5e513360967a277235,6.7296166,5.2672496,-4.2567554,3.1752596,0.12874489,2.0850987,7.965421,1.7976542,-3.2004888,-7.674309,-1
4f81c333b8cbda4be18f04c1,7.168787,4.484606,-3.731628,3.7047136,0.3301076,1.9287121,7.652465,2.219334,-3.5712085,-7.5744796,-1
4f9b7128224db97038da4b4b,7.0617986,5.3009186,-4.421296,3.2871232,-0.6053153,2.8861434,7.86059,2.4881546,-3.5712762,-8.057618,-1
4fbe004389eeee902d7da197,6.6891026,4.9810915,-4.60407,2.8848953,0.8161808,1.3598233,8.032916,2.112198,-3.605077,-8.062588,6
502a5d9280005020b4d966fe,7.100189,5.442719,-4.3621464,4.017886,-0.18901926,2.7201998,7.42677,2.2999704,-3.8973048,-7.6015053,-1
5046cc1917342607e4b5d696,6.516348,5.2815666,-4.39481,2.759702,0.15922529,1.2674204,7.179485,2.1184776,-3.346038,-7.665696,-1
5061998892cf90fb3bc9db8f,6.6108074,5.2315736,-4.353405,3.1540778,-0.43023777,2.0276594,8.139816,1.5591282,-3.0817568,-7.461734,6
51226bd8a1aa392d27e40ab5,6.9018435,5.4590697,-4.277381,2.931412,-0.30407685,2.406512,7.4698114,2.0484786,-3.5798547,-7.9279175,-1
521c404223919063437e74bf,6.3626566,5.388177,-4.1216745,2.6518128,-0.22610322,1.815391,7.3057327,2.1877232,-3.4323332,-7.87059,-1
5227843151a2a84b4721c21e,6.8580847,5.19024,-4.266232,2.6054063,-0.8191729,1.7889379,7.279788,2.902576,-2.9319985,-7.6935716,3
52d9b32a35b01f4748d1349c,5.34132,6.6855392,-3.5378027,2.4655173,-0.5079568,1.7889106,7.0460887,2.7951856,-3.6744614,-7.958216,0
5337314f48e0e9cec29a7b5c,6.787802,5.4260783,-4.6039124,3.0882556,-0.0761867,1.8592184,7.9858103,2.4455147,-3.0616097,-8.151412,-1
53469f9b03c4d3706c7c0b61,6.9306498,4.9214234,-4.0377736,2.5771415,-0.72495574,1.5313252,7.1697664,2.934344,-2.9372377,-7.821505,3
5352d93425047c58e1f21cb6,6.4907,4.721646,-3.8916311,2.4355779,-0.5401116,2.495731,8.02718,2.0335147,-3.8590915,-7.350973,5
539c34ec6897727c8e4f65f4,7.45861,3.80289,-3.634574,2.3490727,-0.50663435,0.9769901,7.447277,2.884951,-2.8690968,-7.9843407,3
53dc5a44d1d9654fba3f08c5,7.2994747,3.952932,-3.7174761,2.4254708,-0.52225316,1.0185243,7.3948874,2.8120525,-2.959927,-8.050043,3
53deae9b81283256b3d62dc3,6.629457,5.0769434,-4.5021887,3.292253,-0.051750913,1.519965,7.6176796,2.5233862,-3.1956494,-7.6193323,-1
53e0cdb5d7ec0c715ac87d03,6.6355414,5.219094,-4.6767406,2.2902124,-0.6727145,2.9337616,8.53753,2.530676,-3.8439233,-7.552236,5
54485e1f156861031b977c20,7.0603476,5.5177574,-4.3097878,4.309269,-0.27903676,2.9533815,7.3168077,2.3654532,-4.049622,-7.5265465,4
5453a13cd707e58b111c0e54,6.474826,5.0447707,-4.661192,2.8598726,0.61390835,1.5134795,8.11803,2.3135893,-3.7182841,-8.080768,6
54b1adb971099b479289e850,7.067516,5.1915646,-4.0702233,3.1522822,-0.1398142,2.0348964,7.608904,2.5376103,-2.9110315,-8.194248,-1
557eafe926d45b05345307b7,6.717818,5.265932,-4.019682,2.8421664,-0.55949295,1.7339958,6.965368,2.7387087,-2.9931989,-7.8602543,3
5587a3d806b4646dfc87a520,6.870041,4.47881,-4.1383986,3.4049828,0.00011582625,2.2361455,7.4290347,2.4234529,-3.488258,-7.9926333,-1
55b8609a9f96de59e1ca5e0a,6.16953,5.4036303,-4.0118194,2.4070039,-0.7517999,2.6002746,7.82132,2.5180137,-3.9009087,-7.467096,-1
55f51252d73d8fd2d5a5ce65,7.4112167,3.946029,-3.6592402,2.3975904,-0.56483287,1.1430438,7.4609337,2.9182186,-2.954255,-8.062168,3
5645647527481f609ff8a8f3,6.632858,4.710895,-4.4480247,3.1266556,0.71143806,1.4899061,7.7816906,2.1709883,-3.5119107,-8.342085,6
56878dd5fe331308611f6dee,6.7274394,5.584488,-3.7457323,4.2978396,-0.060389016,2.8199625,6.3654037,1.7040057,-3.1579597,-7.342469,1
56f327e4b14556e55a929717,6.81545,5.3477874,-4.9419293,2.435875,-0.26097405,2.9695935,8.646529,2.6263866,-3.7153718,-7.8939705,5
57f8f6acbf29d9b881a7fe91,7.522582,6.2607822,-4.564473,2.6472507,0.46142742,2.78455,7.2474756,2.1738927,-2.1115592,-8.304969,2
5885b6433da886c063fdd8e7,6.5249395,4.9882045,-4.177224,2.3842418,-0.5351799,2.3902383,8.125108,2.223558,-3.5629406,-7.357036,5
58a287a228fa68be27dbf0fb,6.513551,4.7081594,-4.542701,3.4007611,0.19663051,1.2501619,7.865266,2.2591977,-3.5006876,-7.640622,6
58aca1f9682c508d3d31a940,7.6520967,6.144609,-4.5281954,2.5801132,0.83328724,2.6637745,7.370603,2.1748297,-2.2398584,-8.475561,2
58ba527cb473e3b9c0850426,6.545643,5.544293,-3.518147,4.326366,-0.26209685,2.9303222,6.2298512,1.5650216,-3.2002077,-7.3155413,1
590a71fe83d4fd842604f997,5.3323593,6.7712245,-3.6191337,2.3911033,-0.5618933,1.8958988,7.1130276,2.8736978,-3.6869113,-7.869634,0
591c3d09a5eca065b64d335e,7.5203886,3.8649187,-3.6237047,2.430563,-0.47966895,1.1103526,7.4434924,2.77936,-2.8828297,-7.9726086,3
591dfcf8e8149b13ecf5fc98,6.837055,5.223997,-4.658513,3.7005417,-0.20446594,2.069171,7.831643,1.9312332,-3.4542031,-7.9367447,-1
597a8674727ad3304aea342c,7.395461,5.1304507,-4.5413485,2.8457623,-0.61240906,2.679074,7.8866115,1.2477423,-3.2881958,-8.237711,-1
59f25aff5b0a8b8a8b73c2ee,7.400337,5.164919,-4.7183,2.870157,-0.48986918,2.8223329,7.9170465,1.2932628,-3.4010835,-8.282152,-1
5a02c9f1a1fd706e74fc6282,6.39283,4.636452,-4.670963,3.5674977,0.4205118,1.2249768,7.7341104,2.22206,-3.5306683,-8.152529,6
5a2c175dbebe3bb465ca1250,5.2693496,6.68451,-3.540749,2.3716564,-0.5072029,1.7733252,7.057414,2.7974002,-3.7061067,-7.9747415,0
5ac84db8a3223e8882807d1b,6.369265,4.9054146,-4.0069895,2.4450884,-0.52973676,2.4254463,8.006905,2.1486664,-3.7977052,-7.426303,5
5ae586b1578b4ac46cfcfe5d,6.862405,5.4959807,-5.053856,2.7160664,-0.75776637,3.116539,8.337623,2.8423312,-3.70065,-7.8392234,5
5b31d8b955895d0279d48776,7.011636,5.085597,-3.5979366,3.0508566,-0.29259452,2.3070061,7.6907773,1.8012612,-3.473252,-7.581828,-1
5b56be73f77cc93cfe3f482f,6.6509953,5.249507,-4.3599534,3.0311244,0.39611766,2.427541,7.4052715,2.2088609,-2.756804,-7.783458,-1
5b6c05df8c1c0d6f9cf77bef,7.5472107,3.8523433,-3.6096022,2.4299152,-0.42160273,1.0758365,7.447946,2.7294524,-2.8845608,-8.037463,3
5c08ac202559726664dd414f,6.9812064,4.4176974,-4.0156207,3.0788891,0.082081236,1.3638738,7.612812,2.6958878,-3.249531,-8.132028,-1
5c7cc1da54f9238f871a13ce,6.8470774,5.1821547,-4.247563,2.6247437,-0.81657565,1.7562398,7.2174935,2.8766236,-2.9395795,-7.709132,3
5cb3cd658a005be04f4afb7d,5.4091535,6.5812936,-3.5070653,2.4165418,-0.36093763,1.9251797,6.81315,2.8136415,-3.667941,-8.087063,0
5d7264691717eb2221f633f5,6.7119055,5.118665,-4.112755,2.7728262,-0.10841867,2.069994,7.532908,2.248738,-3.7800057,-8.0547495,-1
5dbd5dcf078fd95583d97701,7.2858267,3.928971,-3.6202927,2.4042952,-0.3201473,0.90992254,7.3652534,2.6953728,-2.8499177,-8.116008,3
5ea96759d6102c87a89d1366,7.099175,4.460276,-3.7657647,3.670357,0.42831382,1.7916403,7.7039437,2.1269944,-3.5837092,-7.4807467,-1
5f3fccfa555fa14949c11d9b,6.7990556,5.0120215,-4.585358,3.970971,0.21019562,1.6541561,7.494934,2.091347,-2.8541973,-7.828268,-1
5f4ce956738cf25b1126c2c6,6.9160843,5.613166,-4.727265,2.3430967,-0.50682116,2.8352196,8.325712,2.3933597,-3.3748019,-7.782392,5
5f846839e3ef133c2cfa7e28,6.6761394,4.8827877,-4.198898,3.5940645,-0.117910795,1.8809593,7.4225883,1.9788847,-3.0668526,-8.131631,6
5f9ed7910f08dba1931c4a66,6.916019,5.556507,-3.918296,2.9507892,-0.3236877,2.5785728,7.9128485,2.2618494,-2.746227,-8.127403,-1
606f19da12d281b7e077c56e,6.43794,4.7576237,-4.145273,2.391419,-0.4096724,2.3180358,8.240654,2.237597,-3.8919818,-7.3906436,5
60e26229303792292888c8c9,6.6948905,4.790735,-3.7140617,2.5509598,-0.21138026,2.1596537,8.047045,1.7722038,-3.7784083,-7.413118,5
60f9c05e31bd3d431ced17c6,6.987618,4.6619053,-4.249508,3.465593,0.23262838,2.0121722,7.3247995,2.2390125,-3.275831,-7.8481436,-1
612c4019ac722b58fa1c6477,6.334864,4.7356653,-4.6467338,3.1669154,0.3486408,1.0418894,7.9574947,2.2570262,-3.5227349,-7.738428,6
612c827f49e225ba18848826,6.361988,4.68067,-4.6009126,3.363216,0.30207634,0.8866456,7.87792,2.2966464,-3.5602732,-7.709516,6
61ff03138a414aa86d700f29,7.1817837,4.5115075,-3.824189,3.6576,0.42144242,2.0177577,7.468513,2.1845713,-3.4907062,-7.673031,-1
623fc39e5fd4097375b5eb6b,7.4204655,4.0615625,-3.7376747,2.31874,-0.544252,1.0871148,7.2859206,2.9304497,-2.8510897,-8.017576,3
624053ca9826de81a361026b,7.2443366,4.5507474,-3.8366776,3.5755293,0.46193984,1.9306772,7.6061993,1.9928643,-3.4526024,-7.532171,-1
6249dee80fa5185af8294864,7.6795907,6.0520487,-4.5703735,2.5430884,0.4660409,2.6234694,7.4690666,2.2935922,-2.202087,-8.257721,2
624b7e32ac4eaf24d6dbf978,6.60438,4.433981,-4.3986897,3.4143023,0.49802846,0.9412567,7.855683,2.2131367,-3.4402041,-7.7597475,6
62555c7d47981045bc3bd376,6.870858,5.4467177,-4.845634,2.5191424,-0.69733953,3.2247632,8.539435,2.729289,-3.859276,-7.859692,5
62877450df461226e151097b,6.538876,5.4688497,-3.626563,4.3214865,-0.15061288,2.6546924,6.2340293,1.4977936,-3.2624564,-7.2406387,1
62aa07fcbb3f8e8b63ddc4d8,6.452977,4.6727285,-3.929651,2.2679293,-0.6104841,2.4157712,8.171733,2.1556935,-3.8693728,-7.3611484,5
636aa5ec3e821b5760584ecf,6.8802967,5.5070114,-4.1441364,4.1879244,-0.60797507,3.208038,7.35985,2.5991147,-4.0582256,-7.784304,4
6385b1b6684739db5ce07d9c,7.022297,4.982596,-3.9970798,3.7583904,-0.4433375,2.5691288,7.568538,2.75231,-3.6758156,-8.219728,4
63e2645885d0fa60a4458c14,7.1273375,5.493476,-4.3253684,4.265055,-0.21992342,2.884531,7.3092885,2.3292575,-4.013552,-7.5563307,-1
643bfa6904dd467ae807676c,6.363484,4.661376,-4.6585174,3.1950748,0.3854297,1.0186293,7.9824476,2.2452564,-3.538827,-7.7500286,6
649a3246fb04ec9243d58a7e,6.86065,5.4996443,-5.013734,2.7644546,-0.72759026,2.9379556,8.1551,2.8352346,-3.621635,-7.8079247,5
6509b773ea19216d27d000e4,6.382198,4.69895,-3.9736242,2.3444753,-0.73888516,2.285356,8.076136,2.1522403,-3.7672665,-7.3160644,5
650aa14ad2f24f6bc53dd83d,7.103612,4.470037,-4.009869,3.4340944,0.3612489,2.0602987,7.4529905,2.32835,-3.4518511,-7.853681,-1
650e72b68cff6b592d0230df,6.6483474,5.5485487,-3.6911438,4.530659,-0.21930373,2.8994153,6.016682,1.6566344,-3.2354076,-7.2348385,1
653b494845111be475e271eb,7.0429254,5.227498,-3.9535265,3.6975737,-0.43058053,1.9427404,7.4507203,2.0603187,-2.6876168,-8.368954,-1
65575128024a82caa50ceb04,6.9207125,5.440943,-3.5866222,4.407433,-0.0023643817,2.9658198,6.525778,1.7577132,-3.3187873,-7.1629972,1
6623374d3e29c99a883367aa,7.2312374,4.603621,-3.773882,3.6014085,0.43017387,2.1080253,7.4392753,2.2126892,-3.46468,-7.659866,-1
669a21ed6694827f367180c8,6.4111776,4.6899476,-3.967751,2.3363478,-0.55319124,2.3799286,8.13651,2.117601,-3.8283913,-7.3434772,5
66f380c666c3e63638d346ce,6.839922,5.656776,-4.2132845,4.1992784,-0.68661374,3.3780313,7.359945,2.619085,-4.1780005,-7.6884584,4
674c2a5257e79bc799f07979,7.366468,5.0823627,-4.1511974,2.9938397,-0.16502552,2.0713637,7.495392,2.5804222,-3.1240416,-7.624947,-1
67cfc9940c3aae1fc5d3785f,6.568418,5.4388394,-3.850533,4.3863735,-0.06052683,2.8207052,6.3135853,1.8247899,-3.1900744,-7.1072693,1
67e05bbe24b402161b651881,6.708292,4.7997046,-4.3904157,3.712919,0.22066253,1.2709466,7.6294036,2.116411,-3.048742,-7.828963,6
68572127284fd5a8e2e74239,6.6045027,5.506374,-3.664696,4.3172336,-0.17144464,2.874766,6.2940598,1.7237048,-3.334036,-7.147012,1
6959f057ddef1a34c920f7c7,6.4664664,5.6848,-3.919027,3.1921544,0.62370396,2.3507395,7.263169,2.3501785,-3.0615487,-7.98156,-1
695a12298f974afa27e46bd2,7.379496,4.011964,-3.6766317,2.4889078,-0.4013227,1.3946412,7.436568,2.6121826,-3.0585258,-8.107249,3
69dbae7d167fc17aa74252ba,7.0276732,4.409516,-3.6187613,3.372614,0.32319316,2.0757978,7.689352,2.0885468,-3.6489131,-7.369999,-1
6a0480f3fba4fc1667445704,6.89573,5.5877366,-4.0918603,4.2596903,-0.67134243,3.3378718,7.253335,2.5869453,-4.0945554,-7.7179546,4
6a4a54371da1512744e16785,6.6947145,5.3278704,-3.9157162,4.0130935,-0.056799665,2.6795917,6.526144,1.6245401,-3.3636198,-7.530802,1
6a998087ef6bf7fbb97eb208,6.931827,5.5938845,-4.316326,3.5694015,-0.094087735,2.7914386,7.6446834,2.4220593,-3.1826794,-7.7616453,-1
6ad7c6ec2c4e6f56eb7bd836,7.4737763,3.8774529,-3.6712675,2.3361902,-0.44908682,1.0595729,7.428892,2.8163526,-2.9579208,-8.079539,3
6b24f5a1da062803d278687b,6.5373554,5.31209,-4.01009,3.1518185,0.12460123,2.1027336,7.404916,2.2295678,-3.2669573,-8.408047,-1
6b94860d4bcf7db07bd14dbd,5.321737,6.620648,-3.6781318,2.3841443,-0.46218953,1.8227979,7.075792,2.8036187,-3.7612178,-7.8739786,0
6baec1cd34e678ecfb45fcc3,6.342806,4.606257,-3.998799,2.3086977,-0.48079857,2.0956955,8.048179,2.1953192,-3.9175682,-7.447732,5
6bc1de54f683ceb977673b3e,7.650854,6.112687,-4.5798907,2.6405401,0.61788136,2.6083124,7.32539,2.1568818,-2.2483902,-8.189867,2
6c584d5b1cad370acd14a9b2,6.7288165,5.174653,-4.083871,2.7934341,-0.45885003,1.7896227,7.2347884,2.6467834,-3.0275602,-7.702726,3
6c84cb47bc505562ebca2cec,6.5533266,5.563167,-3.59893,4.4648986,-0.26449835,2.8304815,6.026834,1.5690778,-3.2503989,-7.263072,1
6cb9de280cdba44a00d54998,6.5741143,4.49909,-3.8204842,2.3551714,-0.5344269,2.372401,8.127233,2.1860182,-3.7893326,-7.5502763,5
6d909075545ebd7c6c5bb2cb,6.6928887,4.868837,-4.2799826,2.951955,-0.27925047,1.7269833,7.776693,1.4898236,-2.5235126,-7.5789537,-1
6defc6e0a7db0a0a87b3ec20,6.919383,5.5151525,-3.932765,2.9446993,-0.37262902,2.5843754,7.9363503,2.2831993,-2.7607849,-8.123059,-1
6df355cc97278b93d1ee27f7,6.626511,4.8423357,-4.605789,3.2340791,0.68892545,1.2956464,8.06183,2.0783458,-3.6294885,-8.069337,6
6e02f9b014369e709d69230d,6.7336926,5.3404016,-4.319966,2.7055175,-0.47271857,2.0557196,7.3400216,2.6592126,-3.153972,-7.943713,3
6e0f5239388f5d3e36e32f80,6.4524093,5.460217,-3.639008,3.8534198,-0.36337808,2.8323412,6.561998,1.8268954,-3.4799645,-7.1796227,1
6e253afea41e502b5a57c96b,7.3536067,3.9044416,-3.7822826,2.2360394,-0.42462206,1.0116832,7.577236,2.7605133,-2.8886633,-7.8780227,3
6e33ea11f2ebb351d70129ae,6.9118285,4.843345,-4.8956275,2.8942795,0.36042988,2.0102656,8.503319,2.3407164,-3.3358843,-7.588074,-1
6e6bcb579354a90580357ef3,6.246689,4.8411636,-4.655848,3.3612025,0.26803178,1.0671016,7.973993,2.262584,-3.5976083,-7.8959317,6
6e79bee53040faeb9d219b8d,7.6746807,6.2218204,-4.5664096,2.662655,0.5722367,2.7926164,7.391397,2.254245,-2.2512643,-8.286951,2
6ed0cea3d3e29b33ecc1dc21,6.7730584,5.517764,-5.0436645,3.3025506,-0.6415526,2.708572,8.274325,2.353724,-3.9201355,-8.087221,6
6f2faba938402363426bbfe8,6.413918,4.9042406,-4.471061,3.1255136,-0.026392682,1.0811077,7.6746006,2.386542,-3.422865,-7.727246,6
6f36071765270f5f4ea6e221,6.608284,4.423997,-4.800431,3.5807498,0.22815886,1.4760365,7.498615,2.1511567,-3.4881327,-8.195735,6
6f6e04b7757066ab6c2e39e4,7.506501,5.796061,-4.7470937,2.4277718,-0.26467627,2.408337,7.833835,2.2021146,-3.7672305,-8.20159,-1
6ffc8e45ffc08892e52483fd,6.1940646,4.8943644,-4.0506077,2.6619642,-0.13932821,2.1202033,7.985572,2.2865252,-3.8130672,-7.827597,-1
701ae0ac78f47b467ba79fe5,7.2314153,5.0153923,-4.262707,3.2498486,0.2898632,2.240044,7.826746,2.134087,-3.2428544,-7.550255,6
703610153b3454683e213172,7.7390494,6.125346,-4.5268927,2.625553,0.7219152,2.6875672,7.333297,2.2347634,-2.1424809,-8.368815,2
708f87db8706c22057aa16ab,6.848887,5.4040256,-5.1026006,3.1817434,-0.6857353,2.8917184,8.37639,2.457545,-3.7915652,-8.038549,-1
70ad89b7a7c9c739fb01d372,7.2202134,4.562762,-3.8242645,3.581478,0.4615577,1.9306625,7.625494,1.9798512,-3.502063,-7.536737,-1
70be7f3db062cb1c2c6e9d34,6.5885844,4.445924,-4.350662,2.9705722,0.37627605,2.434933,8.031366,2.229584,-3.3083935,-7.627659,-1
713b5ef3be01a6dafeec277c,6.981308,5.360853,-4.6330466,2.938121,-0.6431825,3.0477116,8.185189,2.5533895,-3.6555958,-7.942349,5
717ea5b7d58d57f7b1b1da53,6.6658545,5.5723934,-3.6202357,4.330208,-0.26256797,2.7422025,6.23758,1.4763948,-3.3144972,-7.205796,1
717fb518ba36760bf8816eef,7.0405574,4.447201,-3.8395085,3.506403,0.43376473,1.844779,7.7035956,2.0685108,-3.5610077,-7.517592,-1
71c11a2950e88e5ec137344b,6.291033,4.820407,-4.737154,3.3464932,0.32586,1.0324391,8.061033,2.1932294,-3.5985987,-7.883344,6
721213dcfbe4b381924add44,7.6743226,6.201363,-4.572423,2.6393716,0.781024,2.754966,7.358498,2.1808617,-2.1334968,-8.445777,2
7294dde3318cdc92c5c37df2,6.733197,4.966263,-4.1863246,3.7141209,0.13053954,1.7592703,7.2381845,2.1132946,-3.1719532,-8.173125,6
7296fc056d4fca58a00d4f39,5.203141,6.7982974,-3.485333,2.3300734,-0.47524655,1.9240447,6.936469,2.8761673,-3.698725,-7.941305,0
72d6e9c721e3bf686a940bcd,6.7846394,5.6658607,-4.2226205,3.1643255,-0.061796088,2.351279,7.435866,2.4624434,-3.089697,-8.155655,-1
72e3ae1bd7ac72adcc96af69,6.879562,4.988248,-3.8912249,3.8023756,-0.19694665,2.2752323,7.532704,2.4561768,-3.378801,-8.127363,4
7331e00afeff0166b0971813,6.7186007,5.04206,-4.6230135,2.840268,0.83129585,1.4476466,8.047558,2.1305785,-3.6076689,-8.104876,6
743f6526eefa50d98a43b97b,5.3938184,6.604925,-3.6840549,2.4960413,-0.60902923,1.9810644,7.2566295,2.83594,-3.8604314,-7.8281646,0
7477a660eece1c8b3f2142f5,6.2854466,4.826677,-4.7519054,3.4549825,0.35291398,0.9790559,7.975143,2.0756397,-3.397141,-7.8274097,6
74a353762460f8aed4d13bde,6.9137826,4.6390457,-4.599849,3.1641035,0.17089023,1.4212395,7.0229964,2.1112227,-2.8114088,-8.134583,-1
74c72f9e941b9f2bf4607a1e,6.7821,4.871132,-4.589198,3.2818234,0.20698689,1.61416,7.9691935,2.249296,-3.2083702,-7.489285,-1
754fffda3a118e86466a2469,7.0141735,5.303069,-3.9941652,3.637165,-0.51083034,2.8366125,7.3286624,2.5816023,-3.7205663,-7.725391,-1
761061cc177795858d4f2809,6.629494,5.0001655,-4.1570535,3.108611,0.38083327,2.286756,8.054653,2.657443,-3.7902539,-8.47041,-1
7629b9f6d6e83b0cd82da4b4,6.61947,5.0886326,-4.5955806,2.7443888,0.6969853,1.7243505,8.094209,2.3855402,-3.6042883,-8.171972,6
765b2010a75084d9ed0e7beb,6.615406,4.7038965,-3.8188236,3.2015162,-0.26032096,1.6080086,7.72231,2.3001406,-3.0861423,-8.055227,-1
76edae70a21c3eae93b6bb74,6.962377,5.320868,-3.9219282,3.5273376,-0.42809013,2.0630183,7.5021477,2.1420047,-2.7721865,-8.281714,-1
772f881e3868c690890e67c1,6.8343625,5.6657166,-4.1154976,4.317647,-0.68598497,3.4126594,7.207223,2.537917,-4.1310234,-7.6442585,4
77f78b72ae6df30f7ee619ce,6.730967,4.7570796,-4.5991125,2.5821164,-0.12964456,2.2191515,8.256594,2.4721487,-3.3189285,-7.5953097,-1
7894c738aedf1e506d17633b,6.568302,5.5096383,-3.655281,4.1977887,-0.20131253,2.5831132,6.265665,1.4290209,-3.2465081,-7.331394,1
78dc4251172e29b4d27b1bc3,6.9297976,5.2577558,-3.8985794,3.6069367,0.8100446,2.546187,7.1988254,2.5741563,-3.6889749,-8.172303,-1
790d234d729f53aa88731022,6.9588995,5.6834793,-4.371504,3.064924,-0.4972263,2.446277,7.515114,2.5311892,-2.9027078,-8.044946,-1
79315dd11b0aa1d3a42e5286,7.7589803,6.19714,-4.5820546,2.7045798,0.77800304,2.7046726,7.272511,2.0893414,-2.0087998,-8.454539,2
795a63fe33ce3529e0a19003,5.310581,6.6110315,-3.4670343,2.3556612,-0.51653665,1.9065142,6.970207,2.814319,-3.762299,-7.997386,0
7a424982f62af93e370ae3ff,6.610858,4.916215,-3.8493261,3.8185828,0.26372328,1.9504132,7.2976727,2.7444887,-3.4697316,-8.638405,-1
7a64d8a2bb2f9184396035ce,6.684086,4.8944798,-4.3065314,3.0251858,-0.33806327,1.6885893,7.7041087,1.6443863,-2.5265965,-7.6784315,-1
7a7ffec31d7e151534f87781,6.6612096,4.795721,-4.364759,3.7199917,0.23134914,1.1958836,7.634672,2.1363497,-3.0649831,-7.830785,6
7b32178f6a3ad04138774db4,6.5648537,4.688645,-4.5044103,3.3508737,0.04931456,1.1802629,7.8806443,2.3010323,-3.400411,-7.989584,6
7b6eb96fd5317287539a7d3e,6.7225356,4.825446,-3.970502,3.7414062,0.24950732,1.7959882,7.2583847,2.6988351,-3.4635587,-8.53817,-1
7b8680742d8436902a573024,6.3694744,4.6957746,-4.6277914,3.558101,0.3739728,0.9039461,7.869959,2.1366115,-3.3592968,-7.7554016,6
7be749b02a91bbb23749ffe2,6.87645,5.5834045,-4.0870295,4.275246,-0.681578,3.344077,7.244171,2.55904,-4.090284,-7.7206936,4
7cb020329f9c71e197c089ad,6.928964,5.608063,-4.1896725,4.281205,-0.5738215,3.2597904,7.296708,2.5232358,-4.1338286,-7.65108,4
7d96331fb181a2d1b888875d,6.3579335,5.4285817,-3.4888227,4.399648,-0.19621274,2.6870565,6.143855,1.4188077,-3.2472022,-7.204627,1
7dd127380776561feeffd587,6.890488,5.3133984,-4.8593845,2.4022365,-0.395744,2.7163897,8.3990555,2.3757913,-3.3412936,-7.75592,5
7ed4bf3d6bdbca5765853999,6.7663074,4.8970566,-3.6674871,2.6898098,-0.16904522,2.1528025,7.878786,1.7439721,-3.7735546,-7.4606056,-1
7f20913f2a10d22efd0ef722,6.9747076,5.079965,-3.9178102,4.0026503,-0.2700949,2.3526084,7.3983183,2.683793,-3.362205,-8.278177,4
7f25a098c380cbba3131cfe6,6.322915,4.781219,-4.037682,2.3098369,-0.25447592,2.1567924,8.005053,2.1127248,-4.023346,-7.559431,5
7f4c2679512941375b4e5d84,6.9337945,5.7153316,-4.207892,3.1322029,-0.4648342,2.451644,7.406065,2.3856006,-2.9596076,-8.127737,-1
7f5a7473a8772b083902da8c,5.366657,6.7206287,-3.6641998,2.564558,-0.5785202,1.8059372,6.9640036,2.8898008,-3.5729675,-7.900388,0
7f966e6abbe44d95687c9b41,5.386254,6.6585217,-3.6398468,2.4841204,-0.5941128,1.9184084,7.1760726,2.861277,-3.7807333,-7.8442335,0
7f9c02cf9c55d11cb0246510,6.99222,5.5785294,-4.891588,3.0036652,-0.7047427,2.622592,7.665427,2.8944075,-3.4457994,-7.8356133,-1
805eed117eb64d0dff87b923,6.7022095,4.489098,-4.7421174,3.6035295,0.260772,1.5172192,7.266864,2.1402445,-3.2241607,-8.281957,6
80d1d66a6964c3e72a8877a9,6.6899667,4.474114,-3.778526,2.3272073,-0.59842485,2.2029684,7.9457335,2.182052,-3.692039,-7.622847,5
8147b7b2181996ff521047df,6.5372963,5.6730566,-3.8767252,3.4157383,0.3983158,2.5227156,7.011034,2.1984282,-3.1937265,-7.8133984,-1
8155ca030f639455fb2b4f32,6.7892933,5.1557913,-4.281186,2.8115478,-0.5958595,1.5941191,7.109182,2.8270195,-2.9045928,-7.822029,3
815e66077471798ac65f0796,6.761658,5.547176,-4.376981,3.8598535,-0.266684,2.3707013,7.360724,2.65707,-3.0422246,-7.9060802,4
8168eac03e3dde7866edfa66,6.6350007,4.2634816,-4.504874,3.0677748,0.19890071,1.4930437,8.029222,2.1587298,-3.46749,-7.776121,-1
818332e43445405119ab74a3,6.6479735,5.52281,-3.7684312,4.5982294,-0.25304195,2.9045112,5.928539,1.6762773,-3.1818607,-7.3211684,1
81cc957dc912b70adfbd514e,6.8655047,4.620287,-4.4699016,3.0629165,0.20651169,1.8551437,7.821221,1.9671413,-3.1919725,-7.9354224,-1
81df432c665f994ace560306,7.0194626,5.206891,-3.9519668,3.7096899,-0.43561065,1.9235833,7.4445877,2.0468724,-2.7102718,-8.362448,-1
81efbc458a9f2e05c4089691,6.7750964,5.2499046,-4.501125,3.399193,0.07167307,2.0404751,7.9817386,1.7810937,-3.1771421,-7.7900743,6
828a1c1398821b38066e685f,6.731096,4.5439625,-4.799189,3.4583023,0.292472,1.6939888,7.4962344,2.14591,-3.3277583,-8.298508,6
828aa92130cc7218dfd9c4cd,6.6004977,4.833818,-3.987165,3.2205098,0.22414869,2.1217897,7.8019753,2.5645206,-3.752645,-8.337457,-1
829b5fcbceed9ea554286067,6.364859,4.521866,-4.666965,3.3854554,0.3972327,0.8460413,7.879715,2.2611375,-3.5937493,-7.731604,6
82aef3eee481d9c4794b66c2,6.699511,5.0449204,-4.192606,3.7470222,0.16641214,1.675263,7.401179,2.2426922,-3.0806081,-7.9734635,6
82d4460ff1c4e03ea163d73e,6.736676,5.0289693,-4.82349,2.4830081,-0.21541637,2.9135907,8.473983,2.514411,-3.5202491,-7.6992097,5
832f34385c0fc1cbe878c5c1,6.3298235,4.56728,-4.0284777,2.4145157,-0.40380156,2.0701182,8.130039,2.126604,-3.898455,-7.405095,5
838dbd8ac5084c6b26fca6fa,6.7603602,5.276565,-4.019745,2.653858,-0.2573567,2.4150684,7.637259,2.0409982,-3.4244242,-7.5602508,-1
839156991f543b2ab4eb5146,5.252498,6.853607,-3.481218,2.614648,-0.6020249,1.919623,6.9188857,2.8745196,-3.7880104,-8.0416155,0
83baa21320ff7d4ad9ca6977,6.636566,5.3247957,-4.2554164,2.9630427,-0.7931167,2.0917442,7.7587757,2.5250149,-3.6680562,-8.379403,-1
83d576912244834dd7597594,6.709773,5.5542655,-3.740181,4.4388123,-0.1186737,2.8330324,6.24489,1.6862282,-3.191483,-7.2622313,1
83fec5df59fd4e36c7058966,6.6597915,4.535867,-4.0526886,2.6928933,-0.21123923,2.4845326,7.9429836,2.0933368,-3.4731765,-7.860984,-1
8412c3dcf3e1230ea7bc873b,6.9021506,5.0970297,-4.1135325,2.5491862,-0.7271056,1.6950438,7.203976,2.92955,-2.9780703,-7.82056,3
844f341ccfa1b28c72836d6c,6.5125375,4.573473,-4.53444,3.140633,0.3711141,0.9248295,8.00426,2.3016074,-3.535309,-7.7036114,6
848d42c4bd8c5baf81e958c2,6.8869615,4.765074,-4.867426,2.848503,0.30417174,1.9806151,8.526921,2.398587,-3.318837,-7.4939103,-1
84a2b2e82905a7c54e0b57ec,6.690245,5.1080337,-4.5327554,2.3896286,-0.5302717,2.7569282,8.34883,2.3938398,-3.6804368,-7.433735,5
850627dd02debf14e4f29efb,6.7999697,4.6484356,-4.9418073,3.4115317,0.22731377,1.8115524,7.4733243,2.224499,-3.3001115,-8.290165,6
85126ecfd96b06db69476688,6.6954637,5.230036,-3.9211602,2.931398,-0.55339426,1.6883951,6.9444947,2.6022897,-2.905125,-7.8073816,3
860133d822ffa8d839632dc9,6.456757,4.5903926,-4.009904,2.5067055,-0.37497056,2.4736362,8.092709,2.2534246,-3.8730476,-7.4719806,5
8618213119fed0c02bc31ca5,5.385953,6.696677,-3.5048485,2.6207185,-0.5389654,1.9007261,7.0928435,2.7925642,-3.6584077,-7.9493413,0
8629a1f074e56cc4933ed1bb,6.796397,5.434791,-4.627399,3.0624583,-0.12471232,1.8767066,8.041387,2.4711995,-3.0436256,-8.125807,-1
8629f797093512e1e5d97593,6.7357635,5.3318,-4.326666,2.5338898,-0.6680508,1.7569598,7.219712,2.7837198,-3.0828743,-7.806471,3
8693e1369cda658359a4f999,6.8178577,5.6228185,-4.0841675,4.2410326,-0.72175413,3.3928385,7.2667575,2.5695012,-4.0751204,-7.734732,4
86c22ffa62b27a7092110873,5.303821,6.765069,-3.5360131,2.3521218,-0.5671633,1.880242,6.9669247,2.9483123,-3.6946895,-7.8789253,0
86e01c530223c5b2f5d60e67,6.857892,5.351911,-5.0479245,3.6604178,-0.58951217,2.487607,8.106838,2.215057,-3.6876948,-8.15207,6
86f60398d4e9bcbb7228cd42,6.9446254,5.045154,-4.29817,4.007515,-0.1837658,2.1689963,7.6639457,2.4135723,-3.381998,-8.107516,4
870713373da185aa63e088b5,6.4018188,4.736228,-4.0198517,2.3779192,-0.83721966,2.2049243,8.0719385,2.0916526,-3.640924,-7.281313,5
879b2a5ca32bb5a18dbff61f,6.9568005,5.6280437,-4.218607,3.3804424,-0.088218346,2.37575,7.405403,2.6179934,-2.9888976,-8.250158,-1
87a29d144575d837c67b527a,6.9145384,5.406955,-4.84036,2.6495025,-0.62455493,3.2339256,8.499608,2.6498094,-3.7731075,-7.9073853,5
880bba37c59d55e3d11cb7cc,6.7241898,5.0826373,-4.3351398,3.7580767,-0.08893542,1.6196299,7.7432275,2.1470747,-3.001808,-8.054007,6
888e00514ca1db3d6c08fd64,6.7653995,5.2019453,-4.152788,3.0802903,-0.40903553,2.535903,8.013637,2.5414042,-3.6836333,-7.1958485,-1
88cff39aa25e8db9e0762ade,7.552577,6.003271,-4.422212,2.686491,0.68239266,2.730427,7.3945465,2.253972,-2.2507248,-8.271944,2
88fc967a8a8ba60d262de6fa,5.282023,6.7151327,-3.5277538,2.3302002,-0.5550419,1.7458947,7.0822372,2.8646019,-3.7850723,-7.950021,0
89089947fa76b293a081407a,6.824626,5.462087,-4.285755,2.8149328,-0.44662127,2.3258646,7.4601493,2.2372463,-3.7629302,-8.028313,-1
891ad733771402d7c440c50e,7.395573,5.124343,-4.7034864,2.8791797,-0.51893806,2.8095927,7.9266562,1.2649847,-3.366433,-8.24839,-1
89395e6bd102f42bc3d03dea,7.611828,6.2468963,-4.5130715,2.5276084,0.7578207,2.83686,7.3294735,2.171487,-2.166206,-8.385661,2
8951ab2c8c366776d1f669a2,6.774244,5.1860633,-4.748771,2.4095848,-0.40106782,2.8455193,8.543817,2.4677854,-3.6305492,-7.5169487,5
898474096af4e30d5ba59968,7.660021,6.1760435,-4.5586696,2.6084144,0.75128,2.6626384,7.279079,2.1471093,-2.0355282,-8.398818,2
899a6a2584defba083f2dece,6.450307,5.700702,-4.2574954,2.3942862,-0.6823645,2.7707214,8.141257,2.708648,-3.8361785,-7.3624334,-1
89a73292a65f225d255208f8,7.174799,5.0999722,-4.399608,3.0698438,0.1416621,2.2137206,7.8593473,2.356675,-3.3057413,-7.4399915,6
89bfe571fccbaf54a742779c,7.7475834,6.292378,-4.619137,2.5769036,0.6956586,2.8320742,7.322775,2.2534676,-2.1269598,-8.347487,2
89c2bacb0fdc665788ca0c27,6.471493,4.6015477,-3.6732552,2.6645641,-0.44634268,2.2397773,7.700763,2.202129,-3.9156623,-7.4050746,5
8a75813c042d6f61018997f4,6.841426,5.48748,-4.9018497,2.4064796,-0.3987947,2.9358459,8.32555,2.5560608,-3.5769982,-7.8323507,5
8abfb91232f8d169c196f965,6.7652893,5.1142545,-4.225994,2.5605688,-0.73351496,1.7811265,7.3880906,2.7482936,-3.067304,-7.664205,3
8ae579ade1f7b386eced3aca,7.4135017,5.129114,-4.735113,2.8702276,-0.5090065,2.8428993,7.950772,1.2591903,-3.3778548,-8.25176,-1
8af1d0aff15ce7c0a5c561da,6.8038025,5.017847,-4.0468307,2.4874341,-0.6237698,2.645862,8.00638,2.5209694,-3.6501424,-7.8853903,-1
8b568c449abd02c487b904e8,6.731497,4.473644,-4.8195,3.5947783,0.18998271,1.6559893,7.3509398,2.1053255,-3.2577343,-8.282053,6
8b659281aaf8484650ee511a,6.92717,5.423167,-4.8047295,2.6460345,-0.12650242,2.755093,8.356742,2.527124,-3.3095915,-7.771857,5
8bcc7e8593d5412f886ecc28,6.636111,4.770656,-4.093779,2.3375492,-0.56412745,2.4906657,8.113714,2.2786374,-3.716247,-7.4141417,5
8bd4790d8081fd98fb01829c,6.4441414,4.757993,-4.5764775,3.657662,0.21652739,0.9428818,7.8768444,2.3216002,-3.480453,-7.6487765,6
8be87ffd829637a598c98c47,6.6701417,5.2844677,-4.7547097,2.371781,-0.6649605,2.9688606,8.553921,2.5410259,-3.8327327,-7.602757,5
8bef5838f8eb25646804d2ff,7.119639,4.4427185,-3.9168293,3.677737,0.3994847,1.7099048,7.6344905,2.1700504,-3.5044048,-7.6690545,-1
8c12610edba396d884a8c621,6.5277815,4.8623466,-3.9305158,3.684422,0.5408344,1.9254868,7.4324465,2.7465641,-3.485807,-8.687544,-1
8c2459ce341b8ed941977961,7.600963,6.1495237,-4.543503,2.6929834,0.85606724,2.7366395,7.332638,2.2377913,-2.127574,-8.501081,2
8d488027bf6c4b1e6e9c09e7,6.757647,5.6145744,-4.792773,3.6765964,-0.5022057,2.5688589,7.4974575,2.8105137,-3.3121536,-7.8667817,-1
8d4e174867fa22fac3b281de,6.5751743,5.1088357,-4.429972,2.3014,-0.5558712,2.571679,8.349422,2.248812,-3.7906528,-7.6410637,5
8d586e61b3baf63882de6231,7.2556906,4.988507,-4.2251253,3.1598547,0.2207057,2.1644084,7.7274704,2.3979099,-3.277632,-7.485079,-1
8d896c6a922a1eee32cd1b0e,5.220897,6.7926607,-3.5195215,2.4083295,-0.6463325,1.954846,6.9976425,2.9457972,-3.756964,-7.954914,0
8e38a244006b24e843ba7f07,6.598194,4.7211905,-4.535818,3.3507736,0.2677388,1.0411965,7.979708,2.2440665,-3.3494766,-7.781067,6
8e78f945831b3ab113284ced,6.384914,4.603638,-4.552416,3.3516436,0.5100467,1.2077131,7.7335243,2.3232877,-3.646211,-8.179623,6
8e951912b3106e692f305755,7.12367,5.470824,-4.478866,2.9661293,-0.13306712,2.4637542,7.8266473,2.4628713,-2.8821726,-8.131948,-1
8ec8a78ef93f2d57496e45e0,6.7781405,5.7367005,-4.099434,4.408242,-0.6805737,3.4631586,7.113992,2.4794436,-4.1442504,-7.5687966,4
8f1b3ac1132472ce72a329d4,6.5774083,4.442424,-4.816765,3.5927389,0.24471024,1.4463167,7.473056,2.1184762,-3.4433925,-8.167581,6
8f7b943b4b13bfa06fe5b3be,6.608395,4.486907,-3.747301,3.1277814,-0.051343884,1.7705648,7.7670636,1.6930197,-3.0045376,-8.251801,-1
8fa99a46c0c319b00bf3d7f5,6.809507,4.890796,-4.271759,2.4157243,-0.5043399,2.6947787,8.498259,2.4205825,-3.4465013,-7.828309,5
8fe3af99d3d88ebc09f2b69b,6.7495575,5.449756,-4.83657,2.618474,-0.7163164,3.1731217,8.444514,2.7031994,-3.7515314,-7.9046397,5
8ff946711b9af6f3cfdb196d,6.8664274,5.344005,-4.447008,2.4687598,-0.77886546,2.1065025,7.492417,2.8220458,-3.0546339,-7.7664943,3
905107f47c94e3c39f948441,6.7987633,5.1825695,-4.4992023,2.481906,-0.76120424,2.7449236,8.243778,2.699497,-3.6097615,-7.8815503,5
908bfbdf6203901cc47a35bb,7.634264,6.267997,-4.515021,2.7028618,0.6401491,2.8282342,7.2867126,2.1585834,-2.1474314,-8.325018,2
90ce00b9330b867498fcd82d,6.7978706,5.1499996,-4.2835593,2.708208,-0.6681435,1.57638,7.1275187,2.8762755,-2.9059067,-7.7888384,3
9174a02452fca59c28470bd1,6.431418,5.616999,-4.011195,3.1588223,0.6357893,2.3847628,7.310384,2.371009,-3.0575845,-7.985203,6
91f86eb3035ce226ce71d24e,6.873799,5.37381,-4.3737965,3.1659489,0.10219925,2.1471696,7.256239,2.1458805,-3.4368923,-7.807866,-1
922da1252847a501457ee7a8,6.7335668,5.361534,-4.7950478,2.3787901,-0.60528266,2.8091285,8.486489,2.3970332,-3.7374496,-7.833642,5
92356f6cd0d00ec8699c0419,6.9344125,5.272636,-4.2382774,2.4277008,-0.7150099,1.8029737,7.212178,2.8864465,-2.9309838,-7.830165,3
923f95f43353c756e720b5bc,7.5666394,3.852715,-3.694885,2.4458017,-0.4487518,1.1386024,7.457748,2.671486,-2.8981996,-8.101226,3
9250a150e87ec2b5979feb4c,6.6128435,4.851328,-4.019622,3.3292186,0.18706301,1.9038457,7.6201773,2.0931406,-3.3600805,-8.33267,-1
929cad98770e4de78839721f,6.6101985,5.051831,-4.934699,3.6780372,-0.30023843,1.9461199,8.070893,2.2187622,-3.780471,-8.097358,-1
92b8ed659e9093edac76f537,6.6473303,4.2523947,-4.5528574,3.0331912,0.17214249,1.5288767,8.049472,2.1477222,-3.4446642,-7.7953234,-1
92e203a67e64825c291abe79,6.679834,5.4295187,-5.003044,3.3076327,-0.5349057,2.6413658,8.241177,2.3672972,-3.8141148,-8.047767,6
937d48b1039f95defe9581e9,7.008335,4.959121,-3.877287,3.9227064,-0.00010914739,2.2088628,7.448585,2.5519059,-3.497391,-8.245241,4
937dc533a34508f6cf99f12e,6.6331053,5.1765766,-4.4140515,3.1997268,-0.36332974,1.9449981,8.172738,1.5099021,-2.9113514,-7.512011,6
9394328cf0b7ac5aee56daea,5.233073,6.757455,-3.5778806,2.367958,-0.6562113,1.9742117,7.028083,2.9739263,-3.7907102,-7.928982,0
93a3d3e11cf27aa0fabe2887,7.6997356,6.344002,-4.601738,2.555095,0.89511824,2.8322031,7.292889,2.1133533,-2.0555942,-8.501802,2
93a7e86b412e93a6c795ff5c,6.7646203,5.3497663,-4.852958,2.4272838,-0.33438566,2.6358793,8.245375,2.3658342,-3.3441098,-7.816046,5
9453b771a9749b92983782fe,6.887191,5.5002584,-4.774814,2.7463467,-0.49654633,3.2159836,8.407492,2.648784,-3.6159708,-7.715412,5
94726055ccb75b32dce17056,6.930584,5.328271,-4.5470557,3.1466048,0.2204139,2.5244963,8.03046,2.461955,-3.2147393,-7.897336,-1
94cf9e5a570b617ed97e7313,6.7277355,5.1410317,-4.097903,2.802463,-0.5970968,1.6020025,7.1976395,2.8416069,-2.9916565,-7.7919674,3
94e890862d5cd08006def2ba,6.6863413,5.0514855,-4.1200776,2.279667,-0.74382293,2.6600401,8.005035,2.5225036,-3.7614572,-7.678251,5
9539ccda042bebe20d8ded24,6.3726573,4.8893986,-4.161098,2.2987564,-0.5327455,2.5561814,8.277931,2.262965,-4.0384445,-7.4160385,5
955cb2607774b34f13f807ee,6.938791,5.134463,-3.821099,3.5450609,0.4899226,2.4567144,7.298187,2.2798328,-3.5822537,-7.781409,-1
95b9b35e32c0db7f8b03fc53,6.517545,4.9579268,-4.236578,2.3376768,-0.56711835,2.4892519,8.211884,2.1873856,-3.8554697,-7.626849,5
95c37cd34f394f7627e65432,6.4332323,5.7011476,-4.2589498,2.3510733,-0.70792484,2.8083723,8.178052,2.7242873,-3.8438234,-7.3609486,-1
96353d2e63a23e83625e287a,7.4489503,4.2983713,-3.5769763,3.173222,-0.48780033,1.2981068,6.8598156,2.108597,-2.5242908,-8.044471,-1
97b3a60c1492f76b00024d04,7.029349,4.5780807,-4.0017624,2.2589147,-0.7371395,2.0467076,7.9013734,2.507288,-3.4111578,-7.7242336,-1
98093e3be736c8b57e9a5cbb,6.8493943,5.069354,-3.977716,3.2817125,-0.17616853,2.0317564,7.5679035,1.8124906,-3.0210915,-8.264277,-1
9833c3a62e8a028e89585501,6.812118,5.651932,-4.026344,4.4086986,-0.59435785,3.3412354,7.0074906,2.3845549,-4.009495,-7.5531325,4
9855453f52bfe9a7f419972a,7.283153,5.4539437,-4.508099,3.1311083,-0.3967623,2.7058423,7.634049,1.9763739,-3.3677294,-7.7676163,-1
9900361fbc4d0b8643af8fc2,6.8662734,5.2443304,-4.513181,3.352798,0.030164598,2.0509932,7.857866,1.7564621,-3.2654078,-7.955342,6
9951bf7b272bcc98c6379f13,6.6264443,4.310873,-4.568894,3.033009,0.14858335,1.5600957,8.026672,2.101026,-3.4161937,-7.8394957,-1
99b649d4217ab77067a29fa0,6.6206584,4.7934837,-4.464939,3.803802,0.23923196,1.1748389,7.6591053,2.1774874,-3.0959122,-7.825271,6
99dbcd73498b066647addb4e,6.6200867,4.7746773,-4.3416934,3.616581,-0.09846855,1.7647114,7.4583387,1.9440411,-3.0323222,-8.07142,-1
9a750eb5d0e6287763e9f676,6.612452,4.7693186,-3.9599497,3.3233876,0.2313692,2.0546546,7.7282057,2.6358528,-3.7648063,-8.398441,-1
9abb7f6c221d80273a2351ef,6.877612,4.683857,-4.5915847,3.1550074,0.18549956,1.3748633,7.015548,2.1803865,-2.8865786,-8.074663,-1
9ad1a205141cf3183c7965d2,7.478929,5.872551,-4.7426825,2.460882,-0.369877,2.5021896,7.742856,2.4012225,-3.808637,-8.146302,-1
9b3e5e9c40188af9d6541529,7.1768937,5.3290076,-4.4940658,2.8401625,-0.065011285,2.5250568,7.97144,2.358516,-2.930837,-7.9375453,-1
9b44ab2edeff2c05d0031053,7.1163664,4.4531837,-3.762659,3.62915,0.4195911,1.8204187,7.670103,2.093228,-3.5482635,-7.503299,-1
9b58c2fb4bbc3fc359c935fe,6.940824,5.5434237,-4.9241915,2.9653902,-0.79283553,2.6127553,7.7008486,2.968626,-3.4185326,-7.8304176,-1
9b6ecd25f8f7f7a9fb28f28c,6.823037,5.2155986,-4.989835,2.4613338,-0.27166307,2.6936014,8.658624,2.5235302,-3.4615064,-7.633828,5
9c41222ca77e3cda7a89fa6d,6.4734044,4.8674216,-4.1604643,2.3993058,-0.49964225,2.3931665,8.246256,2.1534963,-3.636354,-7.2675486,5
9cde9be5d9bd89d8039968dc,6.585402,4.820591,-4.638167,3.2988226,0.629679,1.1932561,8.091466,2.0931113,-3.637375,-8.001726,6
9d27019eddefdaee1669712e,6.699391,4.9116163,-4.258781,2.8902643,-0.30672893,1.8455364,7.8146377,1.4353137,-2.6099849,-7.5890803,6
9d5565d1e459131b0fb6b1ed,6.0258965,5.55818,-3.8884091,2.4274502,-0.7611295,2.5375524,7.651641,2.52606,-3.877852,-7.5377855,-1
9d6309022dcaac611c4d3cdf,6.836387,5.267994,-4.614867,3.657767,-0.17347711,2.146995,7.7871904,1.9959801,-3.4837315,-7.8795915,6
9dad456413244ee4f5cdc3b8,6.6625953,4.824666,-4.042947,2.2756252,-0.6962493,2.6208682,8.179656,2.3646493,-3.7404962,-7.579988,5
9dbd2a69e409ae67c166bfc0,7.399324,3.8881266,-3.7362597,2.4297931,-0.34565815,1.0782537,7.500334,2.7627494,-3.0023046,-8.086692,3
9deb92f781cfc2389ad20135,6.9946976,5.42084,-3.561237,4.3441496,0.019265939,2.9914572,6.6363697,1.8003919,-3.3543935,-7.1740365,1
9df481e7856f467121c9268f,7.472898,4.181005,-3.7323182,2.44166,-0.5084472,1.3141395,7.419871,2.7838411,-2.9722292,-7.9355283,3
9e2337d87f6e3175df276e09,7.0872946,5.5192914,-4.3290634,4.326909,-0.29707637,2.9791384,7.3108335,2.3938766,-4.105825,-7.555076,4
9e39f90cdae4efa6a0968656,7.426398,3.815541,-3.7033272,2.4761734,-0.3373878,1.1251913,7.5251746,2.7749677,-3.0776784,-8.098398,3
9e4004bbfb412a0bef613703,6.671602,5.505727,-3.658384,4.429873,-0.21533406,2.8965285,6.144835,1.6037347,-3.3214784,-7.164658,1
9e6289f0344a9b5c22ce7047,6.0204124,5.689423,-4.106023,2.5298085,-0.542759,2.4109178,7.8208904,2.5406885,-3.8672888,-7.668733,-1
9eb41179760a81d7ae5dc35b,6.9808946,5.1403136,-3.9123747,3.9786334,-0.3388854,2.449907,7.3776193,2.771277,-3.4089603,-8.313194,4
9ef3de8e2e06d1bf1d674ba2,6.8190293,5.1174517,-4.2227483,2.2696917,-0.5723493,2.1114213,7.6088405,2.5824313,-3.3189378,-7.8359423,-1
9f1615fc532332f8ba490bc3,6.881081,5.5268183,-4.343651,4.004245,-0.30768225,2.4556408,7.379991,2.862062,-3.11538,-8.018045,4
9f76f6f6f5d6e75c2e39aaa8,6.865011,4.5814114,-4.7760434,2.7916582,-0.10276158,1.9461747,8.083774,2.2335765,-3.2257519,-7.799893,-1
9fa5c18aece07bfeb569b8b9,6.5599394,4.4516697,-3.7239933,3.1308775,-0.049629245,1.7385392,7.7761183,1.6616079,-3.0007133,-8.248732,-1
a05551bb5353789089529b94,6.8442516,5.404981,-4.939148,2.5059645,-0.582791,3.1016724,8.54137,2.629377,-3.728825,-7.762977,5
a05e31e24d85e7843273ad8a,6.659874,4.9364295,-4.0446053,3.2639499,0.37163037,2.271976,7.9444723,2.717065,-3.7927325,-8.5156,-1
a06d9a850de703b35bfb25d1,6.880983,5.3555045,-5.073114,3.6697087,-0.59305143,2.5102882,8.120484,2.2194102,-3.7079592,-8.163921,6
a0a8bdc81f7832b9345682aa,7.009068,5.3146424,-4.282524,2.7941086,-0.65109897,2.1586375,7.9388757,2.371498,-2.9034588,-7.383146,-1
a0ab89b8374f8c1a8461a052,6.867715,5.2398095,-3.9420478,3.4897141,0.89115745,2.377092,7.3366385,2.4699137,-3.6076097,-8.092693,-1
a109503ffeb3c06b12e17ecb,6.68794,5.320573,-4.391337,3.2215974,-0.4568028,2.1018734,8.037651,1.6374885,-3.068498,-7.585712,6
a19bbae656285c5e2000d45b,5.3245664,6.7760696,-3.482509,2.5629044,-0.6476014,1.8098658,7.0157356,2.9301891,-3.8448808,-8.027709,0
a264bb371f069f743cfd2fe2,6.8334885,4.453237,-4.7239966,3.5235114,0.26716715,1.6485198,7.35126,2.2552092,-3.3612816,-8.232189,6
a30075e384186379cf44981a,7.7385573,6.2709813,-4.598312,2.5967503,0.62750596,2.7888145,7.325837,2.2141283,-2.0716598,-8.346551,2
a36a10ee3068eda4221ee11b,7.546747,5.87875,-4.6098247,2.4560573,-0.12658057,2.4285383,7.7032056,2.1626806,-3.9036496,-8.225664,-1
a3b26ebdb4c3e83a47566436,7.205496,4.916712,-3.773182,3.399689,-0.28569242,2.1624136,7.289469,2.2319171,-3.6112509,-7.9464746,-1
a3d55ad3531bda4c864eab88,6.8857174,4.818262,-4.8851395,2.9328985,0.4121838,1.9603645,8.536833,2.3073442,-3.3231175,-7.5773177,-1
a3de4c77ab9fc130ba7f34c7,5.59133,6.449706,-3.694389,2.644599,-0.5319818,1.972174,7.201777,2.6248834,-3.7029774,-8.103261,0
a3e3e6bb479f5a2f1df5cc25,6.9151616,5.572875,-4.1512346,4.232879,-0.62556034,3.2764003,7.3020687,2.614524,-4.1184497,-7.7190113,4
a46cb2b1edfdb5ada5d34be1,6.352545,4.712506,-4.5340614,3.2270935,0.32103348,0.93407243,7.853624,2.2414138,-3.526837,-7.7638636,6
a494155ce1f95408a1140e99,6.7537637,5.31859,-4.3859153,3.3128173,-0.363573,2.0233805,8.06225,1.5190132,-2.9147644,-7.5334263,6
a4b30b2986784801680e3ab4,5.3994503,6.644971,-3.5603468,2.549833,-0.45940706,2.0063236,7.023563,2.7829514,-3.6950395,-7.819072,0
a4b4cd2e8054260fddda6c9a,6.819538,5.4242187,-4.040063,3.409207,-0.18875691,2.5597625,7.1132426,2.202332,-3.7935808,-8.038354,-1
a4e3c3d4b089695db35812b3,6.4696136,5.6769605,-3.9297369,3.1911612,0.6554282,2.3684294,7.2693443,2.3731306,-3.0691316,-8.00805,-1
a543e64944eed4f7924f0009,6.630558,4.5126257,-4.474528,2.9151232,0.25698215,2.5975182,8.035984,2.3681638,-3.4621847,-7.8119984,-1
a5513fb504096d84a15df71d,6.3917475,4.7927094,-4.5388384,3.7228365,0.35005915,1.1088287,7.4949346,2.0936298,-3.2779791,-7.984392,6
a5b0b2db07b9bee64e4ba139,6.675489,4.818418,-4.458645,3.4184155,0.14873807,1.1390295,7.9166203,2.238999,-3.158944,-7.673003,6
a5dde215302e365f32292ce3,5.340074,6.6776123,-3.5291717,2.5976942,-0.47334558,1.9948106,7.007386,2.7420797,-3.6887517,-7.856388,0
a645a99d9f9dc36428c2e824,7.320256,4.026423,-3.7182496,2.4071653,-0.47501108,1.0515913,7.309824,2.7920532,-2.8804865,-8.042033,3
a6510045b375ba0f322e396b,6.6490884,4.728736,-3.7579894,2.4802642,-0.25880107,2.1910863,8.088904,1.8363577,-3.7996418,-7.420708,5
a6927f01d961570d198a6431,7.648847,6.2791357,-4.7095566,2.6151354,0.6313109,2.8493574,7.4502826,2.260116,-2.1051567,-8.362284,2
a731ef632bc954692c1b33e5,6.7107425,5.708302,-4.2504096,3.0036385,-0.51882005,2.4149368,7.210561,2.284009,-3.4743397,-8.331186,-1
a73c093cee8d80f72234f083,6.289815,4.8067555,-4.736985,3.3494277,0.35114512,1.0009457,8.043579,2.1956236,-3.611376,-7.8807817,6
a7745f0a38695d95b6a2c078,6.631506,4.703131,-3.7953396,3.9195745,0.38443255,1.7643135,7.2033596,2.8234594,-3.5364878,-8.671599,-1
a7a732431f2f0793d13e7e1a,7.4574776,3.7692416,-3.612982,2.31951,-0.55437917,0.95503426,7.4356456,2.9001455,-2.8615065,-8.004415,3
a7c3f2d76af4c91368e397a3,5.3865914,6.6738963,-3.4734695,2.6119936,-0.46102142,2.0064516,7.0488267,2.7823093,-3.6356606,-7.887011,0
a840a1bb3e46738b04be06d6,7.627695,6.2486186,-4.5703654,2.6876664,0.47634643,2.8796132,7.484755,2.1449504,-2.3520286,-8.229509,2
a86ad53fe3c2078d4b305230,5.391934,6.5072618,-3.5261924,2.58486,-0.34486222,1.979751,6.854601,2.6833014,-3.59303,-7.87303,0
a87acbd5a986d2956a230609,6.674746,5.353421,-3.8943586,4.0727363,-0.095058724,2.6985135,6.44151,1.6012359,-3.347679,-7.496782,1
a87d4153f5cb07608fe033d1,6.860088,5.1187277,-4.088778,3.32765,-0.32445478,1.9727992,7.5299907,1.8406193,-2.946428,-8.2495775,-1
a8c3271c6491b33e17df7f0d,6.98453,5.5941806,-4.477057,2.8305683,-0.6465185,2.5988207,7.363868,2.1395864,-3.3788412,-8.3138,-1
a8dda13c44268bfbb1ea4b92,5.400147,6.557836,-3.5828867,2.425449,-0.37715653,1.9554282,6.891808,2.7540352,-3.7018847,-8.024664,0
a94c252b6a951efc2834ab3d,6.848156,4.23639,-4.512857,2.917518,0.13295259,1.5826918,7.976465,2.330971,-3.2748194,-7.725501,-1
a96d4e6297b36c011f6fdefa,6.69762,5.1103454,-4.4362664,3.1918736,0.011879626,1.6443626,7.6856675,2.3838189,-3.2265277,-7.3993187,-1
a98f741fbe3245bc7b35bf75,7.4794054,3.9290688,-3.6149576,2.3457615,-0.5816276,1.133915,7.3303165,2.8998177,-2.9405525,-8.080893,3
a9b77a56cdcba8f8ca7b0d70,6.7077456,5.2992454,-4.7145104,2.6138034,0.72382605,1.907699,8.210694,2.393217,-3.6410856,-8.212618,6
aa228f3db4d96b66f9075669,6.894442,5.3469872,-5.1218405,3.6891818,-0.6054129,2.5274208,8.165852,2.1760004,-3.724986,-8.164089,6
aa4f6e195c7325e86d4c4b8f,6.7751045,5.5661554,-3.9930692,3.0870125,0.23649524,2.474699,7.4803424,2.0013285,-3.3331635,-7.974421,-1
aa69124ab868839bd4830458,6.7285776,5.2237616,-4.000516,2.785809,-0.62552273,1.703086,7.0013375,2.7592542,-2.9704683,-7.7968874,3
aaba9ea187aaa213029139df,6.3253913,4.427239,-4.7423296,3.386551,0.37257576,0.93873006,8.043356,2.2267733,-3.6493676,-7.705211,6
ab287b3f7adb730b5d1b303c,6.904097,5.4621224,-4.9171243,2.4221797,-0.53372407,3.1981459,8.641532,2.6272478,-3.5615687,-7.8869143,5
ab798e4b9b2f0b69d0ca1bf6,6.570872,4.497025,-3.7051787,3.1548133,-0.035415623,1.8008099,7.737258,1.6964754,-3.0232828,-8.260019,-1
abb6dc94f3d2733c4237c544,6.631677,5.2227626,-4.7645645,2.6426246,0.49995512,2.0745842,8.293176,2.4655704,-3.714851,-8.1763525,6
abdba5fba3eaab31153d491b,6.914896,5.2121196,-4.2889676,2.5853524,-0.8137855,1.8265239,7.2942424,2.9105873,-2.9190297,-7.7337685,3
ac1d9a516fb87924ea74ccef,7.073452,5.073894,-4.379099,3.236379,0.14280052,2.056152,7.504966,1.7495825,-3.315218,-7.8178716,-1
ace6fc0c33f4c6f5facc4edd,7.0119705,5.6056805,-3.7115822,3.0943816,-0.35263184,2.6144145,7.5308356,2.1425955,-2.8364816,-7.956677,-1
ad01f937b4ebbb5b16a08e4b,6.6383905,5.016167,-4.3035083,2.7756772,-0.5235796,1.3928212,7.394575,2.6966248,-3.1960282,-7.7169056,3
ad098b0fed0f49e880d2f36f,7.012718,5.108321,-4.940126,2.555724,-0.6868375,3.188993,8.715795,2.8779337,-3.8305635,-7.8793373,5
ad57e8da7468880b108236fb,7.62901,6.0896525,-4.510042,2.6965504,0.66613007,2.6966872,7.35483,2.2443311,-2.1885924,-8.278867,2
adf6b3cc8d4f73b31a528d77,6.621064,4.4279656,-3.7887692,2.3409677,-0.61298144,2.3282754,8.06882,2.2009456,-3.74373,-7.611752,5
ae36e16b4f0bb3dab5bfab82,7.48658,3.9605227,-3.660745,2.3898673,-0.569595,1.1699284,7.4031453,2.9090095,-2.949337,-8.099442,3
ae73ad413e39c8307e0d3e98,5.369811,6.583239,-3.5449727,2.4794421,-0.624546,2.041865,7.0958905,2.8090758,-3.7761,-7.8916903,0
ae7edab0e30e0932cae11eff,6.7255783,4.5082216,-3.822915,3.1023607,-0.08120679,1.7709988,7.781855,1.7867517,-2.941347,-8.241733,-1
aeca055ec63a34f2c3f8514e,7.6027846,6.175738,-4.66862,2.5752437,0.72128195,2.600246,7.2819533,2.124933,-2.234305,-8.443528,2
aed71b0d0f54fd6c33a0771b,7.389339,5.175024,-4.5563087,2.7978795,-0.63855344,2.7221248,7.919126,1.2733382,-3.305808,-8.285429,-1
aee08254b4da1b3eb44b77dd,7.0363293,5.430082,-3.9923613,3.313928,-0.33526766,2.6600723,7.5678835,2.2175796,-3.2199526,-8.2153015,-1
aee57d5ea653ddcd284f6088,7.451496,3.9072094,-3.6147058,2.5253909,-0.5829081,1.2191745,7.4215713,2.924245,-3.0584545,-8.075258,3
aeecaa91599f28df6e0eb223,7.3691306,3.8474293,-3.619167,2.3590975,-0.48754585,0.9618449,7.3827686,2.8384445,-2.8953178,-8.078447,3
af041adb27400f575076c637,6.593191,5.6747,-4.072654,2.7187452,-0.6984865,2.1496954,7.2493906,2.924059,-3.2674277,-7.7834907,-1
af07c7669f4bc2ddb5f13d02,7.3941255,3.7866228,-3.7085924,2.457881,-0.2694163,0.933334,7.456929,2.7686617,-2.9064512,-8.090433,3
b004117f5fdd2023aae9e1ad,6.988025,5.5869513,-3.6894844,3.0953972,-0.36834675,2.6204803,7.536832,2.132994,-2.8655026,-7.948987,-1
b0e81862b9927c165dc1a1a0,6.949036,5.1262136,-4.172202,3.0625868,0.049212698,2.1941307,7.2044907,2.0026135,-3.5180197,-7.9344225,6
b0f797ac7543628f9a86cc13,6.5355444,4.530891,-4.5024223,3.5031176,0.47904515,0.9286133,7.859302,2.1970491,-3.3775525,-7.796467,6
b1606a1508021ac88c060853,5.2132044,6.768871,-3.5120666,2.394519,-0.61920106,1.9446077,6.9832935,2.9364653,-3.7555914,-7.9441853,0
b1a53ba9298e89a53420caee,5.302629,6.581156,-3.435325,2.3191698,-0.5675859,1.8784666,7.0278063,2.7303178,-3.8075001,-8.004588,0
b1a6ad2ada3132c8b5b34f72,6.5949197,4.8800097,-4.1372833,3.276911,0.42718574,1.6634215,7.5804076,2.1171439,-3.410463,-8.347105,-1
b1c30564c28b973aac3796b2,6.8887234,5.098964,-4.1346807,2.5879276,-0.73701257,1.6444035,7.163782,2.9581475,-2.9359887,-7.807674,3
b2014ba52755c394c062e656,6.523737,4.6342716,-3.6132455,2.7654564,-0.42477712,2.3033144,7.622118,2.2260578,-3.9339652,-7.41585,-1
b21f4c090d2232f3965dd592,5.4110065,6.6641607,-3.726961,2.493661,-0.5252599,1.9583541,7.2209973,2.7663279,-3.7725046,-7.998911,0
b247257a90024b7d70edf21f,7.004813,5.305332,-4.252466,2.860092,-0.6042753,2.0939076,7.9456353,2.287332,-2.85302,-7.3526936,-1
b302b3b43d56f822ce496c2c,6.5818715,5.657817,-4.7719827,2.2182586,-0.5924768,2.7950683,8.3518305,2.6589966,-3.5161262,-7.7992735,5
b37ce4fa957ed8f833b60531,6.398715,4.658262,-4.687956,3.549558,0.38388905,1.2240753,7.8051286,2.219584,-3.536825,-8.120268,6
b384efb0652032c40bb9f0fa,5.336546,6.5814238,-3.7198837,2.4076352,-0.4716147,1.8616568,7.107294,2.7722363,-3.7886574,-7.880474,0
b3ceba902551d1789b2bf8f4,7.628404,6.2099743,-4.605957,2.6697993,0.47584307,2.8508623,7.4980927,2.2145336,-2.307307,-8.240805,2
b43b259e12f65d8c6171c706,6.839351,5.4290314,-4.869603,2.4840977,-0.32840106,2.7271237,8.502233,2.4694684,-3.3703663,-7.700608,5
b4574c3d5c0b54558dadd9ed,7.065171,4.9260707,-4.3646054,3.366647,0.2966831,1.948248,7.5808277,2.0104227,-3.4402213,-7.91289,-1
b460ee73f075ce53c4ade002,7.1365223,4.4772944,-3.8387747,2.4637594,-0.6513168,1.2658322,7.213884,2.9445398,-2.879242,-7.9329987,3
b46a474e9020bf9bd9fe56f8,6.390605,4.690203,-3.9388065,2.3645258,-0.7676056,2.2663956,8.065233,2.1036866,-3.7266264,-7.299275,5
b4818f3b3b0300b8e00ac6cb,6.756588,5.2740197,-4.0166783,3.301047,-0.18858199,2.288312,7.0860705,1.8493544,-3.6635036,-8.046777,-1
b499f9404488c09c07e82a47,7.3220243,5.7449684,-4.5367785,2.8202689,0.388326,2.4321113,7.3761506,2.1567512,-2.5543458,-8.189203,2
b4d02f1621917bbe72275d54,6.6932635,4.978,-3.7807198,2.8533037,-0.3226641,2.2473474,7.2966094,2.0539384,-3.6581154,-7.7462215,-1
b4df73a7dfbba81bac507c82,6.780547,5.4265985,-4.933882,2.477536,-0.64209527,3.2633944,8.585178,2.7450562,-3.7103004,-7.7757683,5
b4f0dff8f258ee81d410a3dd,6.598416,4.4502788,-4.3391547,3.0258322,0.42433277,2.4847484,7.97485,2.1897886,-3.2677393,-7.611618,-1
b56c2787a72b5519ec412e68,6.75933,5.210539,-4.7418528,2.3324733,-0.59935355,3.0716343,8.527604,2.5002913,-3.6847231,-7.619427,5
b59741b76e4246ffe7c95ca0,6.4104586,5.52473,-4.301052,2.898741,0.21003933,2.4919882,7.352608,2.3600986,-3.105766,-7.7808714,-1
b5becb58da17afe0bdd95120,7.433056,3.8210151,-3.6814818,2.3648744,-0.6196687,0.9516976,7.488295,2.9627006,-2.804288,-7.8530297,3
b5c1fd817eddee3760e259f3,6.9091597,5.392337,-4.886681,2.291998,-0.43711287,2.8253205,8.470287,2.6583831,-3.4421506,-7.692103,5
b5d27f2ba209f1cea6093dd2,6.785388,5.515757,-3.5740144,4.489622,-0.104314566,2.9503407,6.246267,1.665602,-3.2588675,-7.1906166,1
b668491c1fd9540a83d92bbf,6.8857765,5.349322,-4.69267,2.565742,-0.3808746,2.3761244,8.384771,2.4934275,-3.047181,-7.63199,5
b677cbbdec790f141c533c28,5.5377793,6.29763,-3.7472188,2.4565966,-0.55428004,2.1123657,7.368332,2.7289517,-3.8227096,-7.8019347,0
b6aa8d567b5f6ad0daafd72a,6.8685155,5.2752175,-4.864191,2.302129,-0.5599808,2.9379866,8.395819,2.446753,-3.5042572,-7.671352,5
b76dbc394bad3d127faa4dca,7.268969,4.2651596,-3.7628713,2.4436111,-0.6024841,1.2301959,7.302085,2.9039495,-2.9181209,-7.965529,3
b777c7d4d9f155f8960330b4,6.9115787,4.668026,-4.5758605,3.1271336,0.13929853,1.4364903,6.983111,2.1595607,-2.8618345,-8.105696,-1
b7b6cd14e5e741aa49c642fe,7.2174163,4.595322,-3.8683724,3.6259198,0.45743227,1.9194853,7.659735,1.9275815,-3.5133827,-7.557255,-1
b7dd225b0598eaf26b63e549,6.404304,4.868899,-4.0600924,2.33987,-0.5505632,2.5485003,8.208644,2.2966416,-3.90938,-7.4240904,5
b7ee6e864cb28aba058c0c95,6.73229,4.7036552,-3.8187091,3.137914,0.009088512,1.9559904,7.8095646,1.8938303,-3.0753052,-8.302687,-1
b84e815a5fbec37820619ae4,6.7235246,4.8938603,-4.2169466,2.8012366,-0.31674045,1.8775717,7.8026595,1.3985739,-2.6268764,-7.598596,-1
b8a268224eac3dfe1f4bd9ba,6.556468,4.9415455,-4.712081,3.0058923,0.71245855,1.2654287,8.098164,2.1890454,-3.6296575,-8.036201,6
b92a9320a3d5840d66d7b5cb,6.5634937,4.551657,-4.5408816,3.0048857,0.34660643,1.0463537,8.039598,2.2995408,-3.5310736,-7.675028,6
b93c54ab462c155ffae8b647,6.385856,5.0671687,-4.133503,2.2863638,-0.7196435,1.847412,7.727719,2.4455771,-3.3784544,-7.4049687,-1
b98de901ebdab7c697a8532c,6.8000712,5.238967,-4.042701,3.272754,-0.21117687,2.2836366,7.1012235,1.8094506,-3.6490154,-8.002698,-1
b9b0f19598977812933ad213,6.647849,4.857249,-3.8053153,3.8655593,0.31416687,1.9197457,7.2632494,2.7831926,-3.4365585,-8.644779,-1
b9c20ecf55d4116a820bc050,7.560556,4.0046725,-3.5657554,2.4346051,-0.47286895,1.1433634,7.3008738,2.805278,-2.8453913,-8.022018,3
ba0ac122777d3847259c9c10,6.6865916,4.9677744,-4.3471107,2.9106333,-0.3678655,1.7609545,7.7809954,1.626493,-2.5013075,-7.602315,-1
ba2bea3dcbf9a563780888d5,6.3482533,4.553793,-4.021254,2.3832097,-0.4224495,2.051959,8.105616,2.1783671,-3.8930612,-7.4148765,5
ba9d91973ee6410029567eef,6.585742,5.512151,-3.525032,4.3863463,-0.16842812,2.9057214,6.24354,1.5777868,-3.229822,-7.2046003,1
bad96746a2bcb76335c51fbe,7.410038,5.104313,-4.4930687,3.0488725,-0.53903943,2.7163715,7.8209534,1.246639,-3.3873918,-8.168804,-1
bb48593b79c1bfd76957c0b4,6.4321747,4.6990356,-3.9033937,2.402901,-0.4918842,2.4403713,8.067512,2.043493,-3.894463,-7.364828,5
bb4dedda66409d4f04a86ff0,6.637784,5.1760316,-4.707727,2.7025657,0.74536526,1.8216131,8.2107315,2.4204748,-3.674905,-8.231795,6
bb6044887738cdc714a3d591,6.636516,5.544896,-3.6714947,4.5330467,-0.2060964,2.8937507,6.016523,1.6393179,-3.238225,-7.2184567,1
bb648c6953ff340da8e4cb53,6.842574,5.002018,-4.15546,2.875324,-0.7662795,1.8432529,7.4482603,2.8737357,-3.174982,-7.835669,3
bb6b60756cbcc7713e6f18dd,7.037683,5.49238,-4.1656146,2.8428447,0.12685674,2.4458036,7.6456885,2.1284692,-3.3136623,-7.6200724,-1
bb8e50c989365b91c0495b6b,5.503262,6.311108,-3.5997882,2.456343,-0.6887491,2.19673,7.232593,2.7383637,-3.8530638,-7.776549,0
bbf1b4f947a3ed7f774b97df,6.03449,5.172986,-4.4803224,3.2752302,0.17184828,1.1685021,7.8011003,2.3203397,-3.631155,-7.9211073,-1
bc187f8ef8bd9be107a03e50,6.7613707,5.6221533,-3.956784,2.960538,0.23524527,2.5029674,7.4938617,2.0948029,-3.3027978,-7.9026837,-1
bc483234a3524ae47f2fd263,6.454466,4.5288506,-4.5531993,3.4752665,0.4232193,0.82254976,7.905987,2.2885287,-3.5075898,-7.7382293,6
bc50ebedb08db3571fc1ec90,7.4480352,5.884044,-4.467862,2.6676857,0.25118887,2.5512593,7.3471675,2.4512885,-2.5408132,-8.16853,2
bcb7c5e7c2bc7198f582a1ca,6.224522,4.9258804,-4.704081,3.2683587,0.19331063,1.1686732,7.992777,2.2235632,-3.6328943,-7.922756,6
bce9b195bddb5c5b76696d2d,6.9457927,5.5269656,-4.1148024,4.2445865,-0.5871412,3.2552786,7.28583,2.617049,-4.0759206,-7.756459,4
bd3f87b7ae2c24c8968327e1,6.816341,5.4768186,-4.7137475,3.4328344,-0.5802742,2.4533784,7.6924543,2.1103175,-3.5868058,-8.187708,-1
bd5acf8b06ce5f1e8e141b1f,6.6760783,5.443393,-3.937627,3.6426666,-0.1062474,2.3814447,7.390334,2.686647,-3.049757,-8.140968,4
bdaf43e9872ebe08004dc6f0,6.89048,5.026566,-4.0338764,3.2571943,0.501877,1.811184,7.561719,1.8010464,-3.5307517,-7.5632925,-1
bdd41d9426caa9865457a99c,7.0172987,4.46203,-3.8790178,2.2449613,-0.74211526,1.9412397,7.830778,2.4703565,-3.40639,-7.7494674,-1
bde40aabd496b12dcc609440,6.610652,5.1758437,-4.109001,2.5627255,-0.7919114,1.8092594,7.3004527,2.7780974,-3.2033355,-7.629104,3
be074da4ab76d9b4d8fc0be7,6.7477493,4.941026,-3.6881838,2.6547797,-0.25342858,2.230093,7.821323,1.81709,-3.7772098,-7.496464,5
be0a642a2d698d11259eaaa1,6.54392,4.704725,-3.8401859,3.8679056,0.49320742,1.718446,7.2126293,2.81754,-3.422391,-8.689455,-1
be404a90e81fbc14bedf4da2,6.7236395,4.37559,-3.7274516,2.358198,-0.6532157,2.3200984,8.082006,2.2397091,-3.677007,-7.7171693,-1
be45ad6d9933af11a87eeb6a,7.23876,5.4996567,-4.5229096,2.7685077,-0.25580594,2.7653165,7.7700343,1.9540504,-3.5149305,-8.123909,-1
bfcbf104fca1b1116e3831cd,5.2159204,6.772582,-3.517473,2.4491522,-0.65358275,1.9909606,6.9856334,2.9303436,-3.7682047,-7.9820466,0
bfe021d919473cad490ce29b,6.640842,5.101381,-3.7470274,3.2531965,-0.22152461,2.525582,7.0488033,2.075078,-3.6455705,-7.6512494,-1
bff4eb1dc4b87f01232f42dd,6.9042664,5.295628,-4.030845,3.297928,-0.09331113,2.2990627,7.115104,1.9496344,-3.5140927,-8.041791,6
c01db870d64043adbb604f18,6.7694907,5.289035,-3.9142,2.6768029,-0.6575275,2.2540529,7.3760705,2.2248755,-3.3246732,-7.8676867,-1
c01dee62280d5a79bad332a7,6.860348,5.2700896,-4.924304,2.4649608,-0.51365674,3.150069,8.711674,2.6376345,-3.5695577,-7.749785,5
c03955c92981051d613ffd0f,7.6187363,6.144599,-4.530897,2.5240533,0.8059416,2.6283152,7.421199,2.179909,-2.2428632,-8.434909,2
c074094b31c5d3f48fb41168,6.458993,5.410887,-3.7420213,4.382785,-0.19615316,2.8190854,6.156513,1.6888276,-3.2861662,-7.365155,1
c0bb12f1b476d17d2e252380,6.888082,5.3420615,-5.0587416,3.7587554,-0.53729945,2.4303787,8.070384,2.1259441,-3.6774812,-8.183215,6
c0ccf738dce4207272c68a37,7.44538,3.9716954,-3.7128263,2.5119345,-0.33321735,1.232728,7.4698296,2.698525,-3.0184667,-8.03457,3
c11ecfb9e1afcaaad7c05b74,6.875558,5.5220456,-5.061675,2.8418381,-0.7427538,2.9584482,8.133093,2.8817022,-3.6069603,-7.814793,5
c12a8fb5d957f26d7cc8508d,5.3671584,6.78344,-3.5826163,2.641244,-0.44432744,1.9122373,7.1018105,2.708196,-3.6595724,-7.9956045,0
c17780b2f676e55e1d2ff035,7.510807,6.0451164,-4.4859757,2.6080647,0.87684244,2.530633,7.417129,2.1388812,-2.4354956,-8.545014,2
c1a104f20c8769cca23c6ac8,6.6295166,4.9284053,-4.3720756,2.8961697,-0.37776858,1.7460003,7.879385,1.48096,-2.440418,-7.5271225,-1
c1c76fa39976a97e68a29948,7.3790855,5.3469887,-4.6260395,2.7850575,-0.46071228,2.7892709,7.8620305,1.5370753,-3.4414608,-8.212177,-1
c1c9d41ecc8a2920088e362f,6.678359,4.8245173,-3.8144813,3.6741695,0.41129816,1.8781762,7.2841325,2.6288304,-3.393554,-8.504837,-1
c1fdf3f2f10d30f67e79d820,6.3084226,4.397447,-4.7529297,3.413012,0.35792017,0.9625569,8.052461,2.2307818,-3.6871104,-7.6993976,6
c214d8da53d43d731cbce7dd,6.709342,5.3834395,-4.369441,3.8999383,-0.07143913,2.106941,7.383356,2.5323372,-3.0050123,-7.9102902,-1
c2228fc26de61883698d9444,6.7312074,5.6348796,-4.69188,3.7699277,-0.4024731,2.4836853,7.4540176,2.7885253,-3.204339,-7.8836546,-1
c222eec468af4766a7f426b3,7.4948792,4.0264645,-3.6979296,2.3587325,-0.54642934,1.2760777,7.4218874,2.8713953,-2.9559457,-8.079343,3
c2358e638ab8767804311d80,6.893776,4.801719,-4.8776846,2.91861,0.41096413,1.9839348,8.527961,2.3269231,-3.3082478,-7.557965,-1
c36ea7493f92ccd45956f506,6.40178,4.577716,-4.597905,3.4860716,0.38276747,0.8521036,7.9355626,2.27509,-3.5242743,-7.715676,6
c3b92adb2cb7493588d8d019,6.883611,5.312737,-4.524855,2.8539202,-0.25311515,1.9320954,8.078667,2.5054395,-2.8842008,-7.6424685,-1
c40a86301287d666c99bdda1,7.4294133,5.1298785,-4.5175343,3.0295222,-0.49565753,2.7315853,7.799764,1.2350624,-3.3762107,-8.18952,-1
c465d8e9f366d89b946abe51,6.677371,4.967634,-4.07353,2.225972,-0.7400809,2.646997,8.016634,2.4781866,-3.7800696,-7.6093993,5
c4a1383a6d10af022db2b429,6.5616856,5.061957,-4.496409,2.9131808,0.59154177,1.837009,7.938487,2.438601,-3.675012,-8.260261,6
c4a640aa2ea3b29c61936559,6.544356,5.1181483,-4.2713466,2.4990826,-0.57123464,2.900464,8.300529,2.5898893,-4.017443,-7.699441,5
c4eb201106b6da7916860527,7.6808653,6.182202,-4.6141505,2.6711557,0.8478541,2.7616692,7.3481164,2.152138,-2.1257136,-8.500958,2
c562d50a131358986855477a,6.3601565,4.6876736,-3.979847,2.3243718,-0.5318341,2.248109,8.13912,2.1631982,-3.8752575,-7.3972044,5
c5726d47e8183ea2e9c9cbf8,7.033933,5.5807314,-4.9667215,2.465605,-0.566244,3.0405173,8.432815,2.5883296,-3.8014517,-7.931569,5
c5fadb32a8ccafa60fb7570d,7.6419854,5.8896136,-4.586699,2.4640317,-0.09248029,2.2913167,7.6441355,2.1836524,-3.7908654,-8.310448,-1
c63df9e2c0bedc9fccc4709a,6.938178,5.456887,-4.976912,2.3704996,-0.45552623,3.153021,8.565793,2.6642802,-3.534752,-7.856813,5
c65bac6548d423e8eb25585c,7.5243273,3.9080245,-3.6389937,2.3079982,-0.5986931,1.0789498,7.3048363,2.848476,-2.8837783,-8.081748,3
c67c5e453d573f678f176ef6,6.8228507,5.326363,-4.9109035,2.3530886,-0.4929921,2.741415,8.448668,2.5443187,-3.4301372,-7.6163187,5
c6e516de398650f6f34b723b,6.7603655,5.332901,-4.8104725,2.373179,-0.6924152,3.1877806,8.534413,2.7078373,-3.7666235,-7.7091537,5
c769e3d00b70a20d99aceeb9,6.84673,5.315151,-3.9278085,3.2795024,0.08628552,2.286814,7.270486,1.7996143,-3.3206706,-8.053484,6
c77b2f69e1c2ed2a50fc931f,6.8520427,5.4173555,-5.116,3.7476444,-0.6365602,2.6027849,7.907162,2.4114132,-3.6888576,-8.080832,6
c7b1a7db7623aaf579833870,5.2712297,6.7648005,-3.5127094,2.530542,-0.48274717,1.9504889,7.028477,2.764211,-3.6704094,-7.8928304,0
c7bad88e1ef487e53b5555b9,7.483855,4.003335,-3.5681062,2.472614,-0.6237922,1.1606617,7.323867,2.7694929,-3.0246053,-8.034726,3
c7dd226cb221803ffc39a05d,6.860188,5.319007,-4.971896,2.288207,-0.42541265,2.7224464,8.638216,2.410793,-3.4007201,-7.6222486,5
c833ea9591df0188eefb841f,6.61849,5.173309,-4.7158823,2.7117124,0.7772223,1.7807155,8.231295,2.4129472,-3.712556,-8.222445,6
c88f2e6c3f9eaed29c3f7a26,6.790504,4.8463793,-4.180316,2.595539,-0.77305615,2.4040482,8.114036,2.5924847,-3.5162416,-7.889565,-1
c901d2a3399c3cef3d3280e1,6.727946,4.8075204,-3.6759713,2.589278,-0.18272837,2.1397185,8.000379,1.7411823,-3.7878416,-7.4189935,-1
c91a7e88ea4be59bf1350a4d,6.303227,4.8255963,-4.693919,3.4007761,0.3083845,1.0414325,7.995903,2.2348669,-3.6086755,-7.8898396,6
c91b03bdd2ea822edd1928ca,7.239013,5.123549,-4.2541957,3.1330607,0.31721702,2.2580154,7.7774944,2.0465798,-3.1995187,-7.407658,-1
c976a71a1ca277b342b9005a,6.829134,5.3973365,-4.9114623,3.765714,-0.40040013,2.3028514,8.132416,1.866216,-3.398386,-7.9315996,6
c9881d5cb92dc7a367164621,6.840045,5.5235357,-5.0499573,2.7660828,-0.684246,3.0651672,8.519603,2.5976353,-3.910497,-7.9284797,5
c98a929bd712816afa7cf8b1,6.502091,5.50636,-4.183981,2.9055116,-0.4672917,2.1153643,7.571306,2.223716,-3.5251577,-8.353097,-1
c9fdd18a2f17ee7e9f45f6b9,6.83934,4.5667596,-5.020549,3.477413,0.019168857,1.8328942,7.3909984,2.2672403,-3.2831728,-8.249793,6
ca0f4a2175053d27fa6fa53a,6.4999795,4.9280396,-4.0846305,2.278713,-0.54365605,2.4945962,8.185563,2.1782157,-3.6293678,-7.295148,5
ca6bbb50e5b09fff0971e95d,7.4253716,3.8878922,-3.6806304,2.315532,-0.5232002,1.0648711,7.387898,2.867751,-2.8791616,-8.071329,3
cae78e17f77f88bd90a158bf,6.796496,5.0131664,-4.8906407,2.7157075,0.02594028,2.3222804,8.5766325,2.336224,-3.359279,-7.5698905,5
caea70b693a29b676adb15e3,6.6740837,5.340803,-5.0479655,2.4690309,-0.4171363,2.6101744,8.604379,2.6012723,-3.5529172,-7.7411714,5
cb3b64d1f7addc9a9d52f07c,6.5838747,4.8680134,-3.793276,3.7744124,0.394277,1.8456442,7.2304354,2.737231,-3.407703,-8.671921,-1
cb93eaa9fa7545f54ebe4b91,7.4330134,5.1379886,-4.5170054,3.0141115,-0.51594716,2.7383168,7.7964525,1.2190697,-3.3589537,-8.190442,-1
cc1d2ce0a509e7c261cffec2,7.1383305,5.075218,-3.9447582,3.9117746,-0.25429183,2.4042275,7.5074353,2.6463978,-3.455064,-8.192133,4
cc1d3e01db76afb617af2d2b,7.6879287,6.258119,-4.5557885,2.7281606,0.67956066,2.7528105,7.32325,2.1912494,-2.2627072,-8.37241,2
cc40a4441623edd1a271928e,6.387766,4.865296,-4.450182,3.7087035,0.25790778,1.1466872,7.527841,2.005424,-3.1892843,-7.872895,6
cc419dee368a57b72e69d8c9,6.738492,5.429938,-4.9063573,2.4848366,-0.68276566,3.1969132,8.552146,2.769981,-3.7006347,-7.7563205,5
cc70e2bfadfaa9186e559eb3,5.339474,6.6262746,-3.6597273,2.3234813,-0.49690023,1.9195929,7.0411143,2.7872612,-3.669415,-7.9855714,0
ccc782d8d816ce6801d77df4,6.8438544,5.5673003,-4.9165783,3.54217,-0.7132555,2.834249,7.649158,2.8201883,-3.5908375,-7.838715,-1
cd5edc22e8253138ed07b579,5.7071457,6.3331046,-3.6290278,2.5791044,-0.23305468,2.0795584,6.949475,2.6039877,-3.5939977,-8.0264225,0
ce30ef86b4fd2789602071c2,6.1878257,5.3019166,-3.9833605,2.4141517,-0.7701657,2.6288502,7.840634,2.4729679,-3.9119942,-7.4691033,-1
ce51793df076c3c6fc251cbb,7.4849973,6.262256,-4.564846,2.6845639,0.49512407,2.7678902,7.2339644,2.124463,-2.1181178,-8.330367,2
ce6044e513521139ed9f87ab,6.4062104,4.8417315,-3.8854015,2.345954,-0.5101658,2.1924398,8.057597,2.0116768,-3.715427,-7.2342,5
ceaba194fcb0a11ce0538415,6.4320188,4.893094,-3.9207923,2.3191295,-0.5076043,2.1500528,7.9840016,2.007324,-3.5350726,-7.242755,5
ceb5115959148ac02cea9a46,6.998013,4.4280214,-3.6395123,3.3612592,0.3182873,2.0434883,7.7030225,2.0672076,-3.6567397,-7.376055,-1
cf06a88a37666c957b2be7dc,6.646138,4.7036395,-3.8419266,3.8789947,0.47073293,1.7529863,7.2238564,2.7847726,-3.4574566,-8.697188,-1
cf16a4504f8d0c924545b40f,7.4212074,5.175274,-4.7274265,2.814945,-0.5732582,2.8938496,7.9701324,1.304546,-3.4159706,-8.268656,-1
cff5bb99da7c07bd27f27ee9,7.3199644,5.405515,-4.5111394,3.221344,-0.2736308,2.6175196,7.584125,1.8641492,-3.2683523,-7.771892,-1
