doc_id,u0,u1,u2,u3,u4,u5,u6,u7,u8,u9,topic_cluster
00381fa51e0b1554bcc0b7ce,10.222848,14.881467,-0.40572518,6.0549316,4.086194,12.03627,7.0163593,-6.691071,10.959721,-10.010048,8
006731098812453a458f3f48,10.110439,14.5505085,-1.2222114,5.954242,4.271093,12.251581,6.772772,-6.8057227,10.806025,-10.802455,-1
00bdafe1c3a82c73ef529c4d,11.172345,14.21941,-1.560214,6.263054,4.4988503,13.648141,7.2462497,-6.3364897,11.929719,-10.31321,7
00d80ce0d8e916839d6c0200,10.570699,14.580362,-0.94797426,6.8499627,3.7276387,12.680027,7.025168,-6.8685308,11.455112,-10.470084,-1
00f133f3ade8b19f2cce5a1d,11.244279,14.305801,-1.3639853,6.59162,4.644568,13.33437,7.000577,-6.611953,11.492954,-10.107404,7
0339550e4dd9b6ea2aabf8db,9.782735,14.995496,-0.7179295,6.1791105,4.3909016,12.088488,7.3803,-6.698725,10.731832,-10.196473,8
03d5e2a2cb3538101d3c4470,11.007848,14.316365,-0.9121936,7.1861134,4.7896695,12.695878,6.915285,-7.044458,11.685443,-10.221032,6
0433fa4173a970b3e870d933,10.071509,13.957821,-0.90461063,6.372314,4.027481,12.244709,6.8671174,-6.8279157,11.165561,-9.563053,4
06e9df5a9796986ac2026e6a,10.054586,13.888954,-1.1262327,6.7789936,4.662021,12.549184,6.7177725,-6.7942343,10.923991,-10.17055,4
0809edf964181fb3f158a04d,11.29522,14.243406,-1.4421971,6.265289,4.4559155,13.533557,6.9124956,-6.3771615,11.91438,-10.348605,7
0ac6dc5ad492f70668ed6bf7,9.58351,14.743531,-1.2620696,7.1738944,4.6384683,11.798021,7.379539,-5.8734245,11.048909,-10.134546,-1
0b00a7bb27f3f6b50d1e0168,9.192613,14.733484,-1.3893847,5.9663367,4.57689,12.123016,7.5633926,-6.201221,10.885723,-9.801115,1
0b8d0ef7f51c4b00ee75b62e,9.601994,14.759338,-1.3454494,6.624689,3.7847643,12.222537,7.0594797,-6.844574,11.1740055,-10.256107,8
0b9b2a169d50bd319188f958,11.39539,14.258878,-1.3763055,6.474897,4.5012326,13.412859,6.933008,-6.3802156,11.633691,-10.419766,7
0bb5cc74ae63f7a2028e972c,10.48922,14.34593,-0.8979469,6.526874,4.75608,12.900596,6.552378,-6.6773562,11.235684,-10.580454,-1
0bd72840712b429899d7cce8,10.1509285,14.940325,-0.9757017,6.0489984,4.1983075,11.965028,7.0516963,-6.789222,11.017647,-10.313675,8
0bf279dfa75fd53f25ac878a,10.241225,14.258416,-0.78982496,6.7138824,4.7129383,12.714422,7.2597938,-6.9093294,11.170202,-10.4621725,-1
0c163007d6963d213d72444b,10.720172,14.295359,-2.1188042,6.047612,4.041602,13.202972,6.9414406,-6.4096746,11.615756,-10.876521,0
0c67a9fe0095f1b0886d916d,10.335682,14.50441,-1.1824449,6.5609736,4.2968583,12.516622,6.954857,-7.352215,11.2034445,-10.2685375,4
0ccc000224ff03293b20163a,11.430444,14.250686,-1.586579,6.273151,4.593968,13.612429,6.990213,-6.294814,11.881601,-10.221403,7
0d888d9ef0014c0edfb3e3df,10.748164,14.288416,-2.0658534,5.9263883,4.119289,13.061652,6.9464574,-6.380827,11.56964,-11.066634,0
0e624bd11740e837cd8bdfcf,9.399021,14.453625,-0.8669328,6.343141,4.5877895,12.607814,7.630261,-6.576049,11.251165,-10.309881,1
0ea5af7d3fd597fd75f329fd,8.346736,14.93825,-1.4330622,5.9670568,4.257834,12.837533,8.4683075,-6.1708302,11.45603,-9.945028,2
0f1375884bdc17a024a52f43,9.904369,14.759028,-1.4558113,6.9010963,3.865296,12.215629,6.898,-6.6547313,11.128473,-10.190927,8
0f1e6f3a8f38ef2322bdad85,9.824316,14.322054,-0.89447033,6.289939,4.722144,12.706943,7.486656,-6.4196334,11.492693,-10.19477,1
0f4d3ab102c28973d59a9a56,9.927719,14.140421,-1.6863203,6.7254047,3.9950585,11.610204,7.229879,-6.2025485,11.161287,-9.573884,-1
0f51478e4486001dc5bea238,11.385691,14.176903,-1.4315598,6.406697,4.5363455,13.398291,6.922917,-6.4219418,11.798467,-10.369967,7
0fe2fa37e650802c0d276aad,10.1543045,14.8935,-0.8298758,6.567757,3.542417,9.851732,7.567003,-6.2389297,11.240438,-8.081199,-1
1030d1b6cc8978771c34e5e7,9.909082,14.962801,-1.2591197,6.106847,3.985739,12.218722,6.895377,-6.46213,10.779724,-10.2575245,8
1032cd4667d0ded1dc34105b,10.294493,14.733231,-1.0194438,6.156862,4.2396774,12.669123,6.888704,-6.3261743,10.901212,-10.666604,-1
115d0184fd63f8afef57aaac,9.601785,14.878394,-0.82358384,6.220877,4.0498576,12.209004,7.214088,-6.695724,10.711209,-10.076339,8
123cf5cbb8a28359e50137ae,9.441718,13.909296,-0.96991366,6.3476615,4.5776143,12.695695,6.1758375,-7.001818,11.189998,-9.502667,3
1280670923a8c59344c891a1,10.948083,14.34289,-0.743399,7.1339817,4.687148,12.610214,7.06024,-7.010057,11.502576,-10.190892,6
13086db27696c6e49bbac71e,9.985352,14.335094,-1.471913,6.364232,4.3636556,13.251287,7.2636676,-7.2945657,12.058932,-10.264105,5
135078849bef4a0f029bb289,11.11871,14.125665,-1.0540277,6.5925446,4.3588367,13.412743,6.9248405,-6.683223,11.97608,-10.273599,7
1384cd1701545166777e1fc2,9.897134,14.147913,-0.7661623,6.3579135,4.546115,13.169939,6.596305,-6.8267746,11.452566,-10.439002,-1
14b612a4bc02307e49039dac,10.213246,14.312445,-1.4608047,6.4117055,4.441197,13.147001,7.2905126,-7.171668,12.059334,-10.309817,5
153b6454be343f4ed4b91ef5,9.838291,15.216854,-1.5806806,6.000978,4.1698422,12.551729,7.0640826,-6.518909,10.693659,-10.512274,8
153e181ea15a91ef8f51118f,9.58271,14.602993,-1.6047707,6.361068,4.420142,12.986914,7.7157183,-6.4676576,11.502803,-9.895239,-1
16a6c6f708af23f2a94dba8c,10.676479,14.293082,-1.4344155,6.506407,4.4708943,12.749396,7.1902924,-6.902299,11.874223,-10.3559065,5
16a8207e0f875788d19f9a4c,10.415279,14.518141,-1.8935686,6.3722677,4.066251,12.763065,6.818439,-6.554003,11.26745,-10.535591,-1
1757127b75d5de3b4ff86bb0,10.691639,14.607028,-0.75520474,7.0198216,3.4517002,13.088362,7.058696,-7.0719986,11.652567,-10.546171,-1
17c86c8e7ef4b4bb87563015,11.133365,14.315043,-1.5202638,6.290228,4.4187803,13.714453,7.1051927,-6.5896163,11.753179,-10.318377,7
1866f22b5f4b5b5f09762460,10.190919,13.828252,-0.89978784,6.6007433,4.3531733,12.251601,6.95056,-6.3983603,10.7394,-9.983292,4
18793ad6bd13002d5d7f8d1d,10.099707,14.327358,-0.52968,6.35379,3.8356009,11.988951,6.8886433,-6.772085,11.281807,-9.480952,4
18edee8b8fb63a46e09944e7,9.349685,14.879655,-0.21852887,6.332511,3.9478686,12.420189,7.1463304,-6.979339,10.457133,-10.740242,9
190185c75a4816139fb17130,10.185893,14.185565,-0.5610568,6.297119,3.8589954,12.136843,6.8622413,-6.63096,11.208764,-9.790581,4
19d4e46d83a066e3dbb7c9d6,9.631814,14.381402,-0.89271146,6.0983686,4.430678,12.090414,6.9332085,-6.379824,10.840482,-10.091416,-1
19e94c812844f47804f6e966,11.065713,14.22092,-1.3387444,6.752755,4.8076077,13.147073,6.5418854,-6.728989,11.669998,-10.448733,7
1a851a8759d81ba576e8977f,10.112576,14.985593,-0.95958394,6.3340073,4.330412,12.374221,7.2143807,-6.378806,10.734161,-10.406945,-1
1b17c82f593163b2587c286e,9.086393,14.679951,-1.0764942,6.399267,4.6251454,12.500779,7.914935,-6.2875447,11.305029,-9.824397,1
1b4fd1a1c28f0db7cd77d408,11.115776,14.192778,-1.7943323,6.354496,4.5140224,13.680614,6.8333454,-6.292386,11.689934,-10.334557,7
1c0c666d21893df4165d985c,8.975016,14.090928,-0.4932117,6.1453648,3.8497474,12.03258,6.1652913,-7.2063065,10.898537,-9.178008,3
1c1d8349c3984c49242a64fd,10.417854,13.870695,-1.2852552,6.2213454,4.641119,13.984529,6.572446,-6.465206,11.316446,-10.553635,-1
1c96ecbba894c6851a519830,9.900733,14.366623,-0.8173189,6.7160425,4.5175395,12.041065,7.374901,-7.076254,11.101022,-9.622855,-1
1d9057f17599bbae1a3080a1,11.295268,14.224327,-1.5598775,6.2827406,4.800498,13.191115,7.0431232,-6.158967,11.86925,-10.308394,7
1de559ec7c179be290bb1cb5,9.855438,14.358159,-1.5154483,6.399792,4.3014364,13.30138,7.259745,-7.346158,12.096623,-10.222734,5
1e4c53189f41a988eaa14f23,10.632395,14.387445,-0.95757073,6.8266897,3.9578192,12.491639,6.908084,-6.7715654,11.292364,-10.388758,6
1e545178d81ed592208fcce6,10.405725,13.88121,-1.4598273,6.2379384,4.49847,13.590374,6.9985085,-6.255873,11.596024,-10.350578,-1
1e707516b93cf5a529a194b1,8.3479805,14.977527,-1.3018112,5.9646964,4.1205735,12.865284,8.402884,-6.052098,11.579845,-9.891677,2
1e7be18101c18379e5d6d751,10.743446,14.1621895,-1.2977248,6.582333,4.7615633,12.898885,6.577999,-6.7319283,11.383259,-10.306573,7
1ebd1c7f472a96b3740ccd02,10.3950205,14.376145,-1.2652723,6.3028026,4.2465076,13.564226,7.066544,-6.929488,11.3338,-10.1460495,-1
1ed648a98e6f07fb19a5dc5f,8.961182,14.056384,-0.5348354,6.190888,3.7968314,12.018313,6.218465,-7.2391973,10.880927,-9.191129,3
1f7ce031fd69c5ce984b30e6,10.785195,13.857613,-1.3451986,6.5677543,4.5777,12.884625,6.8444114,-6.3447685,11.220044,-9.997041,-1
2063c945df79ae83f3cca060,9.930981,14.676744,-1.0653011,6.0751867,4.0350223,12.042947,6.480205,-6.6755238,10.834156,-10.164943,8
20724b5c2ee941f69fd32166,10.0593,14.413493,-0.5568686,6.2663407,3.8267906,11.845412,6.9234757,-6.7423806,11.266397,-9.465532,4
20a8dbd09aae7252c074a68f,10.324856,13.604507,-1.2820525,6.792487,4.379363,12.041839,6.7734027,-6.387448,10.718667,-9.956458,4
2108c6657da165228d749c75,9.344912,15.19252,-0.31069922,6.2558484,4.074192,12.262466,7.233583,-7.0186844,10.261258,-10.568106,9
210f03d1245506988c07d7f7,11.299017,14.349919,-1.3686886,6.441925,4.646024,13.306977,6.941761,-6.3660746,11.683701,-10.315001,7
21282249011fc7ca58efc97a,10.179268,14.634658,-0.6990127,6.5810194,4.391889,11.936869,6.729155,-6.8903284,10.820644,-10.0079365,8
2139140d036a1ca6e9fba3e6,10.084489,14.806654,-0.47840732,6.041899,4.0613747,11.986576,7.0799565,-6.6110864,10.946163,-9.90777,8
221c91042881ebc45c3202a1,9.27723,14.202041,-0.6245667,6.242701,3.9412558,11.951339,6.416084,-7.029234,10.810876,-9.494828,3
2223c2821c4d3dabd37211d9,11.278637,14.210269,-1.4995271,6.279717,4.503764,13.718624,6.9517975,-6.424909,11.7481365,-10.454467,7
223a79d101ac441b7a957d7c,10.682148,14.050121,-1.4742264,6.540124,4.7340307,12.916493,6.6444488,-6.5608683,11.2982,-10.437593,7
224c0a24516fa13abe101205,11.296711,14.152871,-1.6129485,6.2592673,4.582343,13.82284,6.7933445,-6.297927,11.788847,-10.205602,7
229f7e575d98e21879fc34ee,10.083006,14.778396,-0.6428144,6.635144,3.6172125,12.297727,7.06319,-6.6602144,10.996986,-10.260369,-1
22a296ba4bb439e1ba90668c,9.862464,14.748394,-0.8171878,6.8722878,4.3883047,12.34594,6.726762,-6.7052298,11.121314,-10.314096,-1
231cb22da87d50de261cdb2e,10.516992,14.65333,-0.40297666,6.1834235,4.232473,12.302325,6.8903437,-6.5860353,11.088788,-10.18088,8
23965276a77ed48ce515af89,9.515349,14.616086,-1.5359106,6.3454227,4.517615,12.992936,7.8110614,-6.3747234,11.473411,-9.87618,-1
239f2a67f6b945b34489dc31,11.32792,14.20551,-1.4650065,6.4935975,4.4637585,13.5896845,7.1722126,-6.458677,11.735477,-10.32477,7
23f593e0bdd46df30ea2edac,10.164952,14.916231,-0.57048845,6.030493,4.1333156,12.020782,7.1056566,-6.7186027,10.911521,-10.018722,8
23ff3f2a9f66de931ea7af99,10.650112,14.398261,-1.6638882,5.8620687,4.4985247,12.614494,6.823719,-6.3824387,11.335561,-11.457929,0
24216524cb7083f9779cbdaa,10.97145,14.322464,-0.98444396,7.0750923,4.618531,12.674772,6.845413,-7.1052585,11.408668,-10.013376,6
245ddd8b4e16343e02a5e890,11.122277,14.197588,-1.8343967,6.4018335,4.4942756,13.713309,6.835327,-6.2645373,11.67173,-10.317951,7
24751b37f2c7eabdb0bb90e6,10.439308,14.309536,-0.82178336,6.815902,4.1542864,12.273884,6.755025,-6.813121,11.064415,-10.275743,6
259bd4f449fbee1d727e119c,10.835912,14.6381445,-0.8287584,6.281148,4.366065,12.918372,6.7727103,-6.5078444,11.103748,-10.389285,8
28608c3ee7850b79417b50d8,10.882174,14.265406,-2.0879974,6.0470414,4.1364083,13.299912,7.0000787,-6.3793173,11.709063,-10.821129,0
291849ea7c726f531f7a4340,10.854438,14.432643,-0.72900957,7.1038017,4.742202,12.602327,7.0962896,-7.0247936,11.428782,-10.191118,6
2952a7dc48357a332e7fc1c0,8.281276,15.108537,-1.3330371,5.9030995,4.1678424,12.745075,8.506566,-6.0319347,11.462065,-10.000157,2
2977ed46a3eafa1b82ef6296,9.040936,14.695567,-1.0811907,6.388249,4.585839,12.536821,7.956909,-6.3047934,11.312612,-9.819991,1
298cd50ff5a606399306c370,10.21019,13.509646,-1.361356,6.704524,4.2874393,11.8959675,6.900098,-6.3141418,10.907943,-9.712643,4
29dc9d2bc94011388f815945,10.680619,14.609861,-0.7508202,7.016675,3.418288,13.093299,7.057555,-7.0854363,11.645422,-10.542676,-1
2b70481b45ac861d11095120,9.280202,14.8071375,-1.3180642,5.917015,4.6462665,12.181754,7.5237055,-6.2300425,10.806768,-9.799417,1
2ba5b777b3d4ca6c7dd83dda,9.26445,14.806203,-1.3068205,5.8946004,4.638148,12.15573,7.5173607,-6.2286716,10.795614,-9.794701,1
2bb73a5776561de112357f9f,8.975212,14.051479,-0.5404346,6.203112,3.7910767,11.9552355,6.2352896,-7.1807957,10.826552,-9.2018795,3
2c0d50ea58418587cb5eba51,11.0244875,14.538674,-1.2170701,6.359005,4.3962235,12.940559,6.6248384,-6.386672,11.506199,-10.750247,-1
2d29ed92ccf8cf3b42311197,8.9040785,15.2533045,-0.08237411,6.350667,3.9399786,12.410476,7.1650043,-7.170778,10.032724,-10.983895,9
2d6da583be18ccb0628ec2c3,9.105892,15.035341,-0.13980979,6.400237,3.9395978,12.491392,7.1462407,-7.1327147,10.183508,-10.967515,9
2e1a5c91617e009420b3da3c,11.005821,14.183293,-1.2937105,6.6532626,4.816361,13.068521,6.52421,-6.7047935,11.57588,-10.564271,7
2e3bc80a8dc57d31207ee182,9.215683,14.077706,-0.70166093,6.133852,4.086971,12.4302435,6.4929132,-6.91691,11.005832,-9.489843,3
2e4f31b3253f4f95e12654e8,10.208256,13.56286,-1.1737881,6.6646256,4.4104843,12.038861,6.846227,-6.4028783,10.7790365,-9.802232,4
2f95764b48cab241d0a5070a,10.242033,14.816299,-0.86810535,6.8561444,3.6782854,12.285949,6.923631,-6.6508226,11.034695,-10.182555,8
2fd4891587ec88a8a8131344,8.31712,15.007733,-1.3188355,5.95937,4.1496925,12.833433,8.44069,-6.0570827,11.538324,-9.917273,2
2fe8d6955e8143b52af916d8,10.967542,14.187461,-0.8806574,6.9202003,4.5009885,13.055024,6.9110427,-6.954079,11.851159,-10.240255,6
3005d70d160b9c600fb240ac,10.088151,14.583443,-0.97572875,6.709508,4.486693,11.897351,6.9370866,-6.5161595,10.730247,-10.18817,-1
3091a41bacac0560d06a7ca7,10.520935,14.449926,-0.5756505,6.7848287,4.5395517,12.379154,7.0840693,-6.8532224,11.047488,-10.293817,6
30f75b9d4913ecc347d3704a,10.331972,14.311874,-1.3994588,6.493121,4.550317,13.241137,7.2088842,-7.1255617,12.045244,-10.311975,5
31600ccb892c9cb699f1beac,8.308511,14.896195,-1.3593717,6.0129914,4.1899195,12.805242,8.4426985,-6.195,11.431983,-9.940464,2
3196554acc6709cc96145fe9,9.924911,14.152049,-0.5740166,6.2025175,4.659956,12.828392,7.45589,-6.580852,11.368646,-10.737308,-1
31e3a680449183f87ff9480e,10.351458,14.377808,-1.1042492,6.5645075,4.749808,12.692345,6.738099,-7.1510363,10.683996,-10.3101425,4
329a4e0a9869ab50d632dec8,9.699651,14.584819,-0.3617034,6.454254,4.103854,12.333351,7.293459,-6.6850505,10.639609,-10.417412,9
32a5b0d5c67c754765c76e68,9.869978,14.662316,-1.314865,7.1832213,4.442423,11.854602,7.2993646,-6.013256,11.206039,-10.099347,-1
32fac6245965e358e5ee8ed9,9.934789,14.312769,-0.96517193,6.6026144,4.644652,12.616078,6.590244,-6.608962,10.724039,-10.346311,4
3309ed8fea7a822cabd1e724,9.3352165,14.534084,-0.53828275,6.55633,4.19668,12.610068,7.7649803,-7.149709,11.292943,-10.497664,-1
335e9b78386a16faa1f31557,10.409326,14.903926,-0.75823456,6.7601743,4.675733,12.471418,6.90249,-6.974083,10.946439,-10.300086,-1
336535a9639bfd448bd9ef48,10.862564,14.556436,-0.8248637,6.985684,3.5486395,13.191253,7.04507,-7.0060167,11.768739,-10.46553,-1
362b1f4c37356be5d96ab28b,10.112063,14.3862705,-1.0719489,6.4026504,3.8443098,13.110268,7.1862426,-7.195249,11.3956585,-10.074623,-1
362ddff6ec43b1384fe0643f,11.40594,14.156511,-1.5261511,6.556281,4.7529583,13.368864,6.825641,-6.4705057,11.70725,-10.389643,7
37545b97fe03c235f025488a,10.67679,14.173066,-1.3363885,6.857747,4.91113,12.761158,6.5369697,-6.6829996,11.27005,-10.686749,7
378c545c3d71e24bb5f13351,11.171901,14.444193,-1.4670432,6.414977,4.169963,13.422182,6.9821453,-6.33397,11.78012,-10.282016,7
37ccec51ab8a9c5c58a75a49,9.726703,14.950436,-1.0827119,6.4493847,4.1371403,12.682625,7.205253,-6.92152,11.227941,-10.516779,5
381845f61863e6a383837412,10.857828,14.223498,-1.450345,6.9052014,4.9796185,12.824421,6.552676,-6.6359158,11.370373,-10.757115,7
38593f04e05ffdc6f1b97a25,9.787793,14.354967,-0.5635334,6.7429433,4.3940434,12.693494,7.5186954,-7.202415,11.310474,-10.476608,-1
39023eb126c1f411edaa4666,9.58125,14.7109785,-1.028129,6.7520056,4.684932,12.202896,7.534706,-6.1744337,11.1862335,-10.016673,1
395386a783cf868949bc75b2,11.000226,14.4707775,-0.8983922,6.9498553,3.7359228,13.259685,6.9652886,-6.932415,11.818203,-10.458741,-1
39ddb4099f38d741c2b8ed7f,11.411603,14.384312,-1.3272661,6.300141,4.456375,13.411136,6.9875455,-6.3616023,11.575054,-10.321407,7
3a5458953a421871d06ff512,8.238563,14.987741,-1.2323055,5.9239182,4.061651,12.858613,8.358606,-6.0493813,11.614498,-9.827626,2
3a9a0868ef68cc8b8414ea4b,10.206916,14.281355,-1.388529,6.328852,4.3923445,12.529647,7.2836604,-6.4193707,11.506449,-10.138657,-1
3aaf7fee13265e29e83e0449,9.855493,14.316929,-1.5551047,6.3463836,4.2501073,13.309211,7.342808,-7.3690767,12.161547,-10.260872,5
3b1715fd42ceea9813decfde,11.422216,14.345098,-1.4060506,6.4391413,4.655979,13.373916,6.869639,-6.4813957,11.922352,-10.320922,7
3b21bf365ca879bf1b9ffc53,8.972218,15.268911,-0.0014890437,6.32976,3.8495731,12.355991,7.094102,-7.2555823,10.006471,-10.935355,9
3d00852bd7871d5d8f661e20,8.370237,14.942845,-1.3681144,5.945991,4.1481485,12.895584,8.406698,-6.097499,11.579955,-9.888409,2
3daa48ee2a4b38108d24cdc9,10.640496,14.139767,-0.8335514,6.597171,4.7528706,13.113007,6.4641447,-6.7629385,11.629184,-10.553016,-1
3ea376d6a3bef92726368eff,9.55065,14.716801,-1.2261475,7.1989264,4.6702228,11.798585,7.3451786,-5.844549,11.015649,-10.153359,-1
3f26c6461ee0b340152c7e37,9.7613125,14.973287,-1.3861276,6.1939535,3.902205,12.195537,6.9783983,-6.396264,10.848626,-10.229583,8
3f2748dbf5dc84f0787237e7,10.034655,13.79714,-1.0719817,6.634736,4.4966173,12.38018,6.767547,-6.522495,10.671943,-9.906295,4
3f2da82212cd116bf11087fc,9.950033,14.027687,-0.89620024,6.2758775,3.7992332,12.431152,7.1413493,-6.7179337,11.60185,-11.0040655,-1
3f9cdc5e1a516f4a8792efc8,10.605319,13.531176,-1.3274899,6.6997986,4.4644,12.185958,6.7832465,-6.359171,10.968214,-9.855411,4
3fccec2df6803c486b4b29e6,9.019938,15.207299,-0.05733517,6.3161817,3.919669,12.380281,7.1018667,-7.2343445,10.029066,-10.913275,9
406870fa9c3eed79237bb230,9.91513,14.134302,-0.6234196,6.1585503,4.6835876,12.852269,7.4693046,-6.541524,11.373499,-10.723946,-1
40bf009db7da97496399c0f6,8.944547,13.986471,-0.57689226,6.133764,3.942649,12.290044,6.2483406,-7.0583525,11.04523,-9.130508,3
4123f42478d5febef94c229f,9.015964,14.882426,-1.2460685,6.2754908,4.304577,12.601953,7.895602,-6.4857197,11.196061,-9.942934,1
424253ba0dd9dea52993776e,9.0964985,14.61828,-1.0584592,6.4099607,4.5780783,12.536487,7.8469296,-6.362384,11.205196,-9.851646,1
4242687895653719091925ae,9.8852215,14.284139,-1.49811,6.8015842,4.1462555,12.208242,6.7068653,-6.706839,10.759988,-10.190098,-1
43dbb045219ae79e9afa1635,9.723138,15.101523,-0.49322447,6.2565966,3.8210714,12.3472595,6.7875185,-7.0831757,10.758977,-10.567609,-1
44219ea23254867372857f5f,10.969367,14.300824,-0.95564514,7.184466,4.763605,12.676319,6.937545,-7.047923,11.719713,-10.187846,6
4635c8c17ff28fc7f246eeef,9.907424,14.381172,-0.6690763,6.4667883,3.9082272,12.709929,7.298729,-7.2090263,11.410066,-10.599108,-1
46bd28b2a9fe817ca3ecf104,10.19944,14.136713,-0.7001115,6.304066,3.7850337,12.242385,6.869712,-6.931442,11.272414,-9.455356,4
46c566e3bf5cbb436a46f8ac,9.892428,14.037273,-1.0305761,6.6614876,4.740089,12.651929,6.512135,-6.8742065,10.856991,-10.279813,4
478bdc909cb6d99dde3ed7c8,9.774634,14.653451,-0.40245754,6.295816,3.6593468,12.005206,7.23449,-6.6424313,10.723296,-10.419024,9
47a22a804cd0fb40713be2a3,10.296042,14.523081,-0.9643594,6.4274316,4.652107,12.630781,6.884469,-7.2283573,10.573504,-10.293497,4
4af4614b101d73396ea82185,9.830459,15.007796,-0.80161107,6.1311474,4.4338117,12.116593,7.3500543,-6.6968656,10.661498,-10.307668,8
4b33ef007fec52e7549e196f,8.925424,15.246584,-0.07854017,6.3145885,3.928486,12.432674,7.151644,-7.2175674,10.04272,-10.951201,9
4cc09196b7a1fdc448300b26,8.97469,15.319422,-0.06340365,6.2466855,3.913814,12.353217,7.0683994,-7.3139286,9.974811,-10.874224,9
4d5be8476b6d5a78c8e9e898,10.583415,14.38344,-1.5690861,5.8251553,4.399998,12.591208,6.887128,-6.42511,11.351385,-11.433856,0
4d8d7e83f5d62db8be9c2315,8.891338,15.208065,-0.07808065,6.3435316,3.906366,12.504333,7.2315426,-7.1952887,10.119052,-10.995412,9
4d9048417143b2c57093c9c6,10.459515,14.297038,-0.90089965,6.8224363,4.814572,12.715976,6.933736,-7.3379583,11.215819,-10.2776785,-1
4e03eaa1e3d992742f8f5067,9.345264,14.640009,-1.0533751,6.597099,4.758014,12.327916,7.7171054,-6.200605,11.262536,-9.8752575,1
4e25649b8d8091ab8b1f2498,8.2613945,15.145375,-1.3646215,5.8505635,4.1647725,12.759918,8.532902,-5.9974484,11.457836,-9.983616,2
4ef67d5e513360967a277235,10.1900015,14.105857,-0.6446095,6.5673885,3.8629973,12.351552,7.0474033,-6.794781,11.103453,-10.372376,6
4f9b7128224db97038da4b4b,10.21249,14.358752,-1.7294888,6.3184175,4.7598476,13.568227,7.6254706,-6.189269,11.682878,-10.087027,-1
502a5d9280005020b4d966fe,10.010256,14.033599,-0.9617637,6.3062577,3.8528733,12.4383335,7.165622,-6.750601,11.561859,-10.969926,-1
50da52f8a5a4039ff9f850cb,10.66563,14.145859,-0.8262884,6.5795026,4.7520494,13.129323,6.463289,-6.744183,11.6356,-10.563743,-1
521c404223919063437e74bf,10.077569,14.406154,-0.99786866,6.6778135,4.490337,12.558301,6.6103907,-6.665715,10.606628,-10.227546,4
52a5f4a3c29842d10699f399,10.328207,14.399704,-0.74644864,6.0479794,3.9683158,13.075913,7.106741,-6.77913,11.525672,-10.289116,-1
5337314f48e0e9cec29a7b5c,10.039797,14.284936,-0.76317906,6.727489,4.6736784,12.343663,7.3014755,-6.8713264,11.315811,-9.675053,-1
53469f9b03c4d3706c7c0b61,10.128987,14.319167,-1.2170638,6.526941,4.7588525,12.912405,6.607676,-7.3463597,11.013989,-10.440346,4
54485e1f156861031b977c20,9.896904,14.125742,-0.8077039,6.2216744,3.807918,12.37502,7.09605,-6.6737947,11.536191,-10.915534,-1
5453a13cd707e58b111c0e54,10.169984,13.5054655,-1.3826475,6.7124987,4.3096075,11.896715,6.90352,-6.334946,10.893445,-9.713565,4
54906b5e159d63fdb692b415,8.933691,14.077696,-0.4902932,6.126061,3.8639774,12.026975,6.1412706,-7.1878476,10.872919,-9.136355,3
556f2e6987875108fea56909,11.491812,14.283697,-1.5903578,6.517277,4.5371523,13.75604,7.0615716,-6.3661375,11.777894,-10.176925,7
55b8609a9f96de59e1ca5e0a,9.901981,14.31386,-1.5862756,6.3529587,4.230045,13.295995,7.3130383,-7.3721113,12.17522,-10.2891865,5
56cf461a8c44ebebe2fe83e0,9.788309,15.228106,-1.4730135,6.073386,4.1964016,12.532949,7.1293325,-6.583734,10.56962,-10.434445,8
56f327e4b14556e55a929717,11.003042,13.737561,-1.5236375,6.618051,4.5306168,12.694482,6.786242,-6.321956,11.37192,-10.082252,-1
58c276b1e90a172c066f80a6,9.956378,14.601436,-0.66700923,6.124788,4.3258696,12.336965,6.7660475,-6.58236,10.634357,-10.422363,8
5912b91b6c64ffdd15eeae60,11.231891,14.063839,-1.5293684,6.249472,4.64375,13.959302,6.908957,-6.3357096,11.867582,-10.442335,7
591dfcf8e8149b13ecf5fc98,9.4696045,14.448482,-0.73762876,6.258181,3.9606824,11.932143,6.4938827,-6.9611425,10.804254,-9.588537,3
5988805b21113f88b25c7a4d,9.910391,14.098113,-1.6491038,6.6615887,4.0441775,11.538836,7.277977,-6.1818485,11.10842,-9.453454,-1
59f25aff5b0a8b8a8b73c2ee,10.877938,14.61184,-0.74052125,7.0923715,3.5881116,13.089512,7.0645633,-7.0688934,11.7295,-10.494992,-1
5ae586b1578b4ac46cfcfe5d,10.663711,13.843182,-1.3013116,6.196609,4.647616,14.1452465,6.6018276,-6.455951,11.458929,-10.546819,-1
5cd439c5ea4303f66b67353d,9.111896,14.732739,-0.9580089,6.3641944,4.51429,12.535834,7.854443,-6.4935865,11.245444,-9.995381,1
5d7264691717eb2221f633f5,9.801315,13.840895,-1.137096,6.4218583,4.4195223,12.471156,6.852063,-6.604726,10.787024,-9.946762,4
5ef35ff3b0636459ac45ddc1,8.651097,14.900353,-1.3564644,6.0482516,4.2822742,12.838049,8.288801,-6.179206,11.464917,-9.962966,2
5f3fccfa555fa14949c11d9b,9.784185,14.62857,-0.40159523,6.3133593,3.6797633,12.016705,7.24408,-6.622323,10.725816,-10.404499,9
5f846839e3ef133c2cfa7e28,9.7741375,14.676051,-0.88516283,6.523313,4.2257166,11.921997,7.126517,-6.5460696,10.681967,-10.276624,-1
62555c7d47981045bc3bd376,11.209794,14.104652,-1.6252995,6.1774273,4.607007,13.88151,7.0000896,-6.3470454,11.893803,-10.216737,7
62877450df461226e151097b,9.267618,15.075115,-0.40257698,6.4470563,3.99969,12.396054,7.0769043,-7.095075,10.179595,-10.886669,9
630608fd5a821b34749d30c3,9.5616865,14.627907,-1.5876845,6.3491526,4.403617,12.959854,7.7004414,-6.4425883,11.424322,-9.888256,-1
63a9396ffaf230a2494b3178,10.023075,14.62425,-1.3907663,7.1812644,4.397975,11.936664,7.2445407,-6.0245333,11.27552,-10.132802,-1
649a3246fb04ec9243d58a7e,10.587226,13.746128,-1.245267,6.1570063,4.665197,14.169667,6.4999394,-6.4440284,11.430364,-10.505821,-1
64e1bb3e0ba097f7a53d598b,10.315761,14.80973,-0.62624,6.481045,4.3183713,11.845995,6.946062,-6.813708,10.675174,-10.062948,8
650aa14ad2f24f6bc53dd83d,10.12894,14.565843,-1.1412371,6.137828,4.0240483,11.999644,6.938416,-6.455361,11.115627,-10.605524,-1
650e72b68cff6b592d0230df,9.131241,15.16632,-0.06279994,6.2663517,4.021892,12.414765,7.053439,-7.1322403,10.13057,-10.855999,9
653b494845111be475e271eb,9.56448,14.717298,-1.2252953,7.202069,4.6600375,11.795168,7.349647,-5.8513365,11.019063,-10.147383,-1
65f97c6f0e659c902b68a1ce,10.771018,13.859658,-1.334168,6.1919746,4.650203,14.125617,6.62956,-6.413951,11.520108,-10.524805,-1
668b1f6bbc7134d0c55e4e95,10.167035,14.453836,-1.0038807,6.3100104,4.525302,13.095644,7.4894743,-6.3274674,11.235258,-10.162112,-1
66ae2ffbe2fa8a829cf2a5ed,9.719342,14.465231,-0.8228705,6.481934,4.197486,12.414387,7.306083,-7.176288,11.077452,-10.6114855,-1
66f380c666c3e63638d346ce,8.2789955,15.020213,-1.291771,5.9639297,4.145182,12.820375,8.45269,-6.0469394,11.532358,-9.901339,2
674c2a5257e79bc799f07979,10.211253,14.488042,-1.0269188,6.281064,4.781592,12.841082,7.106811,-6.6297836,10.965466,-10.711421,-1
67cfc9940c3aae1fc5d3785f,10.421544,13.886948,-1.1589028,6.182519,4.539026,14.083268,6.562013,-6.508238,11.3128395,-10.595669,-1
68bccdb9f8e01f8808dd6a8b,10.921455,14.258814,-1.633715,6.2085347,4.5448546,13.684288,7.2543597,-6.3036923,11.785088,-10.186314,7
68fe1fc918e087d14694cc82,11.51033,14.266301,-1.3791257,6.446321,4.4383893,13.520155,6.958135,-6.420015,11.670422,-10.337585,7
6948779237822dc091b0a4ae,9.869907,14.484419,-0.7519561,6.0364704,4.3223,12.187446,6.6540437,-6.598678,10.733067,-10.394942,8
6a23b2bf3cbf51e85b8d6b10,9.113789,14.138934,-0.5898452,6.1243815,3.7984133,12.5266695,6.555327,-7.3576326,11.294916,-9.575978,3
6a4a54371da1512744e16785,9.716679,15.186269,-1.1369364,6.1749945,4.308311,12.5027,7.2777123,-6.779907,10.558036,-10.498944,8
6a812f88c226b941d8afc18e,9.569865,15.086778,-0.9023574,6.2667413,4.3271956,12.277475,7.4721775,-6.8837,10.705905,-10.332847,8
6a998087ef6bf7fbb97eb208,10.047051,15.019562,-1.7842786,6.142885,4.2049093,12.574285,6.803944,-6.716587,10.702641,-10.64719,8
6ade015e9e461ec6f4e29969,10.033816,14.696809,-0.63738537,6.3135524,4.268898,12.558308,7.1850157,-6.6424446,10.444094,-10.415701,9
6b21206d4318987ec0053edc,9.991266,14.380464,-0.6371488,6.440583,3.825126,12.009268,6.823674,-6.8126836,11.236637,-9.532152,4
6bb2ab5a5e83f7f668d8fb80,11.296175,14.151615,-1.4353741,6.208263,4.5452657,13.75628,6.9548664,-6.4215918,11.757112,-10.533252,7
6c84cb47bc505562ebca2cec,8.9861555,15.134753,-0.07360991,6.3756385,3.8686914,12.413279,7.124166,-7.135576,10.131906,-10.977785,9
6d5de8fce12b5845f5ce2bda,8.270778,14.918241,-1.4326515,5.951262,4.251973,12.859527,8.501719,-6.196001,11.422892,-9.898813,2
6dcbdeb01457613dfd671efb,10.157534,14.89743,-0.85127074,6.5040874,3.5626473,9.905935,7.570733,-6.255998,11.26078,-8.126978,-1
6dd93a9b2184a7e6f7a96b6a,9.331037,14.859982,-1.3684576,5.860688,4.6344566,12.179697,7.4748087,-6.2491612,10.75297,-9.849035,1
6de320bf1299960cdf5f2e84,11.345823,14.229008,-1.3505262,6.4430437,4.443039,13.644676,7.1335096,-6.3547173,11.847558,-10.339364,7
6df355cc97278b93d1ee27f7,9.884808,14.394928,-0.83077097,6.724836,4.534087,12.03006,7.393383,-7.1061144,11.087401,-9.607284,-1
6e33ea11f2ebb351d70129ae,10.671944,14.485251,-0.84423214,6.8658476,4.386689,12.281915,6.717097,-7.1145706,10.968941,-10.0327,6
6ea61fcff6b048b1b6afcafa,11.43996,14.383966,-1.5174828,6.418126,4.568903,13.375204,6.9231334,-6.395604,11.726304,-10.27533,7
6ed0cea3d3e29b33ecc1dc21,9.13685,14.019647,-0.58486277,6.133803,3.9728103,12.304815,6.1220865,-7.093613,11.04889,-9.149679,3
6f36071765270f5f4ea6e221,10.21576,14.063226,-0.71104735,6.3166075,3.7930212,12.231545,6.8759575,-6.9027305,11.285589,-9.469818,4
6f6eec1b1078733699822b5f,10.159455,14.909144,-0.81971735,6.5433116,3.5258188,9.84129,7.5892024,-6.2250752,11.250764,-8.068896,-1
6f76ef15b952b05677045d86,9.280048,14.268713,-1.330428,6.6432185,4.2483163,12.451351,6.9511437,-6.619464,10.389946,-10.20358,4
6fa668e5befd3f3d4911449b,9.8909445,13.808972,-1.2884429,6.670689,4.602845,12.474539,6.8834367,-6.523621,10.716715,-9.936981,4
6faf5e939bd8eb9398136e06,10.149211,14.901099,-0.8298143,6.5569725,3.5532799,9.905513,7.547236,-6.277137,11.201081,-8.132742,-1
706894affa276d8fd6c0f3a1,9.929702,14.15963,-0.59679383,6.1596074,4.7057576,12.8327675,7.5132165,-6.538772,11.404913,-10.725997,-1
713b5ef3be01a6dafeec277c,10.319589,14.313495,-1.7525243,6.3266683,4.800071,13.650324,7.588832,-6.198297,11.735885,-10.077097,-1
7294dde3318cdc92c5c37df2,10.096306,14.961861,-0.8078526,6.15021,4.2444997,11.846918,7.067261,-6.6714625,10.771194,-10.24232,8
732e271b852ddadd910bc43f,10.170312,14.917278,-0.8153664,6.52667,3.5260198,9.896988,7.5940113,-6.2304697,11.260422,-8.123366,-1
743f6526eefa50d98a43b97b,9.880183,14.362594,-1.3475966,6.338766,4.299838,13.149266,7.235777,-7.3030767,11.952758,-10.208334,5
74f26e3d63f436bfb17b248e,10.933036,14.248447,-2.1183739,6.0825553,4.1752796,13.351742,6.954992,-6.3324738,11.677205,-10.776318,0
754fffda3a118e86466a2469,9.121089,14.935533,-1.3194523,6.0379543,4.311175,12.654258,7.9023905,-6.2203207,11.32981,-10.047277,1
758a5f17f7e6b815ac4429f2,9.995821,14.931513,-1.3580871,6.922503,4.2341075,12.314517,6.5148635,-6.7675724,10.964156,-10.208775,8
7629b9f6d6e83b0cd82da4b4,10.363885,13.508723,-1.2858756,6.686747,4.367232,11.913012,6.769682,-6.3158317,10.757959,-9.7916155,4
765b2010a75084d9ed0e7beb,10.093222,14.412019,-1.1257615,6.7830796,4.322165,12.060013,6.7988186,-6.4657974,10.718372,-10.237757,-1
777da00d2625f5c9adc1f409,8.954514,14.000955,-0.531853,6.1617846,3.8872874,12.300594,6.1922035,-7.1034408,10.991815,-9.136695,3
7894c738aedf1e506d17633b,9.434147,15.040106,-0.4933881,6.464779,4.093587,12.355768,7.05902,-7.0729933,10.269807,-10.804194,9
790d234d729f53aa88731022,9.900545,14.322986,-0.7121513,6.501738,4.676191,12.790086,7.3920693,-6.7110777,11.59099,-10.035439,1
7915c2546a05f6764b9badbb,9.949312,14.295283,-1.6177137,6.311826,4.233692,13.41443,7.310976,-7.366438,12.242444,-10.278206,5
79315dd11b0aa1d3a42e5286,10.645158,14.232208,-1.4124974,5.749597,4.3153443,12.61984,6.8557596,-6.4680724,11.24003,-11.458807,0
7a0c7a636caac910a2cd1b83,11.316675,14.081956,-1.434569,6.2853484,4.5775304,13.776707,6.9407353,-6.375995,11.659809,-10.490993,7
7a424982f62af93e370ae3ff,9.271778,14.650891,-1.311691,6.020139,4.6544013,12.247447,7.53414,-6.221823,10.885409,-9.746182,1
7a64d8a2bb2f9184396035ce,9.89783,14.763432,-0.9178649,6.947934,4.4244246,12.324198,6.609201,-6.6820903,11.109718,-10.377365,8
7b62ab3d7ba37fe4ecdfdbe2,11.273491,14.08679,-1.6441122,6.1614995,4.528193,13.751831,6.949333,-6.2608533,11.746731,-10.0970545,7
7cb020329f9c71e197c089ad,8.360341,14.863189,-1.4315307,5.967371,4.1717043,12.846042,8.419151,-6.217489,11.508323,-10.003217,2
7d59e3b53e57b4915246b0cc,10.260206,14.299547,-1.7902406,6.3611712,4.785581,13.630569,7.649661,-6.2608933,11.743632,-10.080747,-1
7d96331fb181a2d1b888875d,9.403748,15.284825,-0.3382312,6.270834,4.1393833,12.255917,7.158345,-7.0537205,10.177308,-10.651836,9
7dd127380776561feeffd587,11.05278,14.3821125,-0.8420135,7.0814843,4.6933904,12.741452,6.9007,-7.0356364,11.623395,-10.204654,6
7ed4bf3d6bdbca5765853999,10.148984,14.913413,-0.63114655,6.2361054,4.353634,12.55774,7.1335344,-6.5726595,10.375956,-10.405332,9
7f61267b63f69cbb252185f7,10.9398985,14.50365,-0.7931405,7.020746,3.5370555,13.277419,6.987831,-6.917702,11.854733,-10.505204,-1
7f9c02cf9c55d11cb0246510,10.200536,14.003415,-1.3662355,6.33771,4.659344,13.6199045,6.612174,-6.5269985,11.166871,-10.476849,-1
80d1d66a6964c3e72a8877a9,10.110729,14.389403,-1.1112478,6.427207,3.8847158,13.204611,7.098056,-7.1815686,11.188766,-10.038214,-1
815e66077471798ac65f0796,9.712419,14.433799,-0.98442477,6.2942524,4.3696494,12.82416,7.297168,-6.8860464,10.936489,-10.959656,-1
818332e43445405119ab74a3,8.936476,15.189015,-0.0830144,6.223154,3.903773,12.430929,7.1498365,-7.3196573,10.127778,-10.8644705,9
81a10231ad55aa4288f674b2,11.195581,14.41186,-1.6418068,6.204495,4.4490185,13.426523,7.138356,-6.1887074,11.741776,-10.45905,7
81bfb53fa72c7d442dcb82bc,9.5940275,14.636951,-0.98584,6.321375,4.127712,13.009009,7.075388,-7.056692,11.363681,-10.618322,5
81cc957dc912b70adfbd514e,10.017111,14.86614,-1.2159745,6.96859,3.80106,12.182832,6.7777066,-6.6744957,11.087788,-10.147831,8
81d554ece657e3efce426758,9.028724,14.778391,-0.9176824,6.3624477,4.479345,12.488707,7.930464,-6.475682,11.267931,-9.943425,1
81df432c665f994ace560306,9.544438,14.728638,-1.2321421,7.1972666,4.668664,11.793208,7.367709,-5.843647,11.023997,-10.141232,-1
81efbc458a9f2e05c4089691,10.229566,14.080805,-0.6718622,6.5592833,3.912088,12.009594,6.942195,-6.638995,10.887076,-10.21315,6
82d4460ff1c4e03ea163d73e,11.078625,14.359693,-0.85141736,7.2044163,4.7439733,12.630454,6.946791,-7.10848,11.697697,-10.190074,6
838dbd8ac5084c6b26fca6fa,10.228714,14.771161,-0.9654343,6.192147,4.2511787,12.864444,6.905568,-6.500598,10.632579,-10.160686,-1
83d576912244834dd7597594,9.204317,15.214806,-0.06993497,6.2532554,3.8333414,12.354839,6.9776144,-7.181829,10.280971,-10.768681,9
83fec5df59fd4e36c7058966,10.153193,14.458599,-0.86303985,6.406084,3.7343245,12.807892,7.19259,-7.2010746,11.373334,-10.091093,-1
8412c3dcf3e1230ea7bc873b,10.257531,14.345805,-1.2414819,6.5385146,4.721827,12.893115,6.7687416,-7.436725,10.977666,-10.325935,4
84a2b2e82905a7c54e0b57ec,10.228059,14.402739,-1.3940264,6.397329,4.05606,12.940262,7.216967,-7.2106433,11.939503,-10.31963,5
8629a1f074e56cc4933ed1bb,10.073986,14.240936,-0.772562,6.753549,4.7471232,12.397018,7.308846,-6.839945,11.322812,-9.696978,-1
8629f797093512e1e5d97593,9.816602,14.166147,-0.7710977,6.2792096,4.4643455,13.107166,6.549544,-6.836478,11.387778,-10.330492,-1
8693e1369cda658359a4f999,8.287382,15.028198,-1.2367573,6.0184703,4.219836,12.738656,8.497333,-6.038517,11.456642,-9.9273815,2
86e01c530223c5b2f5d60e67,8.91401,14.018382,-0.4755081,6.130406,3.8171515,12.084414,6.150799,-7.185243,10.928958,-9.093517,3
870713373da185aa63e088b5,9.935059,14.335882,-1.0111561,6.840886,4.7726545,12.764919,6.66533,-6.83074,11.037277,-10.491578,4
87a29d144575d837c67b527a,10.490653,14.289116,-1.7284437,6.3342757,4.7815495,13.662821,7.5419936,-6.1691165,11.74731,-10.082373,-1
88534a3bffdabcf98a9a6409,9.44803,14.062288,-0.67291075,6.1051574,3.9324658,12.356913,6.4137654,-6.9296727,11.2432375,-9.367367,3
8867d0b891c3d4fe0a099e62,10.8817625,14.395673,-0.92335236,7.178454,4.7895684,12.5864725,6.698402,-6.8557954,11.389447,-10.307853,6
8876639491eca88ccaa01073,9.454453,14.007369,-1.0276619,6.4354577,4.672161,12.682539,6.386262,-6.9285564,11.040518,-9.731478,3
888e00514ca1db3d6c08fd64,10.331364,14.336236,-1.4800888,6.334892,4.2776284,12.845321,7.296727,-7.0722175,11.975031,-10.368175,5
88cff39aa25e8db9e0762ade,10.524277,14.45135,-1.5798975,5.827831,4.46245,12.522656,6.8903503,-6.434489,11.230952,-11.420342,0
89089947fa76b293a081407a,9.598737,13.98595,-0.8548001,6.0906305,4.220994,12.807874,6.8000817,-6.720625,11.067884,-10.019279,-1
8951ab2c8c366776d1f669a2,11.228312,14.222739,-1.2760098,6.9398475,4.8693085,13.045805,6.580504,-6.803005,11.727527,-10.43743,7
898474096af4e30d5ba59968,10.644955,14.300973,-1.7086725,5.8072553,4.265436,12.676977,6.926041,-6.43879,11.336835,-11.358333,0
89992033dda8bfb4f63f5c31,10.848967,14.205854,-1.5182894,6.1779,4.454158,13.852702,7.1703067,-6.6509233,11.6486,-10.3080435,7
89a73292a65f225d255208f8,10.345031,14.459255,-1.2098552,6.5457892,4.5967875,12.814425,7.258739,-7.257307,11.323406,-10.388575,-1
8a75813c042d6f61018997f4,10.442478,14.4697275,-1.3136958,6.716023,4.175371,12.829183,6.7423368,-6.762703,11.592878,-10.235065,-1
8ae579ade1f7b386eced3aca,10.870209,14.628092,-0.70941955,7.1169496,3.5721781,13.074506,7.072251,-7.081406,11.72459,-10.511975,-1
8b377eb78c78afe4c52ea9b6,9.530021,14.458027,-0.55917907,6.641437,4.2597885,12.998627,7.6876936,-7.1432805,11.526207,-10.636036,-1
8b568c449abd02c487b904e8,10.258868,14.303437,-0.4377316,6.3203254,3.9497056,12.038705,6.942764,-6.687768,11.252464,-9.620172,4
8b659281aaf8484650ee511a,11.000795,14.347452,-1.19108,6.517725,4.498238,13.124953,6.993259,-6.4403095,11.241426,-10.483645,-1
8bcc7e8593d5412f886ecc28,10.188738,14.638013,-1.0861495,6.955633,3.8224878,12.958036,7.0926623,-6.979414,11.0712,-10.368568,-1
8be87ffd829637a598c98c47,11.187308,14.287799,-1.4558563,6.367048,4.481371,13.360114,7.0538754,-6.76996,12.001405,-10.403836,7
8c9eca782cfc182346cccb47,10.08917,14.698878,-1.7390971,6.470939,3.8938391,12.441166,7.0469155,-6.459796,11.132127,-10.359084,8
8ddeaf32ee65755f50f00f0d,9.370764,14.984647,-1.02857,6.3623123,4.1238637,12.359965,7.483921,-6.823204,10.909827,-10.214998,8
8e951912b3106e692f305755,10.156211,14.516871,-0.56205803,6.8919935,4.6240835,12.426314,7.4746947,-6.954524,11.339976,-10.132341,-1
8ec8a78ef93f2d57496e45e0,8.268164,15.192562,-1.2011688,5.856307,4.1529818,12.683426,8.391275,-6.01044,11.385013,-10.092036,2
8f1b3ac1132472ce72a329d4,10.158384,14.0906725,-0.6917834,6.3267226,3.7317731,12.187665,6.9322,-6.8442597,11.260543,-9.485331,4
8f679e6a388b132ce2de974e,8.957174,14.062923,-0.49567634,6.1327095,3.7684133,12.173004,6.269473,-7.277532,11.012253,-9.237943,3
8f9757d10ec9c7c71b5eaa2f,11.205525,14.04351,-1.4163744,6.1252255,4.3922887,13.412515,6.830811,-6.34587,11.834256,-10.064466,7
8fa99a46c0c319b00bf3d7f5,10.864107,14.3818245,-1.2653971,6.723332,4.567628,13.207176,7.095721,-6.856297,11.258602,-9.856796,-1
8fe3af99d3d88ebc09f2b69b,11.131347,14.212781,-1.6214114,6.2459817,4.5243945,13.7016735,7.310368,-6.364713,11.978985,-10.264486,7
8ff946711b9af6f3cfdb196d,9.966603,14.1030245,-0.8047688,6.393953,4.6353903,13.1947565,6.4975553,-6.8284,11.427639,-10.441813,-1
905107f47c94e3c39f948441,10.475091,14.277601,-1.412153,6.1896114,4.337932,13.794133,7.0831757,-6.901587,11.348865,-10.234158,-1
91f86eb3035ce226ce71d24e,9.886989,15.065386,-1.5335199,6.135719,4.1825953,12.540101,7.0909853,-6.488019,10.682023,-10.300427,8
922da1252847a501457ee7a8,11.043347,14.29743,-0.94418466,6.5926642,4.1852126,13.176734,7.091364,-6.633045,11.717247,-10.443235,7
92356f6cd0d00ec8699c0419,10.718685,14.297154,-2.1258698,6.013708,4.020014,13.214433,6.951629,-6.4296684,11.616236,-10.885585,0
929cad98770e4de78839721f,9.10612,14.002786,-0.6202375,6.245759,4.0619097,12.20074,6.277196,-7.048949,10.971358,-9.202603,3
92e203a67e64825c291abe79,9.157612,13.938121,-0.75493073,6.235853,4.2669516,12.46703,6.1287293,-7.078899,11.075929,-9.271509,3
937dc533a34508f6cf99f12e,10.219598,14.399489,-0.57037556,6.682364,4.4761014,12.566961,6.3081174,-6.8955092,11.040074,-10.571916,4
93a7e86b412e93a6c795ff5c,11.113545,14.368081,-0.85919064,7.1144905,4.659777,12.768245,6.83704,-7.1039057,11.638068,-10.165195,6
9453b771a9749b92983782fe,10.0623255,15.210427,-1.7820433,6.0239387,4.2217,12.666662,6.925098,-6.625687,10.747168,-10.619109,8
94726055ccb75b32dce17056,10.142542,14.548988,-1.3480594,6.030391,4.324015,12.263503,6.7113433,-6.7794037,10.747424,-10.796645,-1
949b554ca4c4e72a032c00eb,10.18677,14.942573,-0.79025066,6.524624,3.508053,9.9516535,7.6111784,-6.2391453,11.270723,-8.170994,-1
955cb2607774b34f13f807ee,9.599063,15.055131,-1.4445119,6.100763,3.968052,12.290939,7.0778008,-6.361261,10.797702,-10.249599,8
97b3a60c1492f76b00024d04,9.9103985,14.477886,-1.2685244,6.3838625,4.098824,13.239793,7.1809382,-7.2171693,11.759872,-10.493519,5
97e3d86f097a9d7a38829522,9.904765,14.117375,-0.7174521,6.16901,3.8605485,12.388111,7.0286584,-6.6171875,11.507925,-10.858454,-1
97f524708a1133940633cc97,9.795103,15.344419,-1.5840214,5.9471273,4.1645827,12.558595,7.1066403,-6.555069,10.8310585,-10.699488,8
98093e3be736c8b57e9a5cbb,9.985084,14.701262,-1.7050339,6.6312056,3.8427243,12.275115,6.901733,-6.590728,11.038833,-10.322484,8
980bfe7450ae7a65a8673463,10.473645,14.290373,-1.7544749,6.2691445,4.7620463,13.7203865,7.527555,-6.225056,11.775508,-10.127128,-1
9855453f52bfe9a7f419972a,10.26895,14.3925905,-1.2879268,6.4395766,4.3256426,13.364906,7.437971,-6.569078,11.819045,-10.518394,-1
9900361fbc4d0b8643af8fc2,10.21494,14.29458,-0.71809477,6.6420145,4.0831966,11.983562,6.951873,-6.7796164,10.887573,-10.283616,6
9946d1315c23b6bd75f96aa2,10.317601,14.15978,-0.5035723,6.267068,3.9026525,12.134284,6.904514,-6.5327725,11.326736,-9.780636,4
9ad1a205141cf3183c7965d2,10.38257,14.1742735,-1.5386549,6.2335024,4.6559176,13.518747,6.8879213,-6.473638,11.207817,-10.418088,-1
9b6ecd25f8f7f7a9fb28f28c,11.0981245,14.311918,-1.0788343,6.9936056,4.558622,12.865612,6.932747,-6.9812555,11.498926,-10.001784,6
9cde9be5d9bd89d8039968dc,9.871229,14.398467,-0.8216918,6.7028027,4.508121,12.014034,7.3916078,-7.0771213,11.077257,-9.598931,-1
9d27019eddefdaee1669712e,9.728601,14.575627,-0.6030695,6.678545,4.653239,12.570905,6.518202,-6.6819906,10.858188,-10.563729,4
9d5565d1e459131b0fb6b1ed,9.838907,14.300176,-1.6113158,6.3281364,4.209674,13.373081,7.338215,-7.4305634,12.2342415,-10.282212,5
9d6309022dcaac611c4d3cdf,9.538376,14.591105,-0.927641,6.351433,4.0077267,12.084718,6.7884994,-6.8883095,10.7712965,-9.828296,3
9deb92f781cfc2389ad20135,9.736982,15.335198,-1.5173457,5.8947287,4.123437,12.5847435,7.105835,-6.6051517,10.830488,-10.78985,8
9df9fa44d52813c90ed00b72,9.857201,14.691926,-1.6496583,6.124523,4.467001,13.161033,7.5364375,-6.269708,11.182299,-10.007471,-1
9e6289f0344a9b5c22ce7047,10.257939,14.315989,-1.4453344,6.2678285,4.4509754,12.863509,7.487532,-6.2713437,11.648152,-10.112596,-1
9eb41179760a81d7ae5dc35b,9.082025,14.520086,-1.1038667,6.4109864,4.629489,12.534498,7.7950315,-6.340452,11.148273,-9.801452,1
9ef3de8e2e06d1bf1d674ba2,10.226331,14.30186,-1.1611805,6.521787,4.550164,12.518629,6.7689977,-7.323824,11.039803,-10.044725,4
a05551bb5353789089529b94,11.542099,14.082724,-1.4732615,6.392255,4.6418877,13.371401,6.847384,-6.5026126,12.090609,-10.345539,7
a06d9a850de703b35bfb25d1,8.922261,14.095507,-0.4419304,6.1165495,3.802479,11.998108,6.141439,-7.2430673,10.906495,-9.127837,3
a0a8bdc81f7832b9345682aa,10.306592,14.334543,-0.95197606,6.427069,4.8510947,12.852408,7.0104966,-6.552021,11.105845,-10.711598,-1
a109503ffeb3c06b12e17ecb,9.986387,14.089726,-0.8442373,6.407648,3.8425536,12.524075,7.076705,-6.8054004,11.601689,-10.857934,-1
a23d1523ce7ef6adf8245841,10.037631,14.648273,-0.5288402,6.3674803,4.019421,12.69967,7.272757,-6.7464447,10.655145,-10.455896,9
a2cd1d0654018591134c1b98,9.70138,15.254712,-1.2849482,6.071156,4.207384,12.512169,7.137767,-6.73823,11.08815,-10.705029,8
a3d55ad3531bda4c864eab88,10.66615,14.48254,-0.87792796,6.886161,4.41727,12.296771,6.716096,-7.1149497,10.96204,-10.026354,6
a3de4c77ab9fc130ba7f34c7,9.874269,14.378933,-0.6329011,6.474581,3.8543837,12.714221,7.3072343,-7.2668037,11.385251,-10.520022,-1
a4b4cd2e8054260fddda6c9a,9.301899,14.890873,-1.3059688,6.4874663,4.0303783,12.481811,7.3236656,-6.787008,11.157639,-10.292065,8
a66d345b5c483feff955ed9d,10.102527,14.754074,-0.9356395,6.081881,4.087877,12.814845,6.857155,-6.379149,10.695066,-10.04814,-1
a731ef632bc954692c1b33e5,9.413454,14.508197,-0.5002695,6.562158,4.1474986,12.647102,7.6648874,-7.182464,11.26917,-10.522781,-1
a840a1bb3e46738b04be06d6,10.69568,14.38528,-1.6287429,5.8704085,4.4796753,12.709835,6.8428,-6.3671803,11.471896,-11.447256,0
a8c3271c6491b33e17df7f0d,9.541907,14.431201,-0.55024886,6.6429944,4.236311,13.046033,7.682599,-7.16515,11.557765,-10.696149,-1
a94c252b6a951efc2834ab3d,9.935006,14.50084,-1.1611774,6.5916142,3.950158,12.458868,7.1736984,-7.17233,11.635189,-10.2666645,-1
a963b14a00a11997284ca713,11.1706915,14.172662,-1.5012496,6.145959,4.579275,13.781156,6.7758923,-6.398004,11.750826,-10.043632,7
a9b77a56cdcba8f8ca7b0d70,10.478626,13.463496,-1.234232,6.770753,4.2515097,12.006639,6.7958393,-6.2584453,10.869479,-9.835315,4
aa228f3db4d96b66f9075669,8.891226,14.093299,-0.4379167,6.089146,3.7529793,11.946252,6.222126,-7.2812233,10.955336,-9.093108,3
aa4f6e195c7325e86d4c4b8f,10.267941,14.681979,-1.8454973,6.4492536,3.9477186,12.564441,6.775748,-6.6289926,11.115829,-10.469889,8
aaa95f30fc6d2d0b8b133d8a,11.275926,14.109835,-1.6331599,6.2070684,4.6416454,13.869376,6.9662113,-6.324335,11.953779,-10.217825,7
aaefac24e4d4dad94bb04b67,10.237536,14.958124,-0.4773392,6.028784,4.1426945,11.969078,6.9945297,-6.7349515,10.902728,-10.071444,8
ab02b9c4bbe8d249580e2652,11.177557,14.247486,-1.147126,7.041016,4.86965,12.982059,6.666403,-6.889598,11.76869,-10.354975,7
ab287b3f7adb730b5d1b303c,11.456462,14.297751,-1.4731749,6.5687766,4.612375,13.545751,7.0509095,-6.5059004,11.618211,-10.124507,7
ab798e4b9b2f0b69d0ca1bf6,9.822888,14.628574,-0.9861882,6.0783505,4.1014752,12.043216,6.513311,-6.6701,10.708834,-10.160634,8
abb6dc94f3d2733c4237c544,10.518079,13.600201,-1.2678287,6.6954737,4.2712045,12.070108,6.8992796,-6.3265085,11.028859,-9.842661,4
ad098b0fed0f49e880d2f36f,11.263638,14.175739,-1.5875907,6.1882353,4.859993,13.160999,7.0612044,-6.219583,11.905099,-10.390271,7
ad57e8da7468880b108236fb,10.596815,14.401632,-1.5793096,5.8341637,4.3661823,12.546008,6.8531623,-6.317966,11.385668,-11.48089,0
adc480ccf0d672ec93761ca7,10.227773,13.49745,-1.2145964,6.62506,4.4159327,11.994291,6.828473,-6.388208,10.780904,-9.764027,4
add8b9a9877dd253f6a2b388,11.006659,14.079494,-1.3165704,6.8487306,4.828292,13.050158,6.6037154,-6.744276,11.452908,-10.357906,7
af041adb27400f575076c637,10.095205,14.466073,-1.328651,6.511538,4.748225,12.997089,6.7417693,-7.378397,10.822552,-10.451324,4
af07c7669f4bc2ddb5f13d02,10.341558,14.883308,-1.0334226,6.396823,4.388311,12.297313,6.559606,-7.0345907,10.968298,-9.977597,-1
b1c30564c28b973aac3796b2,10.287087,14.313147,-1.2650803,6.531051,4.801323,13.005918,6.758879,-7.4505324,11.007379,-10.40086,4
b28018c0ecd538d357bbb320,9.60514,14.62418,-0.23648547,6.4135127,4.009099,12.342418,7.2918086,-6.7322,10.662255,-10.571244,9
b302b3b43d56f822ce496c2c,10.826947,14.461997,-1.0272763,7.0593033,4.6769485,12.658832,6.710319,-7.092079,11.649614,-10.36343,6
b37ce4fa957ed8f833b60531,10.205508,13.875705,-0.9124782,6.4674907,4.022827,12.1918,7.014423,-6.683371,11.13679,-9.62015,4
b3ceaf06bde221c3585707ed,10.298881,14.502754,-1.7773702,6.456926,4.3366113,12.667227,6.607164,-6.736811,10.749141,-10.46253,-1
b3ceba902551d1789b2bf8f4,10.7094,14.303848,-1.6627756,5.8807554,4.523294,12.825025,6.847492,-6.4532237,11.398678,-11.364023,0
b43b259e12f65d8c6171c706,11.036826,14.30885,-0.9213503,7.294889,4.9336295,12.614527,6.814825,-6.9520326,11.626109,-10.3564205,6
b4574c3d5c0b54558dadd9ed,9.78452,14.587484,-0.36767,6.4774947,4.114157,12.201716,7.385802,-6.6619086,10.644899,-10.303689,9
b4d02f1621917bbe72275d54,10.288428,14.792215,-1.0180221,6.1611347,4.304555,12.868138,7.0689,-6.86485,10.573389,-10.318689,-1
b4df73a7dfbba81bac507c82,11.357579,14.073081,-1.285943,6.30978,4.495372,13.804537,7.1617026,-6.3539195,11.74307,-10.393403,7
b59741b76e4246ffe7c95ca0,10.102004,14.701222,-0.8569817,6.043593,4.081491,12.899946,6.7321496,-6.393275,10.775078,-10.145664,-1
b5becb58da17afe0bdd95120,10.46885,14.192047,-1.1714857,7.0583367,4.7095284,12.587033,6.7208557,-6.960922,11.174996,-10.375374,-1
b5c1fd817eddee3760e259f3,10.910797,14.157687,-1.0038738,6.9583273,4.73412,12.98877,7.043326,-6.758977,11.62376,-10.379051,6
b668491c1fd9540a83d92bbf,10.609918,14.514395,-1.1172001,6.801157,4.603308,12.830279,7.1599436,-6.887997,11.10063,-9.729537,-1
b6aa8d567b5f6ad0daafd72a,10.842245,14.553293,-0.7185658,6.45647,4.7031393,12.920547,6.7635865,-6.5983324,11.420892,-10.398589,8
b764e826bf31da20cbd0cf2a,11.068073,14.368744,-1.2967153,6.7151885,4.656606,13.088535,6.693094,-6.6700954,11.721896,-10.318071,7
b7ee6e864cb28aba058c0c95,10.010465,14.751802,-1.0793021,6.0492177,4.021653,12.045971,6.620875,-6.6130257,10.916197,-10.027493,8
b8c2bdebcb323431007b6b20,10.675571,14.320244,-2.1894772,5.995734,4.002686,13.14423,6.9355874,-6.4017577,11.5769,-10.900923,0
b9184225d8422f5986bf1a9e,9.424796,14.6570835,-0.774863,6.4473505,4.6052475,12.35907,7.7077293,-6.4731245,11.272695,-9.897154,1
b93c54ab462c155ffae8b647,9.973915,14.220572,-0.98536867,6.675383,4.796226,12.706455,6.5001287,-6.7715707,10.886388,-10.445382,4
b9b0f19598977812933ad213,9.258769,14.51683,-1.34484,6.1278543,4.650992,12.3738,7.5683103,-6.2671742,10.990938,-9.746203,1
b9c0f1fae25857efd2c21004,9.946704,15.031326,-0.5923639,6.0012984,4.145347,12.070278,7.2344146,-6.738128,10.76582,-10.192463,8
ba0ac122777d3847259c9c10,9.884676,14.481998,-0.6931472,6.737237,4.799634,12.586346,6.405064,-6.60963,10.978479,-10.542997,4
bb4dedda66409d4f04a86ff0,10.372115,13.483895,-1.3016335,6.695486,4.42192,12.105434,6.799733,-6.3515635,10.828499,-9.844006,4
bb6044887738cdc714a3d591,9.007906,15.248701,0.012726489,6.2683,3.8646371,12.362832,7.0702887,-7.278605,10.079303,-10.894077,9
bb648c6953ff340da8e4cb53,10.020952,14.129556,-1.0789858,6.6833963,4.9096665,12.906449,6.462093,-6.898561,11.012075,-10.403525,4
bb6b60756cbcc7713e6f18dd,10.644373,14.362437,-1.1022273,6.407944,4.51896,12.795282,6.9690714,-6.454264,10.905941,-10.253846,-1
bc50ebedb08db3571fc1ec90,10.525041,14.2363,-1.4910626,6.0539804,4.4144735,12.4685955,7.113951,-6.716391,11.532306,-10.822658,-1
bcca6c716b79605485702c68,11.351356,14.222393,-1.5560467,6.2833667,4.64068,13.786278,7.031309,-6.2485003,11.928299,-10.345441,7
bd3f87b7ae2c24c8968327e1,9.036073,14.097603,-0.5442923,6.1082172,3.768349,12.432441,6.4657574,-7.375007,11.228982,-9.458847,3
bdd41d9426caa9865457a99c,9.777082,14.535823,-1.1113254,6.3657227,3.9785166,13.176518,7.2019553,-7.258865,11.73228,-10.493932,5
bde40aabd496b12dcc609440,9.837099,14.285644,-1.6126114,6.3657336,4.2936745,13.335118,7.238874,-7.4263186,12.176409,-10.297198,5
be074da4ab76d9b4d8fc0be7,10.184755,14.909233,-0.65680224,6.2440934,4.3677044,12.572947,7.1215606,-6.57508,10.366781,-10.4051075,9
be404a90e81fbc14bedf4da2,10.1118,14.375883,-1.1734236,6.4031334,3.8714125,13.228432,7.1318083,-7.1955733,11.2456255,-10.034086,-1
be45ad6d9933af11a87eeb6a,10.790066,14.678346,-0.6098219,6.3038054,4.4794636,12.683435,6.82649,-6.484461,11.251837,-10.372205,8
be473c5768f456d75f7eec58,9.891075,14.67809,-1.5909129,6.7165785,3.7936826,12.31934,6.921361,-6.614419,11.158709,-10.29016,8
bec8edba0151e6e74595eb77,9.454571,14.861918,-1.3728285,6.091961,3.9407694,12.377464,7.1344576,-6.243135,10.903584,-10.107165,8
bfe021d919473cad490ce29b,9.700104,15.171296,-1.1273504,6.2043686,4.2984753,12.622333,7.297269,-6.7958784,10.529223,-10.4755125,8
bff4eb1dc4b87f01232f42dd,9.84089,15.016676,-0.8139312,6.0705895,4.4311295,12.16448,7.3466644,-6.6913714,10.673697,-10.336836,8
c01db870d64043adbb604f18,9.579512,14.68984,-0.9374277,6.247145,4.0632024,12.96998,7.1700306,-7.1525745,11.46498,-10.592797,5
c01dee62280d5a79bad332a7,11.217559,14.203573,-1.4704896,6.5038333,4.416386,13.372212,7.2973003,-6.468386,11.745843,-10.214724,7
c0bb12f1b476d17d2e252380,8.970827,14.056438,-0.48687953,6.183718,3.7660785,11.986737,6.211536,-7.238149,10.895866,-9.159105,3
c0ccf738dce4207272c68a37,10.004072,14.184714,-1.378565,6.828555,4.2672706,12.077255,6.737634,-6.5244513,10.668525,-10.208743,-1
c11ecfb9e1afcaaad7c05b74,10.607671,13.809283,-1.2273635,6.2286997,4.6591325,14.169956,6.550862,-6.5224457,11.438199,-10.600904,-1
c1a104f20c8769cca23c6ac8,9.849416,14.538704,-0.56748354,6.7381887,4.754847,12.5237665,6.358647,-6.662427,10.963556,-10.572804,4
c1c76fa39976a97e68a29948,10.667326,14.672296,-0.3823114,6.1780996,4.2526217,12.396692,6.8233137,-6.5253553,11.13509,-10.235684,8
c1fdf3f2f10d30f67e79d820,10.163965,14.3517,-0.98232627,6.654484,4.4971657,12.193848,6.8186483,-7.2036443,11.14429,-9.674564,-1
c214d8da53d43d731cbce7dd,10.157277,14.869425,-0.6420238,6.412498,4.2630334,11.85571,6.972294,-6.826803,10.628705,-10.094898,8
c4a640aa2ea3b29c61936559,10.873447,14.199902,-1.9245446,6.423009,4.4548697,13.717267,6.7860637,-6.2356977,11.516047,-10.26828,7
c4eb201106b6da7916860527,10.515216,14.380271,-1.5218004,5.813938,4.3776155,12.530513,6.8951964,-6.4744406,11.283119,-11.467352,0
c5726d47e8183ea2e9c9cbf8,11.378458,14.403795,-1.0642105,6.1308985,4.353075,13.347288,6.9602237,-6.5102687,11.592009,-10.37798,7
c58583e798ce39284561c288,9.964376,14.048416,-1.7078243,6.7194963,4.014735,11.569614,7.2334094,-6.162419,11.161224,-9.499237,-1
c5cf4fe6160e53f1b9a52f93,9.647275,14.486311,-0.39095148,6.4577603,3.9497707,12.710236,7.4380126,-7.1208773,11.080436,-10.545923,-1
c5fadb32a8ccafa60fb7570d,10.660912,14.541119,-1.028807,6.0563555,4.4808197,12.750613,6.7481985,-6.6721225,10.888521,-10.20624,8
c63df9e2c0bedc9fccc4709a,10.843142,14.3309765,-1.6549759,5.8737698,4.5161295,12.748528,6.856239,-6.3543324,11.474649,-11.407185,0
c67c5e453d573f678f176ef6,10.822758,14.378628,-1.4124192,6.925738,4.8616695,12.7859,6.697619,-6.7399907,11.696965,-10.593061,7
c6e516de398650f6f34b723b,11.21502,14.263634,-1.4974831,6.2531986,4.449921,13.668147,7.013289,-6.6029196,12.02781,-10.423882,7
c77b2f69e1c2ed2a50fc931f,8.875105,14.000702,-0.46099472,6.131049,3.7584977,12.033228,6.159326,-7.2473526,10.892848,-9.071901,3
c7dd226cb221803ffc39a05d,11.03676,14.2947,-0.9008335,7.225514,4.749136,12.719868,6.949723,-7.0741,11.74312,-10.204321,6
c833ea9591df0188eefb841f,10.399754,13.426993,-1.311192,6.710282,4.381998,11.93529,6.766543,-6.305337,10.761366,-9.792272,4
c83b992a138bfb597f911c70,10.104739,15.056627,-0.8165334,5.9563956,4.1073794,11.9844475,7.1664886,-6.7556825,11.006156,-10.337257,8
c88f2e6c3f9eaed29c3f7a26,10.0881605,14.215718,-1.1704376,6.300626,4.1625094,13.5118065,7.0283203,-6.9601817,11.166827,-10.098835,-1
c90ffc0bb9d1a9da41fe1b9b,10.258064,14.505453,-1.7917794,6.481459,4.3323274,12.632053,6.5834727,-6.7808704,10.759833,-10.431664,-1
c9881d5cb92dc7a367164621,11.135647,14.064536,-1.1808023,6.3453507,4.341532,13.487049,6.813277,-6.5218477,12.07465,-10.002038,7
ca0e7ae784bf531032ba9160,8.907091,14.014115,-0.53769004,6.071835,3.8725722,12.139578,6.095498,-7.0788717,10.906194,-9.103918,3
ca5d7c65aff546cf509ea07e,10.111909,14.864593,-0.85922587,6.591676,3.5643957,9.85253,7.543967,-6.270944,11.197616,-8.09686,-1
cc40a4441623edd1a271928e,10.075364,14.738158,-0.6726127,6.583683,4.479842,11.869797,6.727254,-6.897455,10.84177,-9.991461,8
cc419dee368a57b72e69d8c9,11.436171,14.201678,-1.4069908,6.3529196,4.4895673,13.807326,7.040758,-6.37732,11.810913,-10.3783045,7
ccc782d8d816ce6801d77df4,10.307047,13.821757,-1.1375685,6.1791477,4.59997,14.156555,6.586075,-6.4686494,11.244876,-10.646845,-1
cd1567b0bdf056fe15c3a69b,9.49734,14.78361,-1.3511888,6.638798,3.810624,12.26814,7.1216054,-6.8600206,11.223328,-10.240696,8
ce2c0aa50cc208ef97ca06b8,10.539783,14.304146,-1.4457451,6.1498575,4.495914,13.737655,6.950775,-6.939854,11.219333,-10.281505,-1
ce6178a919a0f4f4334e4ed1,9.55846,14.734909,-1.2273909,7.217272,4.662709,11.784755,7.3493505,-5.8347363,11.014444,-10.157556,-1
cf16a4504f8d0c924545b40f,10.900491,14.6035795,-0.7611876,7.1252766,3.6037903,13.07999,7.0475154,-7.07824,11.763448,-10.536564,-1
cf5636eedee491ac1c923854,9.995664,14.879897,-1.2885836,6.976997,4.2810717,12.326642,6.498928,-6.795375,10.994652,-10.185689,8
cff5bb99da7c07bd27f27ee9,9.688877,14.47946,-1.0711242,6.4562545,4.1605487,11.97775,6.7505255,-7.109972,10.947421,-10.311356,-1
d30b4acd848054ed5dd3086e,11.253532,14.445472,-1.3759867,6.300581,4.5485253,13.374487,6.917684,-6.4997287,11.925122,-10.611632,7
d3411ea26ab7516c8e1b8e97,10.631227,14.402396,-1.458229,6.8846726,4.78589,12.728262,6.8954654,-6.697941,11.836131,-10.411067,-1
d383ec76eb3d5afacb00751b,10.124502,14.873424,-0.8578264,6.5625405,3.5626748,9.852989,7.55292,-6.264071,11.218334,-8.085802,-1
d3ae3e65ed1a72f71e454ee6,10.973347,14.446477,-0.9655118,7.257971,4.8736644,12.566758,6.6606555,-6.8071947,11.414848,-10.294321,6
d406d8a431c2adafe541e7a1,10.138351,14.888962,-0.842938,6.522387,3.5512524,9.877579,7.5658503,-6.252648,11.228508,-8.093102,-1
d4efb0fd202d90a7643ba193,10.132885,14.454611,-0.97073734,6.3410087,4.527346,13.026967,7.460185,-6.339783,11.18494,-10.069873,-1
d5fd9c334d8baf3e2798ad7c,9.098008,14.004243,-0.61636007,6.187094,4.059139,12.252532,6.2093487,-7.0813756,11.0066395,-9.212113,3
d6389e1f1cd997076043b0b3,9.696506,14.504538,-1.046613,6.4513407,4.1867976,11.9613695,6.729503,-7.07022,10.906286,-10.278931,3
d63d1c324ce925cdcb8e7670,9.25517,14.836899,-1.321075,5.890246,4.6803093,12.152461,7.54524,-6.1760025,10.836626,-9.743342,1
d6bb221bf5087ec3c3e3aa19,9.848339,14.018253,-0.92958444,6.318184,4.0764613,13.127556,7.011088,-6.8417397,11.201384,-10.090034,-1
d6dd8a533e48d16b1a1f25ec,11.446447,14.242498,-1.4559214,6.195434,4.6035542,13.776963,6.9058976,-6.4616604,12.016592,-10.181566,7
d77c27655cdce8c5c7dff269,8.332318,14.905196,-1.4431115,5.9822345,4.263698,12.825634,8.481627,-6.2176156,11.41413,-9.951997,2
d7e3ec7c2d6c42f0e1825ed9,9.824852,14.322091,-0.6297906,6.6207013,4.681945,12.744443,7.3725753,-6.7403445,11.612838,-10.077379,1
d87e0e59ba94123b4e0b7447,9.994932,15.14209,-1.7692212,6.083122,4.2048416,12.556601,6.8635607,-6.691835,10.695769,-10.620005,8
d8be34361f4c253de108ca38,9.530168,14.428824,-0.5553184,6.628077,4.2387614,13.068157,7.6705527,-7.1664624,11.546749,-10.712977,-1
d9631af872adeee080c059f0,9.954742,15.240712,-1.7278198,6.0367637,4.175918,12.546223,6.8930087,-6.7134495,10.665066,-10.571114,8
d9731de596334f5c1e46d842,9.7245035,14.335879,-0.73768073,6.564706,4.759802,12.650709,7.3588533,-6.698014,11.617833,-9.972455,1
d9983e676090b500b47cee6d,10.683821,14.145204,-1.1239091,6.7891736,4.707192,12.876507,7.1438184,-6.5090575,11.228866,-10.536405,-1
da6a29d280834f9c6ee19a67,9.429865,14.556363,-0.740454,6.484752,4.1856184,12.465831,7.630603,-7.191734,11.202183,-10.535144,-1
dabc2a9dd734d740e7742a5e,9.7747345,15.372957,-1.5881519,5.910897,4.129748,12.595304,7.0792184,-6.616036,10.808486,-10.777921,8
db18b269679ac086fbc37ef1,10.87319,13.894463,-1.3580126,6.1786156,4.6151443,14.099163,6.6720786,-6.37828,11.583904,-10.491277,-1
dbaeb2a7f13e1698a537a593,11.476361,14.071257,-1.5006752,6.32334,4.50007,13.548981,7.020391,-6.3698688,11.666679,-10.201201,7
dc2397bbac7b4aea4c34039b,10.217899,13.671932,-1.1387541,6.573464,4.2084904,11.903,6.9929748,-6.4524465,10.98659,-9.664002,4
dcc4732e972778911f6105c9,9.497038,14.111638,-1.1812003,6.664143,4.556729,12.517512,7.0842423,-6.6147966,10.552655,-9.908951,4
dcc8db2d4c3c6a951563e38b,10.3317585,14.319556,-1.0236654,6.6791883,4.8182125,12.597902,6.6050596,-6.9701753,10.736042,-10.296761,4
dce850febbeff81bb1bad8e3,9.917793,14.726176,-1.620776,6.049152,4.479632,13.231555,7.544286,-6.2396445,11.163487,-10.029715,-1
dd29fb8a5447b033619799f8,10.4108095,14.873721,-0.8849021,6.481108,4.361877,12.174849,6.6395097,-7.074877,10.958757,-9.970437,8
dd3e27e36663ee547f7d666f,9.961372,14.628822,-0.94219595,5.9846873,4.1884327,12.118488,6.5323563,-6.6807995,10.730634,-10.421758,8
dd52dfd7c241b2553027132c,10.243787,14.748772,-0.3366708,6.234629,4.265455,12.047756,6.7429457,-6.713604,10.762304,-10.308701,8
dd9f3fb1588efc32a5d9e226,10.721593,14.270136,-0.91584724,6.9676614,4.866917,12.779598,6.9234014,-7.298653,11.37596,-10.241278,6
dde609c87eb9a91f787cd9b7,9.715631,15.397342,-1.5475283,5.902756,4.1038957,12.59378,7.0832376,-6.6651206,10.794653,-10.82269,8
ddf22f9121c41abba209b2a3,10.782984,14.267001,-0.71969295,6.9185033,4.429019,12.397379,7.0077186,-6.8634543,11.107673,-10.21978,6
de6a4677f03a2d16f2cc3812,11.016455,14.156894,-1.5505712,6.321375,4.6643353,13.446894,7.238734,-6.1941915,11.804044,-10.353041,7
de7aaf2c9f7414fb13f28a5c,10.055884,14.271545,-1.592714,6.4187493,4.7490172,13.173531,7.483137,-6.167864,11.281651,-9.885286,-1
deb1336dff1a746c0b61afe9,9.870432,14.300735,-1.6641234,6.3109355,4.1828003,13.415885,7.3665776,-7.446026,12.293867,-10.290115,5
dff9d314c015ce6d30c0dd04,10.496441,14.634544,-1.0750886,6.9758096,4.528331,12.477289,6.6460495,-7.0251417,11.546493,-10.480013,-1
e013fdc2c8a7e74a2953ab71,10.466105,13.844867,-1.2891473,6.2133327,4.6731443,14.034276,6.5367846,-6.472647,11.330635,-10.543488,-1
e028d748a5aeff474e8e3295,11.4505825,14.265146,-1.5730052,6.4316688,4.6746287,13.681315,7.143293,-6.3270254,11.826845,-10.218877,7
e05242d54b1cfc97d5c5adb6,10.897208,14.237502,-1.2915595,6.547802,4.7907777,13.136199,6.6927853,-6.7837033,11.237434,-10.178698,7
e0fb123b298d5b87eaa3049b,10.869713,14.249442,-1.436987,6.9501705,5.007233,12.84549,6.5384254,-6.6637683,11.470341,-10.712021,7
e13b0dcbbf047c18a535f2f8,9.079223,14.68411,-0.7250064,6.4456363,4.348321,12.4994,7.900804,-6.725617,11.273945,-10.095391,1
e1406e2492d41a92603e9aeb,10.884474,14.235585,-1.6781548,6.1855407,4.4245515,13.519224,7.340074,-6.4746556,11.939524,-10.288458,7
e1c3940b8e4f362bbea941bc,10.151475,14.720042,-1.0560724,6.9812255,3.7935,12.716166,7.054841,-6.8596416,10.919308,-10.345019,-1
e1eac3c6f5e113542591bdce,10.550222,14.579314,-0.99015534,6.2436056,4.345684,13.3369255,6.8818793,-6.6481442,11.033883,-10.134111,-1
e38c3b159e422644988cc412,11.352134,14.146426,-1.5139636,6.539121,4.7911506,13.227215,6.858746,-6.5176473,11.820158,-10.5176115,7
e3b1f8369224bb175f41f341,10.075077,14.824491,-0.9052236,6.6182723,3.6085262,9.843943,7.5044527,-6.3167143,11.168221,-8.115124,-1
e3fb4d8e0cd9c9f7d48c1226,10.632536,14.307829,-1.5334011,5.814085,4.4029098,12.500817,6.9117107,-6.5152006,11.363053,-11.427773,0
e40affb6ce85ab7bca8670f8,9.250427,14.687698,-1.0109634,6.539093,4.705749,12.347965,7.8028154,-6.241965,11.285462,-9.85031,1
e41c8576e3eaaa7de33635b9,10.71046,14.617387,-0.747901,7.0168667,3.4155529,13.110071,7.053256,-7.0777583,11.685167,-10.553819,-1
e4acdc98a3e3bf172c422762,9.726535,14.577648,-1.6320709,6.3905625,4.3536277,12.861253,7.567806,-6.4256024,11.4044075,-9.9374,-1
e51cf3717394162d7842a1b8,11.420152,14.430476,-1.433162,6.6575766,4.641443,13.397224,7.0288677,-6.300286,11.828674,-10.329989,7
e5cbf55c4087b785fe7c5805,10.117221,13.711665,-1.0744796,6.5706406,4.4528503,12.389247,6.8367033,-6.5061603,10.699661,-9.820971,4
e5d28b39570b46ead1ff1529,10.150477,14.289455,-0.5386781,6.345234,3.8315213,12.003115,6.9385433,-6.7721457,11.335525,-9.448875,4
e5d47142b4a6b678fac58613,9.443901,13.909212,-0.9717024,6.3495398,4.5865655,12.70376,6.172605,-7.0046577,11.193425,-9.506027,3
e6b65097415e0724c1a7e7de,9.170823,14.761327,-0.9873952,6.517963,4.623642,12.315888,7.920732,-6.307245,11.3207035,-9.791901,1
e7d0d11ed9dae9c0fa988762,10.09101,14.470569,-1.6150489,6.15245,4.444174,13.330185,7.6708245,-6.2756352,11.654629,-10.133746,-1
e8d08736f39614065c97173e,10.138385,14.377592,-0.8265229,6.3649936,3.6769779,12.625881,7.175485,-7.1678247,11.358753,-10.005166,-1
e910cb87e59819545daed1b7,9.972238,13.950959,-0.92149794,6.2856727,3.76674,12.463872,7.200124,-6.6920333,11.676967,-11.067214,-1
e961668afc0d5bcd83709b46,9.886678,14.14771,-1.6413658,6.636966,4.068873,11.522338,7.330847,-6.2126584,11.118662,-9.417858,-1
ea01555d61ada7be09b897c0,11.140242,14.11935,-1.0004454,6.626864,4.3261337,13.419263,6.907618,-6.720864,11.999733,-10.256903,7
ea9dfad819de1894b2705f69,10.4418955,14.3248415,-1.4181409,6.582116,4.5532064,12.658836,7.262788,-6.956823,11.885734,-10.280476,5
eae546cb7ba55c8f5f110ade,9.550861,15.171762,-0.9883917,6.175869,4.340979,12.391317,7.5166354,-6.9225254,10.746302,-10.398882,8
ebadeca6a2a93f8c23e39f83,10.820975,14.279366,-1.5531969,6.851176,4.934638,12.795057,6.5054393,-6.6375117,11.411339,-10.825586,7
ec7034a46736c2fd8a478898,9.63123,14.637661,-0.43372732,6.539639,4.146922,12.143926,7.492104,-6.620806,10.688896,-10.400707,9
ed1e44cc60f670c0d323ec7e,10.200993,14.953103,-0.78290325,6.514981,3.4876683,9.82782,7.628516,-6.193646,11.274604,-8.042479,-1
ede3823d691c16ffd992e5e7,10.496436,14.4403305,-0.6153537,6.9401746,4.6361723,12.527296,7.3406177,-7.0327253,11.273715,-10.238808,6
ee48bc5a36c60d0e8abbc5cb,10.672658,14.362886,-1.7160978,5.781039,4.429657,12.645386,6.870888,-6.377178,11.383171,-11.517486,0
ee89feb65e4468e7e7609394,8.905063,14.78262,-1.1819177,6.267673,4.3539834,12.762305,7.967617,-6.447219,11.278225,-9.95302,1
eea4abb7b5c148a2e8fb5cdf,10.864269,14.321888,-1.664439,5.856909,4.4912615,12.764528,6.8688216,-6.348673,11.482357,-11.40085,0
eea7ef8e34095d69dd47a83d,11.554004,14.300012,-1.5215882,6.546832,4.738442,13.507214,6.993034,-6.291496,11.765629,-10.397118,7
eee8b2827b1fff78d92491b4,9.914833,14.662411,-1.3317734,7.203602,4.427211,11.864844,7.2922416,-6.017081,11.239385,-10.1069145,-1
efdc3e165d9d80d9e0fe453b,9.285059,14.199655,-1.377852,6.6933312,4.3067336,12.470938,6.8993473,-6.601587,10.344545,-10.24474,4
efe377ca78400cbb0aecccc3,9.326097,14.507834,-0.5003459,6.5848055,4.184903,12.636541,7.794935,-7.1927786,11.331736,-10.536444,-1
f027a3b3e2e241e1868c9df2,9.952999,14.895957,-1.2986735,6.98638,3.9881577,12.205759,6.673787,-6.7152147,11.086969,-10.211902,8
f04c3749b111986b008c2d75,9.553445,14.428151,-0.5635501,6.633909,4.2303586,13.0599,7.662762,-7.1634436,11.552015,-10.69757,-1
f0c600d507fd638230a43d95,11.060156,14.233938,-1.6291566,6.24903,4.4923635,13.640888,7.4004536,-6.3760686,12.011926,-10.299532,7
f12d5484e4ed0ed08e9acb43,8.903326,15.290226,-0.08068365,6.306552,3.9369464,12.442009,7.158044,-7.221617,10.038604,-10.94881,9
f1459d09a152426572a6760a,9.464701,14.240702,-1.1009321,6.682401,4.5407476,12.503354,7.2794733,-6.522683,10.58922,-9.902889,4
f1b6ae3cc2cecda824272d6d,11.203431,14.20791,-1.3110446,6.795575,4.761761,13.202608,6.5434203,-6.7275114,11.762014,-10.432064,7
f2c051304bc68b72ea62ceef,9.364915,15.113739,-0.40242016,6.399878,4.0824285,12.349188,7.0418344,-7.1255174,10.181498,-10.838208,9
f3aec04694023d923d5085fe,10.30795,14.409034,-0.59446543,6.675234,4.438591,12.521561,6.2588906,-6.954324,11.063304,-10.570978,-1
f3bd93fc933a9d5f02d21ad5,9.959525,14.884839,-1.4350419,6.2757783,3.984684,12.286819,6.497856,-6.897546,10.773057,-10.2088995,-1
f3bdda11b71a3079e7e567ad,11.026402,14.318051,-0.9869263,7.100784,4.6292562,12.667028,6.8578315,-7.0840793,11.423943,-10.011906,6
f4070dda9e1526c480a033d9,10.309948,13.519625,-1.3084692,6.7524734,4.408031,11.984026,6.7951655,-6.3623233,10.713964,-9.888501,4
f4640002bffd7c03386b5708,11.219682,14.087055,-1.5899986,6.1967907,4.644681,13.939846,6.955865,-6.3481026,11.885422,-10.446833,7
f557b6b1f6a1724262571a25,11.507829,14.149267,-1.487195,6.46055,4.6559277,13.456987,6.8759604,-6.3834004,11.853362,-10.448291,7
f56129a9c9f39d2a44dda793,10.751244,14.731949,-0.955928,6.3341475,4.125758,12.71074,6.69759,-6.3966446,11.274482,-10.737037,8
f58a1ab0775fd18d122bc182,11.274435,14.608965,-1.2341752,6.488563,4.6129904,13.073292,6.977088,-6.3248076,11.516078,-10.266824,7
f5d222a71eb09ba6fc1a5af0,11.108981,13.983984,-1.5304066,6.280898,4.566027,13.800351,6.964421,-6.2228303,11.89542,-10.406858,7
f5ef3aea98251f8fde0ef09b,10.923403,14.290842,-1.3206133,6.150115,4.5416613,13.61538,6.574463,-6.5614448,11.484656,-9.831606,-1
f6527d600291e4e3a160c9f5,9.160133,14.012098,-0.5818523,6.137346,3.9694054,12.291681,6.082526,-7.0961285,11.042898,-9.116619,3
f676186534fb321177a0e37d,8.896005,14.104628,-0.43803588,6.101621,3.818387,11.970385,6.134214,-7.232689,10.908028,-9.089312,3
f6cfee132bd0377c8d8bfb99,11.334184,14.070727,-1.5224016,6.4956036,4.6745095,13.271933,6.95673,-6.5525956,11.829628,-10.444691,7
f6f61459e6899f536f7789ec,9.162805,14.739863,-0.936221,6.4446397,4.626377,12.404939,7.897177,-6.363595,11.309771,-9.832388,1
f85186dab29930bf710d4f60,10.64338,14.29097,-1.4780266,5.7293687,4.3475256,12.688051,6.858388,-6.4119663,11.243052,-11.46625,0
f8f5a21a3e41d81d3fe48fb4,10.460205,13.431598,-1.2641027,6.7454357,4.2684073,11.962771,6.8181434,-6.2809315,10.892521,-9.796714,4
f8f61ee86ff7710f3e39d277,10.031445,14.0224495,-1.7555583,6.738909,4.0237823,11.636757,7.209826,-6.138467,11.211943,-9.547828,-1
f95e2372d61313938ac6d497,8.946052,15.28632,-0.032465506,6.271084,3.9030168,12.394918,7.1100225,-7.266123,10.012455,-10.922895,9
f9e094a28fd098ded27a16f3,10.753716,14.25377,-1.4512922,5.7399697,4.2291846,12.503503,6.909579,-6.457125,11.281493,-11.468689,0
fa6f1467cf7fc0172b5dd417,9.96129,14.58077,-0.6904231,6.581939,4.6271186,12.796173,7.182813,-6.481219,10.694817,-10.440817,-1
fb0553592799eae0ee289096,11.630334,14.239054,-1.5478514,6.2686167,4.592283,13.5230665,6.8956623,-6.3145437,11.895132,-10.320654,7
fb5fbbbaa47a249d36fe16e7,10.272139,14.069394,-1.4891696,6.242367,4.651542,13.560364,6.73052,-6.479774,11.141173,-10.464365,-1
fb9bc2d4364c661d7599f2aa,8.2510605,15.057492,-1.3411431,5.9127717,4.1594615,12.785829,8.496783,-6.040329,11.522009,-9.960726,2
fbbd18bb8ddc3c357de5db0a,9.313797,15.314274,-0.24339981,6.2656937,4.083264,12.279194,7.130402,-7.091337,10.105817,-10.735439,9
fc0e6a7e51e91c3ce645a34f,10.411219,14.705898,-0.24321152,6.1639867,4.1553683,12.13713,6.880589,-6.6470695,10.985684,-10.086242,8
fccb4b2587094540839ba64f,9.09697,14.814438,-0.7906425,6.3880157,4.400528,12.573917,7.8823595,-6.693846,11.233148,-10.16967,1
fd271f19ae2be707869dba40,10.024454,14.0393,-1.3168864,6.284847,4.5528755,13.661036,6.7293806,-6.539059,11.199626,-10.407145,-1
fd32394059db7da548573e77,9.818215,14.608027,-0.3954431,6.258504,3.6058083,11.961508,7.236391,-6.6132083,10.758577,-10.431263,9
fd401485e28e412400d6b5aa,9.39609,14.285236,-1.114939,6.570821,4.4558444,12.590488,7.341199,-6.517404,10.64856,-9.913232,4
fe044b1776946389cb2ee0f5,8.923951,13.935229,-0.55220675,6.190221,3.877876,12.343013,6.2180333,-7.0731006,11.008989,-9.090765,3
fe1b80d94e9f24059291ac58,8.874532,15.319703,-0.01632289,6.2412496,3.8681073,12.423644,7.1837025,-7.276632,10.032684,-10.969233,9
fe5d2a8c566dcc20cd497415,10.707027,14.450424,-1.6742542,5.9946585,4.6123104,12.67174,6.710931,-6.3573313,11.441716,-11.461769,0
ff0a2c96172c9d89244520ac,9.293895,14.24558,-1.3607311,6.64104,4.2617884,12.481294,6.907096,-6.616812,10.372541,-10.2461405,4
ff0f75f81581e8a920b24e2a,10.611684,14.644138,-0.7381378,7.0393143,3.3812842,13.050735,7.104151,-7.12703,11.62871,-10.502629,-1
ff85ab956c2363f29ad06025,10.231316,14.440497,-1.2654,5.8947268,4.246097,12.456211,7.03325,-6.6789536,11.111145,-11.293933,0
ffc52f8702256792489186c3,10.803879,14.721597,-1.1219146,6.308335,4.20889,12.739823,6.6098986,-6.370025,11.346623,-10.812929,8
