doc_id,u0,u1,u2,u3,u4,u5,u6,u7,u8,u9,topic_cluster
00381fa51e0b1554bcc0b7ce,5.940452,12.652895,-0.36063966,-5.410574,-1.2229565,8.461665,10.728661,-3.8555622,8.752915,4.4888062,-1
003b6e650703ad5ad6a2b642,5.737077,12.583901,0.5289128,-5.3396997,-1.8952287,9.051374,9.644752,-3.0048501,8.741423,3.8460014,0
004a95da3750c87df7fba0e2,5.8107443,13.269543,-0.5197027,-5.0085588,-0.60691994,7.956489,10.841379,-4.4650464,9.370756,4.334246,4
006731098812453a458f3f48,5.705382,12.860356,-0.7367349,-5.4116626,-1.2790834,8.597146,10.891368,-3.0608735,9.009594,4.0344462,-1
006fb75fadf8cd1a33dd26c2,5.610241,12.76504,-0.34905335,-5.3312817,-1.2640711,8.250144,10.542176,-3.9395878,8.828117,4.483231,-1
008d3899a8e637c530fd58a6,5.257921,12.827592,-0.36477485,-5.101207,-1.634124,7.88395,11.410398,-3.3895063,8.370561,4.806325,4
00ac7ef1e265dcb355c20b4b,5.592565,13.052178,0.20352747,-5.15448,-1.1272001,8.983945,10.7157345,-3.1612408,8.374782,4.7565546,-1
00c79b6c3748fe2e1855dd6e,5.6706214,12.994963,-0.36693358,-5.4983625,-0.7165549,8.492339,10.748945,-3.2454188,9.31661,4.2770443,-1
017548042d248c41a51c73f7,6.183366,13.072487,-0.62214845,-5.268223,-1.326552,8.310795,10.70071,-3.2545488,9.007106,4.1370325,-1
01885aa226191ed0a174254f,5.3348517,12.954627,-0.67632025,-4.9510903,-1.2165517,8.448816,10.528966,-3.4417808,9.261031,4.1318626,4
027ff668a0c84dd9c7dfe8fc,6.5829525,12.831454,-1.1186672,-5.159069,-0.79777026,8.489023,10.969538,-3.1488948,9.244933,3.8256903,5
02926b4bbdc48603a6e7c408,5.9295654,13.112866,-0.60588646,-5.546371,-1.0225488,8.227099,10.779192,-3.2314293,9.269544,4.001696,-1
02e3aa63a6df84f88e76582b,5.313871,12.935322,-0.46245664,-5.38171,-1.0636625,8.255675,10.402027,-3.7566807,8.578062,4.762768,-1
02e72c8e99717bf0552ed4e9,5.8489823,13.0182295,-0.5573185,-5.1212926,-0.8014196,7.9409904,10.920326,-4.3700285,9.302466,4.3555593,4
03e9d42640388ef958b52ecf,5.7800827,13.108594,0.12804593,-5.601156,-1.2567321,8.18756,10.382998,-3.1230035,8.891051,4.7559395,-1
03f4e64ea6e59ce27617e911,5.6170297,13.187271,-0.30929077,-5.7170863,-1.2762595,8.4068165,10.320457,-3.048842,9.05549,4.485835,-1
047d4498c5f0e51405687467,5.0357165,12.872018,-0.24127296,-5.587202,-1.566773,8.298158,10.225579,-2.6961522,8.654659,4.7781363,-1
04bc1aeaf258ad0407c5140e,4.9962606,13.032975,-0.6541912,-4.9267845,-1.3630581,8.333089,10.668133,-3.2492828,9.166922,4.1964607,4
05a1aea8b9ae0c5fcd1c5c1f,5.19411,12.573604,-0.24096769,-5.108253,-1.4652919,7.891094,11.411008,-3.6164927,8.411295,4.9077625,4
05ed24c56d4c00e5d2c5d924,5.619997,12.517411,0.5721461,-5.431411,-1.9021375,9.042937,9.636925,-2.986734,8.783833,3.8637624,0
0666395a6db8ae0561c3dac7,5.0266943,13.0053625,0.088936314,-5.613964,-0.8557777,8.63939,10.33672,-4.1646366,8.500216,4.832647,3
06eeb13c6ced9a6fc6b468b5,4.342237,13.87346,-0.011499174,-5.3344307,-2.3310173,8.487956,10.167588,-2.5517793,7.9526687,4.9557357,2
07107fba7b0e90becab79181,5.18823,13.071571,-0.25615793,-5.1283183,-1.7414191,7.995937,11.234968,-3.2419438,8.312004,4.8060303,4
07a0cfb6429e34277df6f775,5.8270183,13.233265,-0.5982617,-5.513264,-1.1111684,8.228584,10.811263,-3.335599,9.28615,4.069357,-1
08ff15e9139ff319a600e333,5.6106815,12.938667,-0.0025787961,-5.8861475,-1.2381668,8.515344,10.390651,-3.6976411,8.628276,4.374196,-1
095d9cca2ea17ff6774b1b71,4.5867496,13.264311,-0.19241038,-5.56361,-1.9079686,8.237289,9.948414,-2.2198467,8.449444,4.944265,2
09b0df9406191ebd58cd8f38,5.2437563,12.279343,-0.18760687,-5.271363,-0.96489763,7.9310246,11.341245,-4.0165043,8.672084,4.968595,3
0a02ccdd2f0f23b086f0dcad,5.2637615,13.1648445,-0.18742621,-5.3271093,-1.1073456,8.106251,10.573189,-3.9828675,8.943917,4.4233637,-1
0a05b429672bf8dae04e4496,4.7087154,13.080223,0.08251853,-5.3649263,-1.8801723,8.521568,10.145661,-3.1290095,8.187652,5.2541785,2
0a412768ae4948b48e52fb29,5.1092277,13.268314,-0.10063453,-5.4786806,-1.856759,8.111389,10.604485,-2.8556507,8.207603,4.8805118,2
0b022c6849451978a0978298,5.4482117,12.414638,-0.43784514,-5.427093,-1.15263,8.179958,11.074881,-3.6174476,8.8700075,4.7758245,3
0b0976cffa672b9bfaf28ca0,5.7060566,13.15266,-0.4666058,-5.1067934,-0.84519356,8.803194,10.203228,-2.847334,8.8968115,4.3388586,-1
0b5ec6d10137c8805078f9d7,5.6298814,12.638326,0.29573634,-5.320564,-1.9308102,8.661187,9.917253,-2.9093966,8.745479,3.9957967,0
0b8d0ef7f51c4b00ee75b62e,5.1803794,12.688731,0.33098137,-5.5210085,-0.90809464,8.543817,10.306756,-4.1793146,8.655869,4.6829734,3
0b9f37f09e29fff4575f45d7,5.709747,12.572683,0.51874566,-5.367283,-1.8739964,9.0299,9.6451845,-2.9975495,8.743968,3.889481,0
0bd72840712b429899d7cce8,5.443544,12.766234,-0.2601181,-5.3923492,-1.6089802,8.225794,10.841835,-3.5645761,8.744468,4.780334,-1
0bdb2b94cd436855e162bc51,5.160159,13.282949,-0.76376957,-4.904888,-1.3296847,8.473863,10.537523,-3.5270343,9.209937,4.1654515,4
0ca73929b1a1585de7a58aaf,5.958713,12.615332,-0.48011786,-5.451988,-1.0837301,8.204798,10.94357,-3.7450328,9.0068035,4.342699,-1
0d053deafd1a2c8ac5090bf9,4.3293033,13.3087015,-0.32698488,-5.3339553,-1.9215814,8.190405,10.460168,-2.5762281,8.217762,5.089711,-1
0d62599caaafc02a7f4786fe,5.019247,13.211838,-0.023245718,-5.428073,-0.5852491,8.729702,10.570452,-3.9837372,9.126677,5.057657,1
0d6c831df3d52acf90bd8ec1,5.8012633,12.97877,-0.29560256,-5.3560658,-1.0117255,8.968218,10.466898,-3.614327,8.971303,4.8611484,-1
0d95db7aca380d277ad84a5f,5.5299783,12.891833,0.23850082,-4.8890076,-0.9108076,9.002199,10.302183,-3.7792811,9.067196,5.1153593,1
0e12db953fc083db5e0767df,5.3272347,13.368715,-0.3764801,-5.050887,-1.6042752,8.640941,11.085247,-3.08162,8.633775,4.1656833,-1
0e447a94284667edb916312c,5.484846,12.889696,-0.44967958,-5.4385943,-1.412388,8.015463,11.120367,-3.2993827,8.625579,4.4363437,-1
0e624bd11740e837cd8bdfcf,5.144515,13.023409,-0.32209465,-4.704073,-1.0931916,8.456139,10.642379,-3.152163,8.941504,4.2275004,4
0e641c4cbf67246c965e38e4,5.226812,12.759985,-0.34790036,-5.2456627,-1.4288353,7.8991857,11.337713,-3.5226479,8.463144,4.674542,4
0e8a778b1add3f64e1b1adac,5.36596,13.314304,-0.22146079,-4.7696624,-1.1337637,8.704837,10.867104,-3.339677,9.067269,4.5317903,-1
0ea823ed9dd9bdddcc48171b,5.3126736,13.484176,-0.34734574,-5.1831126,-1.7095822,8.1930275,10.977679,-3.0200422,8.432094,4.4880314,4
0eeff2b67d034ef44f95764b,4.5422745,13.087423,0.2858653,-5.495656,-1.6319575,8.513936,10.2072525,-3.1485887,8.319262,4.4428606,-1
0f1375884bdc17a024a52f43,5.1747923,12.527371,0.26678875,-5.5117188,-0.7775477,8.466638,10.253219,-4.204042,8.737937,4.719448,3
0f1e6f3a8f38ef2322bdad85,5.150606,13.28403,-0.19611259,-5.0662203,-1.7515659,8.165781,10.988605,-3.128073,8.360949,4.8222923,4
0f31f4869d1f5d9e150568b3,5.761522,13.170336,-0.63168204,-5.1108093,-0.72809374,8.633509,10.202488,-3.2115831,8.94229,4.500118,-1
0f4d3ab102c28973d59a9a56,4.6005883,12.931974,0.6290132,-5.539602,-1.4137845,8.889863,9.900761,-4.031699,8.249665,4.8219585,-1
0f8f56f9eb5b2f41f83d1d0b,5.1527042,12.683825,-0.2901915,-5.10294,-1.533451,7.8507295,11.423802,-3.5080798,8.348231,4.8642335,4
0fa58c117a2ed5d8b1feebca,5.5653534,13.032291,-0.42117387,-5.256018,-0.76573396,8.677776,9.955933,-3.4029198,8.8502035,4.446816,-1
0fc0dd43c48791d8abadbadb,4.565962,13.428949,-0.12081898,-5.4114947,-2.0587413,8.326133,10.119098,-2.5673833,8.2517185,5.0534286,2
0fe2fa37e650802c0d276aad,4.883256,13.683317,0.7471644,-4.8305364,-2.258698,9.478745,9.154104,-3.6745284,7.9298606,4.926804,-1
0ff9a2df99641d91f0ca5636,5.7674723,13.498637,-0.24900733,-4.6285453,-1.1645925,8.7312,9.9111595,-2.7731295,8.739949,4.304774,-1
103f367dbb977283f0be5497,4.2734704,13.723615,-0.11336073,-5.2206564,-2.0771167,8.505042,9.979624,-2.656289,8.237266,5.02869,2
105a4f1a7c1a6109e96b5719,5.3022346,13.103129,-0.009358778,-4.9555535,-0.95605826,8.892137,10.157937,-2.9604194,8.359036,4.839054,-1
10d300057ac9b54aac265051,5.4182954,13.172167,-0.119058065,-5.40967,-1.0130807,8.354113,10.720581,-2.6886141,8.848987,4.298233,-1
10fa669e5b637d8ec05b08ee,5.791808,12.958696,-0.07387941,-5.7158394,-1.4382458,8.016174,10.791615,-3.3319774,8.888895,4.5211487,-1
10ffd9de5e0245e8c6a23e46,5.1105247,13.483894,-0.11936632,-5.3417172,-0.3721183,8.952244,10.684499,-3.91675,9.336151,5.141837,1
11a420b1ae09808d64d32948,5.3464656,13.142443,0.13149418,-5.0176525,-1.7587329,8.726898,10.135439,-3.162507,8.637076,4.64062,-1
11ded4c33c991e51f2c6e06b,6.0956917,12.510419,-0.6070841,-5.4234924,-0.8837314,8.105673,11.047438,-3.6768029,9.087708,4.2671337,-1
12112fc0567e57880eebfd4e,4.8305798,12.465922,0.41775024,-5.2562494,-1.5351561,8.563782,9.9144745,-3.5229385,8.734536,4.8597207,2
125863fa50e12f70e02edae3,5.418207,12.816254,0.16150172,-4.804978,-1.0140449,8.045047,10.04756,-3.3380687,8.734563,4.843543,-1
1261a97c4cb5cd5c757b7e6a,4.2328525,13.843058,0.01883721,-5.339822,-2.270234,8.474968,10.081254,-2.589416,7.958805,4.981853,2
1280670923a8c59344c891a1,4.933205,12.592925,0.36464676,-5.361145,-1.7890595,8.844293,10.061474,-3.4319458,8.690305,4.54101,2
12e28ef29479937712d19ccc,4.729559,13.407654,0.09018575,-5.118696,-0.9606121,8.576004,10.372083,-3.0969913,8.772025,4.0586433,-1
1368a324bc5ac96ee4cc4698,5.197495,12.863513,0.19393797,-4.7525926,-1.3680522,8.625536,10.332656,-3.5451179,8.278601,4.6842203,-1
13ecc519762220a37259d248,5.084392,13.006332,-0.5856619,-5.3690844,-1.2326728,8.330982,10.309171,-2.456075,9.147582,4.402796,-1
14a4c614197d32ecf627abbc,5.0586567,13.477425,-0.51682335,-4.803974,-1.3084285,8.40971,9.864793,-3.6137705,9.150528,4.625328,4
14b9eb5937290a265c8e08c8,5.1978455,12.505983,0.107477136,-5.586347,-0.8765221,8.44669,10.390489,-4.205261,8.637782,4.9152975,3
14c258e71c0db763f21dfdd9,5.2237215,13.236158,-0.6653466,-4.854319,-1.1672679,8.493477,10.464617,-3.6509476,9.292469,4.2356267,4
14eca06b9255344a66adb31d,5.768613,12.273301,-0.3632115,-5.441388,-0.9313796,8.068321,11.061266,-3.907348,9.042253,4.546823,3
14ee23726f05210e024b6968,4.380482,13.735037,-0.03172237,-5.218318,-2.0257816,8.588713,9.927213,-2.7612004,8.216948,4.994644,2
15697556a71dbe62f9b88baa,4.3032904,14.104297,-0.15165064,-5.0909286,-2.2844193,8.652495,10.083687,-2.6059074,8.177491,4.749782,2
159ecabb5a99122bbfabd96f,4.9726324,13.846729,-0.60606104,-4.886535,-1.4208658,8.478371,10.617305,-2.9987879,9.022132,4.1586943,4
15b6a9b5d20a4e5ec4c8ff52,5.717232,12.247156,-0.31677157,-5.430391,-0.94918925,8.065529,11.07424,-3.940982,8.989249,4.5966997,3
15df993f41a6b2420b141e97,4.442347,13.410965,-0.044750173,-5.3603997,-2.0678039,8.428954,10.06851,-2.6837718,8.169936,5.1227427,2
1689ddb046d60cd71392fcb2,5.874478,12.491378,-0.83766603,-5.551965,-1.2117244,8.245651,11.068367,-3.2367334,9.053444,4.304141,-1
1694b57348ac55c5b006158e,6.025456,12.786118,0.026533429,-4.603165,-1.3009185,9.169562,9.853629,-3.2581615,8.519885,4.2470684,-1
16a23d541b0e965c682657cb,4.9481835,12.909262,0.05577753,-4.9782443,-1.6528126,8.87315,10.0023985,-3.640156,8.775607,4.7343082,2
16cad9f9de6be967063b549a,4.7940354,13.301449,-0.031552486,-5.389098,-1.9797884,8.130743,10.198774,-2.7347028,8.185358,5.0737104,2
172ff420a2017685a2964cec,5.6703515,13.211767,0.09354031,-5.4753833,-1.2674575,8.815903,10.206579,-3.071822,9.049478,3.8404968,-1
179c7b7e54419e28377d058f,5.769151,13.515911,-0.25237355,-4.595767,-1.1009955,8.721458,9.963115,-2.7910433,8.686683,4.319727,-1
17e29d30e10f8bf99b3606a5,5.4250865,12.638411,-0.3404186,-5.397987,-0.425687,8.547925,10.805394,-4.082863,8.528035,5.032874,-1
180000d5dbcba15c22848825,4.376379,13.807955,-0.004759285,-5.403644,-2.3195395,8.442719,10.134664,-2.5149841,7.9253387,5.017393,2
18020c0dd86dd885c736b7bc,5.534833,13.268938,0.12574433,-4.783994,-0.6374923,9.214331,10.417878,-3.6265278,9.305462,4.955795,1
1832728fd82c847a43055e08,4.9778147,12.468143,0.47390777,-5.2397046,-1.1227251,8.520431,9.968093,-3.6871347,8.820298,4.8955164,-1
18793ad6bd13002d5d7f8d1d,5.8007607,13.119431,-0.42158172,-5.073038,-0.716675,8.055922,10.701202,-4.4483466,9.251857,4.4195447,4
1880f4d10031c450d50dcbe4,5.419114,12.957537,-0.09096891,-5.3136716,-0.88277406,8.270592,10.867797,-3.0906901,8.785783,4.49079,-1
18b02f64cfe170f4917b82bd,4.649452,13.344931,-0.16973099,-5.5000005,-1.7455739,8.240308,10.056224,-2.7143645,8.317931,5.2654915,2
18ef33d6a5c5ff7abf2f57a6,4.28157,14.036291,-0.19083716,-5.182476,-2.1969903,8.5012,10.143732,-2.5716667,8.220727,4.812731,2
1915659eb7ba4ad925c271e6,5.107445,12.313805,0.0407325,-5.361081,-0.88554317,8.415709,10.671716,-3.9386199,9.052479,5.213705,3
19c0bf243f111b52798294ac,4.77765,13.215076,0.0035425795,-5.4693074,-1.9058001,8.365259,10.033397,-2.7936978,8.200139,5.2474713,2
1b3a81e855d3fb332978cb08,5.4612966,13.21193,-0.40379944,-5.381198,-1.592479,8.013186,11.0440855,-2.9310224,8.418024,4.4735823,4
1b5c0f9f7a64affd8f16d91a,5.0229354,12.817232,0.11679158,-5.246483,-1.1791265,8.3959675,10.34405,-3.395191,8.57331,5.456415,-1
1b651cbb04cd061d4dd1b198,5.2098837,13.203323,0.2612582,-5.1504908,-0.9608892,8.51383,10.676116,-3.4896333,8.4724865,5.0248513,-1
1b70d25c0e8fa16559f98364,4.7975044,13.183958,0.046093486,-5.573077,-1.857908,8.216565,9.998311,-2.6286664,8.190409,5.314522,2
1ba7a85393c9397b3dfa3d2d,5.9473777,13.174593,-0.842566,-5.1822004,-0.96748394,8.602047,10.6765995,-2.9954684,9.252372,3.9787788,5
1c217e63c7c3eb98e60fdec8,5.7561393,13.425685,-0.31100908,-4.653617,-0.9231411,8.723498,10.142137,-2.9887853,8.689648,4.5393453,-1
1d0827720567cc7c5ed32d53,5.490027,13.195706,-0.25908598,-5.1109157,-0.46531954,9.02745,10.33505,-3.4518917,8.495068,4.8169045,1
1da47474b2ab92da5914d73a,5.271786,13.415167,-0.2278255,-5.5530133,-1.2466161,9.054648,10.120099,-3.0234842,9.039852,4.4649563,-1
1dcf63e933edf80d7e577d01,6.6346226,12.879688,-1.1565877,-5.309224,-0.584063,8.390642,11.063233,-3.1477637,9.370211,3.7639627,5
1de87031055b657d23936740,4.3507075,13.851816,-0.1082151,-5.197317,-2.0663369,8.427303,10.226221,-2.7857533,8.140135,4.9464993,2
1e9662bb28acbfa39bc25d92,6.255639,12.872275,-0.7363826,-5.2343636,-0.64481753,8.558319,10.744019,-3.3222673,9.242744,4.110086,5
1f009984e2e4839346768ac9,5.294786,12.622563,0.52351594,-5.55823,-1.7499167,8.77276,9.548467,-2.8348815,8.641597,4.285811,0
200a39a90da96276463b1e9b,5.442742,13.423996,-0.054206576,-4.7625127,-1.4275504,9.138505,10.131703,-3.6494007,8.971765,4.3420873,-1
20724b5c2ee941f69fd32166,5.6677265,12.893161,0.29773042,-5.1949205,-1.7438442,8.994324,9.6420355,-3.4402099,8.533178,4.250843,-1
212e2be4873bdd27cb3a3920,5.4684153,12.628473,-0.3695042,-5.314889,-0.44705123,8.545281,10.763366,-3.968707,8.538334,4.925543,-1
2139140d036a1ca6e9fba3e6,5.7008533,12.938946,-0.25541976,-5.1167736,-1.4022148,8.891944,10.276346,-3.8213563,8.836826,4.8503623,-1
21a172b0d5d09b4fd629d6e3,4.7722816,13.1727915,-0.6449509,-4.800596,-1.286776,8.437399,10.571526,-3.1755037,9.146757,4.2528386,4
21bc54785063b2b5a24d819f,5.5017138,12.518591,0.41918063,-5.4345846,-1.6903771,8.848602,9.7240305,-3.1069996,8.7437725,4.3097067,0
221737aea6d0a25c7f067933,4.3517885,13.875176,-0.17528014,-5.2544103,-2.2073061,8.430432,10.196473,-2.5295894,8.177757,4.8944173,2
221d60f3efc69190bc209dfa,5.5943384,12.929603,0.34474447,-4.782226,-0.6718647,9.172737,10.383173,-3.9104095,9.352461,5.160585,1
2224bb38a3298b9f89cb3d4f,5.621092,13.340928,-0.066210166,-5.0028505,-1.3883326,8.908192,10.74019,-3.0242975,8.450074,4.4808254,-1
22b2c826d2e16fa2d541a9bb,4.52836,13.16721,-0.22193159,-5.516638,-1.8548219,8.213306,9.944447,-2.1215556,8.499815,4.956848,2
236417dcaa62bd44d9d88555,6.0715013,12.718942,-0.88276434,-5.4877176,-1.146701,8.2973175,11.036392,-3.1335566,9.114272,4.1091375,-1
2380de8548ed87e783bc74ef,5.2811584,13.3907995,-0.3348639,-4.6608815,-1.1693472,8.626217,10.9610815,-3.273832,9.078557,4.3987226,-1
243b513a881476e5cb3630c8,5.370062,13.305485,-0.3333222,-5.3191576,-1.6794343,8.015924,10.9006195,-2.9228961,8.471988,4.643938,4
248d0f61258cabb996d844dd,5.3146105,13.436987,-0.41363874,-5.023477,-1.6628358,8.598514,11.132077,-2.9967484,8.586861,4.191394,4
24d75e3a58681b913f3f6a92,5.552354,13.034379,0.30549213,-4.767897,-0.7797247,9.302418,10.295965,-3.871037,9.374906,5.1728206,1
2516a996d8b919626b800511,4.5250945,13.744587,-0.19048788,-5.1693063,-2.1915789,8.393177,10.335356,-2.7627845,8.194851,4.9830513,2
25196ce72599ce34bb255fd8,5.3029814,12.831544,0.3519799,-4.9607806,-0.95844775,8.844654,10.102405,-3.73144,9.111466,4.737894,-1
258fa400537eae75a06e0053,6.281071,12.871227,-0.8875028,-5.100746,-0.6528388,8.621876,10.679088,-3.622136,9.060071,4.1248245,5
25adfefaee204d0de7683d00,5.8102202,13.064992,-0.69011647,-5.0963373,-0.50252956,8.46044,10.72439,-3.214284,9.193333,4.0052533,5
2643bdecec9695c9fe7fc03f,5.4122863,12.975097,0.2444105,-5.2293644,-1.5462952,8.363568,10.311927,-3.402148,8.794669,4.872898,-1
2668f38d28c7e561ce85bcc5,5.7928777,12.995382,-0.2891325,-5.24829,-1.2205759,8.2307625,10.98858,-3.124392,8.522314,4.4587555,-1
26baa3e2eda640382dea02bb,5.3990374,13.586103,-0.31692964,-4.9863744,-1.5789434,8.343494,11.001973,-2.9420347,8.427904,4.504774,4
26d167bb44167e1e03f3c52b,6.661067,12.846515,-0.9866421,-5.1741824,-0.77950245,8.517697,11.001269,-3.1460853,9.158487,3.8036573,5
27181ca70553cb7080d6221c,5.2552257,12.51258,-0.18736374,-5.087199,-1.3758451,7.972513,11.341542,-3.679529,8.464638,4.892886,4
27e33779b5b4969ecb1fc898,5.2287965,13.242946,0.063156,-5.6097393,-1.7779826,8.1758585,10.227747,-2.696439,8.226228,5.0617924,2
2880120912f6dd56821d1295,5.303947,13.540943,-0.12885328,-5.0311394,-1.3828919,8.784986,10.153597,-3.6008267,8.895167,4.526832,-1
2891813b454c823d5b541573,5.9043407,12.997867,-0.62406796,-5.109865,-0.34618855,8.815527,10.597123,-3.6732879,8.8782625,4.5440235,-1
296808844e909216052642ca,4.4337807,13.88816,-0.29039425,-5.77497,-1.8577306,8.473384,10.205454,-2.3838089,8.578384,4.471205,-1
2977ed46a3eafa1b82ef6296,4.4245586,13.480801,0.45996356,-5.314061,-1.6191105,8.624596,10.0503845,-3.1463099,7.922891,4.8751626,2
29ab15102a1aca6efcf720af,4.63011,13.286114,-0.009863211,-5.537984,-1.954558,8.230786,10.147598,-2.6675117,8.128117,5.1247845,2
29c6046590eb3f6debf96306,5.1729784,12.586366,-0.19891408,-5.277013,-0.8876315,7.968915,11.259168,-4.0032687,8.610214,4.8216696,3
2a6d93820922ea28c69fe2e5,4.760821,13.018146,0.08085061,-5.4979753,-1.9681218,8.452185,9.971036,-2.9520235,8.239697,5.2695966,2
2ac5814bd7eee37dd47056ea,5.742613,13.626507,-0.2937543,-4.920038,-1.1465957,8.63115,10.755432,-3.511185,8.712678,4.7358155,-1
2b29147f0df917a99c6f51b3,5.7549458,13.496723,-0.62196636,-5.0558357,-0.7391391,8.195862,10.744273,-3.9545763,9.371536,4.2517385,4
2c25e3b8cf8425f801d77d80,4.996499,13.287311,0.00035591098,-5.6244135,-1.922351,8.163038,10.164168,-2.6266532,8.142718,5.1337395,2
2c866464090e335c9b083d68,4.766442,13.784385,-0.6291288,-4.913421,-1.6028779,8.395514,10.175081,-3.2329779,9.017324,4.4834948,-1
2c8daa81dbe6aa0885aa7bd7,5.273902,13.436551,-0.35541025,-4.9282136,-1.4693426,8.800731,10.995839,-3.0299854,8.743845,4.148934,-1
2d6da583be18ccb0628ec2c3,5.4468703,12.19144,-0.25905707,-5.4408092,-1.0030812,8.0100155,11.176927,-3.858541,8.9053955,4.891929,3
2e20154c98c80b5ea234bdde,5.321938,13.462287,-0.4264269,-5.028996,-1.6679913,8.587902,11.154477,-3.0073028,8.581668,4.152742,4
2e2e3f86b1421a5a11ecbafb,6.0293965,12.853216,-0.14174749,-4.734594,-1.1610752,8.9679365,10.023559,-3.6054392,8.401854,4.4064913,-1
2e47c4d457ade3810b5ea334,4.8058763,13.113419,-0.04333513,-4.709397,-0.8181642,8.438989,10.537271,-3.5863583,8.701251,4.144689,-1
2e50aed83c3b6489e68166a3,4.8805547,13.17494,0.09852387,-5.282605,-1.7403872,8.837866,9.743559,-3.141077,8.533923,5.108419,-1
2f07a986e13f74a865b9ac92,5.676001,13.051069,-0.26361188,-5.4529366,-1.0860108,8.42912,10.316902,-3.1133378,8.9929905,4.9567394,-1
2f176b8821f95b5fd098e9b2,5.596568,13.079648,0.096422695,-4.8519673,-1.1708996,9.084615,10.014213,-2.9678886,8.444042,4.551639,-1
2fa5685de2a6a1fb8276ad18,5.5518312,12.583601,0.64788675,-5.41016,-1.1014086,8.848212,9.865521,-3.2592328,8.844277,4.2459345,-1
2fdf21adbc2a5ee02b32be6c,5.8087187,12.9811945,-0.478994,-5.092918,-0.77599055,7.9546547,10.888411,-4.436935,9.26589,4.428903,4
3010b01f36c52b14b99f9365,4.932769,13.014844,-0.6767911,-5.004154,-1.1612486,8.311798,10.519855,-2.8374596,9.236592,4.2755117,4
3091a41bacac0560d06a7ca7,5.4415526,13.07912,-0.022871267,-5.1615763,-0.5469199,9.079884,10.308831,-3.4919577,8.4426565,4.9903584,-1
30b0ddd6819e763ee0916849,4.5655146,13.387245,0.6119724,-5.2573247,-1.2202798,8.719382,9.973878,-3.3172705,7.9762206,4.62655,2
30daa31c49610c326f9b86ce,5.118892,13.253228,-0.48800772,-4.788749,-1.2384981,8.369992,9.963595,-3.6960793,9.23389,4.537216,4
3112608522855ace7a2f5009,4.9405236,12.891942,-0.18730918,-5.407742,-1.6741464,8.635933,9.991247,-3.110325,8.274546,5.034841,-1
31600ccb892c9cb699f1beac,4.63924,12.967647,-0.021901468,-5.275656,-2.118931,8.450002,10.290735,-3.055316,8.399418,5.0077124,-1
319210d6dc9b8cb0b666d97e,5.4846315,13.16995,-0.7347762,-5.3365235,-1.226352,8.59796,10.6265135,-2.4976194,9.243841,3.924874,5
31b84678c6a3f2c82b4684bf,5.428328,12.180781,-0.24290721,-5.4338813,-0.9696225,7.9900646,11.192132,-3.9258273,8.888283,4.913271,3
31c7239276e971dd3963b741,5.806129,12.532433,0.55452734,-5.1635575,-1.4464664,9.1337185,9.973569,-3.177299,8.905605,4.000572,0
31f7604886638f2605384738,5.8493466,13.172619,-0.55892867,-5.0042667,-0.6127493,8.093518,10.785737,-4.226302,9.298704,4.218075,4
323100496644eca6a34db064,5.345172,12.68147,0.48239857,-5.514187,-1.791253,8.790449,9.587595,-2.8419993,8.623648,4.2412324,0
327dc099a8e990874f0d40fb,4.2353063,13.721659,-0.13701019,-5.193315,-2.1078644,8.4951,9.945424,-2.6312757,8.216929,5.0987067,2
32a5b0d5c67c754765c76e68,4.5783367,12.685485,0.6071803,-5.3868146,-1.6270716,8.828966,10.142941,-3.6469755,8.46821,4.4170423,2
32aa70b9ef075aea75d42ffc,4.4649773,12.942748,0.5463227,-5.4221787,-1.6910274,8.759455,10.027949,-3.3603623,8.3283205,4.5158744,2
32b4516a143770c45c0f6ade,5.8292994,13.239335,-0.52821755,-5.2029777,-0.3326002,8.687983,10.754447,-3.3321643,8.921612,4.598648,-1
3362439e146b13245eb07c8d,4.478536,13.428744,0.8184834,-5.327238,-1.3028221,8.844784,9.927022,-3.5073826,7.8692718,4.7153974,2
33ac30d17f7e1b548c9acd7b,5.6677184,12.147145,-0.39418274,-5.472732,-0.9800747,7.9777164,11.180037,-3.9090476,9.0216465,4.680808,3
33ac64ab32d109bf1adc8b4b,4.8959007,13.087082,0.30082944,-5.0474997,-0.86819893,8.855177,10.062652,-3.4237914,8.208644,4.630195,-1
352a3f79903ca78fe34342af,4.7374935,13.226908,0.058267325,-5.5822325,-1.9411391,8.2195015,9.955049,-2.4015968,8.18877,5.198596,2
353c3f21034d192243256a27,4.9802637,13.273682,0.045603484,-5.4912996,-0.5526429,8.8383875,10.508808,-4.0427823,9.023802,5.0920544,1
359966925a435f0865bc927a,5.6340775,12.39321,0.24059963,-5.5323606,-0.46300673,8.099018,10.112067,-3.9504874,9.247386,4.2794247,-1
35d8094d33e9a0e86f595260,5.729611,13.125574,-0.6988858,-5.173938,-1.0755515,8.591593,10.438232,-2.6068165,9.240012,3.9781258,5
35ded0c8ee0d8eb251307bca,5.4538455,13.576649,-0.46615028,-4.8809156,-1.3065094,8.284084,10.913997,-3.2359414,8.743047,4.520007,4
36731ca9b7feb9a198a6e7d9,5.097088,13.47703,-0.108271375,-5.3614607,-0.3320825,8.962563,10.692235,-3.9559875,9.352237,5.1566863,1
369ba9cf5afe1366fef847ad,4.8672805,12.755811,-0.11729734,-4.91559,-1.765692,8.655088,9.854425,-3.5846126,8.737907,4.7435656,-1
36d45ab7730d61c07cb2f0e0,4.888812,13.695778,0.7562213,-4.8195224,-2.26899,9.489661,9.139238,-3.6956582,7.9375076,4.9360085,-1
373dad908da4b37a799cc9f7,5.8281603,12.586756,0.7212442,-4.7119865,-1.0935904,9.155153,10.1486635,-3.17456,8.8369,4.3909183,0
3776fdf9515d911b6c92f611,4.696626,13.146578,0.28672776,-5.270333,-1.8881342,8.687508,9.906357,-3.3743727,8.118187,5.289508,2
379351581f580205b408ff50,5.2255297,13.38632,-0.34002766,-4.6571913,-1.1966895,8.569872,10.998085,-3.233882,9.059989,4.3054514,-1
37a3b23be3f2fee69ffa4ede,5.539652,13.08355,0.18789583,-4.847142,-1.4110154,8.58526,10.171745,-3.5511909,8.274326,4.9146433,-1
386a184164c6c76417d79c39,5.098852,13.2667055,-0.33352542,-5.1355667,-1.3982346,8.0963335,10.309305,-2.526347,8.684402,4.590441,-1
38c65652a7fd7ee7771c793c,4.311662,13.24396,-0.25103718,-5.52904,-1.8709654,8.209176,9.955746,-1.9577283,8.462251,4.963209,2
394278cc7c58f3bef1441a7e,5.4399133,12.607361,0.33428788,-5.5130014,-0.6983822,8.598742,10.324791,-3.7139435,9.139554,4.5728164,3
394a09a8ae9c82cd0a6590d0,5.1884212,12.241158,-0.16079825,-5.3025303,-0.87866294,8.391146,10.887195,-3.8542924,9.1954565,5.3654943,3
39fd08122511ce2d5619ad2e,6.2595434,12.984639,-0.92008954,-5.161,-0.53878134,8.441616,10.810715,-3.3175974,9.250023,3.995169,5
3a487403681a73a8ef089739,5.53923,13.311958,-0.23000872,-5.648774,-1.1628246,8.4398575,10.114563,-3.236276,9.107119,4.5325446,-1
3af815dc2067a3a1e3c09267,5.369127,13.650035,-0.37324962,-4.9225707,-1.2905577,8.304665,10.719385,-3.7267697,8.999347,4.2799025,-1
3b6169c3e6a68afd2ac01bb0,5.7392216,13.427196,-0.5665053,-4.874046,-0.7811573,8.336365,10.659286,-4.0147614,9.149391,4.4507837,4
3b7df5b59dd555867f5e9762,4.451024,13.997865,-0.53214043,-5.4432135,-1.506948,8.544714,10.348039,-2.6287868,8.640459,4.688411,-1
3ba8eaf98939bca1a27d6988,4.4747243,13.443676,0.8067949,-5.343512,-1.2464223,8.810381,9.948569,-3.4566765,7.8656363,4.6954293,2
3c0fe729059997691b341694,4.891709,12.640678,0.07069458,-5.30337,-1.3620107,8.371177,10.481164,-3.8075995,8.464991,5.3489857,-1
3c4b4d2f3c3759c0e6945c59,5.122071,13.618288,-0.21040547,-5.404621,-1.5949029,8.813236,9.940945,-3.157108,8.68924,4.8335466,-1
3c6d19a193b92f9ddd9a6227,4.830085,13.501605,-0.22153014,-5.1213856,-1.7758348,8.1595125,10.661961,-3.0928562,8.239917,4.9128146,-1
3ce4d89de1baa526fbf1e3a4,5.2845507,13.537605,-0.3576274,-5.236599,-1.727888,8.141661,10.935575,-2.8558643,8.4293375,4.480474,4
3cecfce86649dbe384fa5b73,4.7423625,13.267059,-0.09071023,-5.5699887,-1.6860361,8.150121,10.103975,-2.6883337,8.294944,5.3010488,2
3d039e7570548246d3ca5b77,5.660566,12.549001,0.5515222,-4.754162,-1.1315175,8.87084,10.322622,-3.5945048,8.560119,4.605817,0
3d3c6b7efedc9bdaa5793bdc,5.223302,12.890932,0.3314104,-5.1844163,-0.9433938,8.465031,10.719045,-3.6150303,8.59996,5.0571194,-1
3d3eb74992b3fc7332a5f979,5.063447,13.195023,-0.5934904,-5.1947126,-1.1647408,8.373136,10.49021,-2.5836413,9.176702,4.2152233,-1
3dac8781c3385b29861ea0fa,4.5475526,13.240362,0.014619807,-5.30618,-1.8713968,8.385731,10.015784,-3.036972,8.205231,5.390776,2
3ef6930b2bb99201692f570a,6.4012113,12.971791,-0.9939078,-5.239637,-0.7104292,8.519163,10.897514,-3.133125,9.230725,3.9273365,5
3f431413bbd35bfccc60ab51,4.6817513,13.208185,0.38759807,-5.591006,-1.7307353,8.349815,9.883683,-2.9654236,8.165637,4.82283,-1
3fcbd22f3b613e5681516662,6.5503893,12.667963,-1.0480038,-5.243798,-0.76609755,8.569377,10.870514,-3.2957458,9.168784,3.8841894,5
40ab72a153c25dd6a3c3b6c5,5.669558,12.406388,0.20904389,-5.5536532,-0.4462863,8.124762,10.118573,-3.9222965,9.2795925,4.2374315,-1
41407d935e0e6e428bf94cf5,6.011205,13.110173,-0.85471725,-5.023928,-0.76344633,8.706833,10.680317,-3.0320377,9.14555,4.034848,5
415f7efd190be2056bd63922,4.4277816,13.14337,0.4856403,-5.4648247,-1.6191736,8.670442,10.100832,-3.2017004,8.186188,4.4904623,2
4166c132f15dabdfd6a3f5bf,5.6719155,13.121432,0.17389204,-4.7654634,-0.72709405,9.280857,10.268035,-3.7482917,9.308711,4.9965963,1
4169810d1df33b56cabcd626,5.0185294,13.830708,-0.6273915,-5.4672666,-1.2119479,8.638877,10.5090885,-2.6315925,8.959875,4.218006,-1
41775c4ad203ee21d7c7b551,4.54079,13.386405,0.63263977,-5.2588687,-1.210127,8.730444,9.953039,-3.3307965,7.968926,4.629382,2
42a452505627ad03bd5e2996,5.3426456,13.407855,-0.80593044,-4.7064385,-1.1760805,8.434326,10.421059,-3.6692843,9.389605,4.1075473,4
442ab514047ca9e274fa1dae,4.9540305,13.739604,-0.41450152,-5.014735,-1.6972532,8.4432,10.561699,-2.9736814,8.6505575,4.4026475,-1
44857fbbde13a8f87193dd57,5.2232385,12.226265,-0.065364644,-5.2067018,-0.95689577,7.9357243,11.277939,-4.038137,8.645952,5.055642,3
4486a01aa5572ee8681c0331,6.6291227,12.8591,-1.1406513,-5.2080207,-0.6632527,8.416767,11.046735,-3.1800737,9.283052,3.8287327,5
44cd26a0f4efe92699f17e11,5.6754665,12.598075,0.5499354,-5.3487415,-1.9235109,9.045561,9.56973,-3.0342472,8.687344,3.915889,0
4504c36afdb611c7c1457e9f,5.7771015,12.934622,-0.18647236,-5.181536,-1.3254479,8.846387,10.139172,-2.671593,8.874329,4.3001604,-1
452a007cdb38523ff0d12c55,6.4391193,12.709949,-0.8162238,-5.0761957,-1.0281103,8.744174,10.664589,-3.0182903,9.067567,3.9275253,-1
4691fd44fb3c152feeb6e798,4.590513,13.141292,-0.14096545,-5.539836,-1.872816,8.28623,9.850431,-2.2173717,8.486235,5.004646,2
4706f7cb6d46d5535148c44c,5.283151,13.100301,0.120085776,-5.2989755,-0.5561314,8.925844,10.28294,-3.7493849,9.269338,4.8396935,-1
4749e161091394aa41303baf,5.1772447,12.192874,-0.11712769,-5.1818056,-0.84928095,7.9388995,11.286644,-4.0722694,8.666043,5.037788,3
47a446a94d4f6940fee70231,5.9223833,12.429404,0.3710325,-5.338453,-1.4719822,9.035551,10.099976,-3.2662745,8.941371,3.8795109,-1
47a964ff2cdc64a7b84e6dc0,5.203815,12.739176,-0.2655487,-5.2921205,-1.0476633,7.986633,11.298514,-3.7494507,8.528898,4.698787,-1
47c03f506bbf3775b9184f9f,5.2976475,13.063748,0.48209053,-5.3507314,-0.7871758,9.064523,10.477131,-3.3955803,8.238362,4.7566295,-1
47e78a725dfd33f5b5aab9a9,6.0162497,12.796783,0.08141127,-4.642222,-1.3398871,9.17733,9.804709,-3.2282932,8.544079,4.2194576,-1
4826b15a70dcb7e6ea46b4d7,5.6688857,12.968274,-0.43170598,-5.1712146,-0.29844198,8.909692,10.614259,-3.7528117,8.678416,4.876173,-1
4854406eaccb76b65dffd488,5.066032,13.831207,-0.6619102,-5.104443,-1.1659304,8.440274,10.616104,-2.783742,9.102831,4.0320415,4
4867463259deb0e5f735e560,4.994788,13.345671,0.023145167,-5.576587,-1.9796399,8.186202,10.1952915,-2.653652,8.137058,5.115732,2
4933c656feed90ba01185277,4.745745,13.166404,-0.62551975,-4.7602663,-1.2859021,8.469353,10.566505,-3.2138977,9.177987,4.2300806,4
4964e4c8369e0a14eb50d11d,5.641738,12.465245,0.47362342,-5.337419,-1.5552195,9.10706,10.051972,-3.2649183,8.917603,3.9612286,0
49ae3de1bf2db090817af493,4.660604,13.11511,0.16792418,-5.3842835,-1.8964031,8.57499,9.997111,-3.2022064,8.135352,5.319704,2
49b39d45ba38e92590255b2a,4.5055,13.1889105,0.0215292,-5.3422604,-1.9649723,8.385187,10.063008,-2.9439318,8.168834,5.4111013,2
49b4df506502b11de374286e,5.714139,13.473879,-0.80683726,-4.9833302,-1.4823426,8.317145,11.034797,-3.0683072,8.839225,4.13015,-1
49c4dc8011c91557f78576cc,5.6652646,13.443244,-0.4630596,-5.2790008,-1.1113298,8.250445,10.832924,-2.8041308,8.861036,4.0987387,-1
49cca326cfa1edf285d96187,5.6482706,13.388895,-0.23590687,-5.08131,-0.6407984,9.221326,10.39426,-3.6019874,9.165054,4.791585,1
4b986f88d4a21cddab7bf731,5.309503,13.535854,-0.41029358,-5.0439925,-1.7176783,8.135486,11.020596,-3.0384278,8.446556,4.5269947,4
4bb267f30eb5ceac6bc4d4e0,5.581708,12.890941,0.11662181,-5.139846,-1.7697101,8.894788,9.778142,-2.7650847,8.59425,4.3220882,-1
4c19e9b9d46724cd19ef3cb2,4.682041,13.282665,0.17480633,-5.306113,-2.0993526,8.542261,9.819807,-3.098361,8.137035,5.2662883,2
4c8176ae941f37f27e29e158,5.0435376,13.15202,0.56113565,-5.382137,-0.7415763,9.012197,10.215467,-3.5121396,8.15798,4.827907,-1
4da80f9818c64dc9e9fd2d4f,5.12756,12.496658,-0.0739522,-5.432149,-1.1143085,8.195578,10.751534,-3.9747136,8.50037,5.0932083,-1
4e23b94529fe598a1545914e,5.7547317,12.542675,0.6385122,-4.8482375,-1.2248253,9.128069,10.071691,-3.351728,8.815793,4.323381,0
4f5366c34ae5b325c0b1c11c,6.6257634,12.801069,-1.1868762,-5.204547,-0.735827,8.337964,11.11728,-3.1541483,9.2366295,3.8831897,5
4f634fd11b90b0127c5fa533,5.4382772,13.38379,-0.26124045,-4.727684,-1.3515393,8.563157,10.629871,-2.8645577,8.59704,4.6153984,-1
4f85ada326a0123405533d5c,4.989583,13.227973,-0.32624525,-5.0778832,-1.7284337,8.373395,10.30232,-2.259089,8.551108,4.6764073,-1
4fa0ef35868dbf275ba7d1bc,4.734935,13.645576,-0.23550968,-5.129223,-2.07205,8.311401,10.526945,-2.8258326,8.254445,4.878857,-1
5043c1d2e42feb0b34ebc7c2,5.561417,13.092219,-0.3167121,-5.2489133,-0.5784977,8.572754,10.420822,-3.9664109,8.675627,4.4973774,-1
508473d68c2456e9347747ba,5.5972195,13.285129,0.09157283,-4.8166485,-0.58180785,9.223326,10.408467,-3.6798642,9.377472,4.9895167,1
50ec0624928ca2cbc6dcebd8,5.767696,12.529279,0.65013933,-4.8715696,-1.2044535,9.0435295,10.140028,-3.245119,8.876024,4.25311,0
50f8b6f7b81254cc7e6c6d96,4.63147,13.727011,-0.12801214,-5.062421,-1.719478,8.63004,10.14442,-2.6467614,8.557828,4.3674183,-1
5127113c0ed2c3a6c8147952,5.098269,13.161232,-0.32096696,-4.778805,-1.2113663,8.498728,9.94266,-3.767076,9.235765,4.6231694,4
514f49092197e2d66d7030d6,6.0464773,12.765107,0.035655383,-4.571634,-1.3282547,9.199233,9.825673,-3.2929018,8.484802,4.2303457,-1
51777641b0dc5795e368f940,5.2706795,12.590652,0.3882923,-5.293526,-0.81084174,8.48617,10.508183,-3.9625583,8.932636,4.7545624,3
51c255e1a3a006260426fee7,5.8595204,12.545635,0.6839932,-4.6678424,-1.128607,9.155931,10.1917305,-3.225642,8.798484,4.36192,0
522c400679ecd29cb4bf1d9f,5.4285803,13.675621,-0.67933935,-4.955697,-1.6460516,8.263808,11.044503,-2.959814,8.639839,4.3837905,4
525c0022ada96f13b0b26bc1,4.9170666,13.372945,-0.025354633,-5.4490047,-0.6530544,8.7542,10.713872,-3.922691,9.031008,5.1392775,1
52a5f4a3c29842d10699f399,5.8364124,13.439255,-0.46101978,-5.3275814,-1.0118308,8.2507715,10.876752,-2.8774054,8.936076,4.001843,-1
52ac6fa0a6747975f14f468c,5.430399,12.199795,-0.24767843,-5.4298997,-0.9862586,7.9763083,11.206221,-3.9316838,8.850437,4.887475,3
532a8326f8117f5d7158bae2,4.7037888,13.688229,-0.39314845,-5.1322813,-1.3921255,8.496881,10.406948,-2.5377893,8.938405,4.1807127,-1
5351c3aa068a281891383ec8,5.7453036,13.297555,-0.27001634,-4.9540224,-1.2014034,8.786462,10.016314,-2.6235945,8.806376,4.3110533,-1
53ff108ad96a75a448c0dc0a,4.60532,13.343113,-0.2573149,-5.3910427,-1.8453252,8.251933,10.163034,-2.4529243,8.361259,4.976525,2
553f948d24f17a323c30c3bd,5.0403886,12.599729,0.124644704,-5.5190015,-1.0451556,8.369163,10.431541,-4.118998,8.482047,4.9975224,3
5547200ccc96b49d9bd77a24,5.1023235,12.4531145,0.19345526,-5.3611484,-0.6797656,8.487722,10.39516,-3.7259347,9.196519,4.584899,-1
5566c733b6d369fd4dd0c66f,4.633293,13.403979,0.55089635,-5.28694,-1.3708341,8.644602,10.095502,-3.4118829,7.918218,4.875577,2
5568bbd335d687d1bc66b00f,4.799802,13.148667,-0.08071937,-5.6432147,-1.7867031,8.216974,9.984504,-2.2618315,8.426534,4.9581923,2
5575d84cc41aea96ff72965c,5.9822483,13.03229,-0.7139756,-5.1122923,-0.5445624,8.178296,10.790055,-3.7883224,9.339292,4.335071,4
558d97ad025cc511c9fb53fa,5.4063864,12.982683,-0.0958068,-5.5091724,-1.6922913,8.126364,10.431507,-3.0800526,8.819733,4.91777,-1
5610932d2e3fdd2e480f5f72,5.515175,13.572234,-0.5160873,-4.893498,-1.186907,8.319578,10.992933,-3.2757208,8.87488,4.4514017,-1
56a1eb695da79dbd2ceeca1b,5.707478,13.166846,-0.068058655,-5.534094,-0.9627561,8.733706,10.344105,-2.8787823,9.102167,3.9047399,-1
56a7310d884ad851780f7363,5.0363584,12.942996,-0.70059973,-4.8362603,-1.1806445,8.387471,10.5192175,-3.2770927,9.285213,4.2331843,4
56ab62230b52f783da9d92e3,5.155974,12.7849655,-0.2639157,-4.9463377,-1.6276884,7.8693857,11.455793,-3.404888,8.272411,4.8532305,4
56caba2e3b73f4bf7a2962cb,5.169688,12.834244,-0.30320007,-5.0232,-1.662913,7.9046545,11.3904705,-3.3140252,8.272946,4.8933983,4
56cf461a8c44ebebe2fe83e0,4.840482,12.697243,0.15560934,-5.29285,-1.5166582,8.444751,10.335519,-3.7793229,8.376018,5.360454,-1
5738c66816e7a21f1c6e99c2,4.508151,13.476178,0.7264089,-5.288782,-1.3184083,8.793728,9.944059,-3.3873022,7.85573,4.6955733,2
5745d19ca1d0aaaa31543764,5.4362016,13.352681,-0.26971152,-4.8205385,-1.3361909,8.315003,10.8946,-2.850241,8.481328,4.630772,-1
5758a4f98d19b13f190f376c,5.6769476,12.530513,-0.78010374,-5.204961,-0.8559834,8.561095,10.792012,-3.4133718,9.226042,4.414956,-1
5850fb457d1401d6376185dd,5.5139556,13.053527,-0.8223293,-5.326113,-1.2001836,8.609578,10.623671,-2.4991145,9.298602,3.9183328,5
58b08e072db837c1e1e3536c,5.0040913,13.252005,0.12375984,-5.028556,-1.019468,8.67683,10.122901,-3.2444642,8.384482,4.3918514,-1
58c276b1e90a172c066f80a6,6.233419,12.933836,-0.75462776,-5.113713,-0.9883666,8.549472,10.762453,-3.196112,8.732169,4.3585343,-1
591c974bf9057a442b42f60f,5.0796847,13.316069,-0.08599978,-5.475012,-1.8596493,8.114909,10.558644,-2.8075328,8.193344,4.868194,2
5988805b21113f88b25c7a4d,4.5449843,13.026192,0.6784437,-5.5056915,-1.5446575,8.976095,9.821681,-3.9370668,8.166851,4.820608,-1
59b8d44de320e1480326fdd8,5.742617,13.540299,-0.2909572,-4.540451,-1.0467436,8.651326,10.190129,-2.8369288,8.652025,4.2806907,-1
5ad7bd32fea3465222b75431,5.8895497,13.314544,-0.70402694,-5.014118,-0.45133755,8.4037285,10.818585,-3.5785327,9.084828,4.2814426,-1
5b5ee765c43f7a324be1d227,5.372314,12.866319,-0.50700134,-4.6599693,-1.1934699,8.574957,10.429029,-3.1837053,8.957583,4.2796006,-1
5be9688d30980240b27abf07,5.7723403,13.563024,-0.37948337,-4.66202,-1.256249,8.639069,9.938151,-2.9335492,9.000094,4.1918697,-1
5cd439c5ea4303f66b67353d,4.212066,13.781626,-0.07645377,-5.1645503,-2.0392158,8.475715,10.054038,-2.705092,8.160367,5.0047946,2
5d60aa8832c3446f360f3839,5.784761,13.315131,-0.5241233,-4.9902244,-0.60791844,7.893102,10.885896,-4.5598187,9.406185,4.361255,4
5d67e5ec8b8faa17875b5f39,6.211281,13.155024,-0.7049726,-5.5673065,-0.71565413,8.410587,10.844382,-2.963745,9.324609,3.8265548,5
5e1144e130372afafd8d1651,5.613039,13.00893,0.3086316,-4.760203,-0.6578612,9.242406,10.346259,-3.869619,9.405175,5.1637816,1
5e5a6e4152f42885f0100245,5.417974,13.242701,-0.39207137,-5.392504,-1.6338278,7.982314,11.098391,-2.910381,8.362909,4.4453073,4
5f4b93887f3192bbd0447adf,4.4782906,13.491447,0.75286925,-5.316396,-1.3204157,8.772695,9.981713,-3.456815,7.8327336,4.8009396,2
5f802b1a6e67c4daa30d11ad,5.701598,13.205911,-0.39636737,-5.5330687,-1.5118196,8.268674,10.468956,-2.9466147,8.9116125,4.5506945,-1
5fa5607eaec0ebda48905066,5.509441,12.790615,-0.90403986,-5.3426905,-1.0669374,8.549867,10.653509,-2.7876022,9.255928,4.14567,5
5ff6293accfc441f0b9aed13,5.247081,12.767911,-0.21640424,-5.323789,-1.7062798,8.224564,10.758526,-3.4787984,8.62144,5.035717,-1
600d47bcdee9e986024546bc,5.1428394,13.3668995,-0.12273989,-5.172923,-1.8790398,8.174739,10.818563,-2.9669318,8.248129,4.9052377,2
606b28b990521e4bcd9ace1a,4.818041,13.245892,0.104026705,-5.5872283,-2.0060487,8.221462,10.048834,-2.65578,8.04926,5.3160825,2
6080cf8f9c66e38fe7b9d491,5.7393417,12.456668,0.80466765,-4.783871,-1.1987056,9.180779,10.045992,-3.3208838,8.777262,4.3527718,0
6085aeaeef4ea601c3c6ebb9,5.8459253,13.246067,-0.5562498,-5.205845,-0.3015581,8.711585,10.777924,-3.3694108,8.900002,4.6247244,-1
6161783fd3794f6d456915cd,6.5229406,12.970693,-1.0442138,-5.228969,-0.67715526,8.373209,11.044204,-3.1060553,9.317043,3.843743,5
616331dcd8832389595b5468,5.953261,12.524614,0.2054137,-5.370248,-1.4309301,8.929456,10.126487,-3.2716153,8.923612,3.8581119,0
618a63b7abbc18bd5cf31e0e,5.424791,13.061642,-0.7634744,-5.2967076,-1.1630585,8.530927,10.61703,-2.5334218,9.36859,3.9215875,5
61d158ccc1df082fb04fed8f,6.2077017,13.026478,-0.91782284,-5.0455017,-0.6184905,8.446116,10.722105,-3.3278494,9.280095,4.0730557,5
61ff4c8ea4aafdff1be9c7c8,4.9189615,13.629453,0.67898333,-4.795929,-2.1980317,9.408639,9.219603,-3.7379746,7.9851956,4.970956,-1
6225697332809c8706e4b5ef,6.206885,12.983868,-0.55116624,-5.2404027,-0.6216258,8.550837,10.594919,-3.3253582,9.278738,4.227643,5
626c3b4a49ff8b8a2cdffce7,5.806749,13.277127,-0.0020597358,-4.7656193,-1.3172647,9.017948,9.838783,-2.8970597,8.639182,4.256958,-1
62db3dba694a4333600bf0da,5.847355,12.976947,-0.38452205,-5.5090823,-0.767848,8.659008,10.456128,-2.9056406,9.373049,4.2748556,-1
6329225f0fcac6dd0aa7d983,5.402762,13.271563,0.21508898,-4.7246833,-0.7477018,9.10464,10.515247,-3.4319956,9.082875,4.751309,1
6383fb6c7d3f7ac87d881799,5.842708,13.02396,-0.5136261,-5.070879,-0.7547223,7.950756,10.874909,-4.4525437,9.322685,4.3787746,4
63915f1e7ca263f09ad13224,4.6880894,12.64334,0.3519663,-5.3139668,-1.9301939,8.798524,9.988499,-3.4759216,8.569767,4.736198,2
63a9396ffaf230a2494b3178,4.591962,12.709057,0.5634014,-5.3322105,-1.6593798,8.840786,10.199612,-3.6528356,8.482477,4.3720193,2
63cb1276792d5e485b595042,5.1536646,12.905409,-0.3605288,-5.0152693,-1.6567593,7.850013,11.408701,-3.3853884,8.348358,4.8371515,4
63cfded62c5e4d6cf2382d36,5.5335793,12.950306,-0.8276062,-5.2615576,-1.1561066,8.629772,10.53107,-2.524205,9.249565,4.0525336,5
63e21dd3c781f30202cbefc3,5.6952786,12.505313,0.64080864,-4.762705,-1.1746305,8.92116,10.261513,-3.5165527,8.591547,4.5383577,0
63eb9e358900095021a37c05,5.056172,13.692837,-0.42946407,-5.039428,-1.7640088,8.205218,10.806555,-2.8515825,8.475887,4.55439,4
63f873da27d85ee258c50aaa,4.752836,13.660359,-0.57486963,-4.8761516,-1.5912042,8.425712,10.006448,-3.4074738,9.022042,4.622813,-1
6430aef43cbe5b4f9bccd106,5.213613,12.920277,-0.20444122,-5.36292,-0.72192043,8.093984,10.338894,-3.794101,8.827374,4.684367,-1
65073646fc097e29149b75c9,5.76763,13.486148,-0.6753748,-4.9017086,-0.7817127,8.153621,10.696834,-4.0323887,9.366799,4.236641,4
653919318939bc83796f40ec,4.5705748,13.1334915,-0.26074672,-5.519213,-1.8380587,8.14791,10.0449,-2.2049146,8.451491,4.9387026,2
653cfcd15685ebd5a7a7afc5,5.617509,13.081846,-0.36206648,-5.1546273,-0.26676404,8.975644,10.534577,-3.6198056,8.621576,4.8538294,1
65d523471361a7ed049cc7c0,4.66474,13.294953,0.445291,-5.232176,-1.0824913,8.582428,10.057363,-3.395795,8.209446,4.5060863,2
6687e1a08b2b97104cb27c21,5.086307,13.48344,-0.11810755,-5.373407,-0.32944092,8.939936,10.7037325,-3.9644718,9.324686,5.1566925,1
668b1f6bbc7134d0c55e4e95,4.866332,13.252767,-0.20991741,-5.154289,-1.5245094,8.366534,10.717607,-3.3623872,8.584846,5.1337156,-1
66ae2ffbe2fa8a829cf2a5ed,5.0856423,12.362531,-0.096154295,-5.242967,-1.086927,8.2737055,10.851239,-3.7795691,8.966601,5.1710916,3
66ff9fecb13aba8bbed4756d,5.1839976,12.981245,-0.4024504,-5.0231776,-1.6650103,7.8504014,11.434753,-3.347703,8.355697,4.7865047,4
67286b296356f0292b82b60b,5.7618084,12.9479065,-0.35511827,-5.4415584,-0.86747324,8.689212,10.333853,-2.773907,9.330531,4.288467,-1
673c8647db27a0bbe3e2cdb3,5.396664,13.472281,-0.32956922,-5.5428333,-1.3424376,8.609565,10.126299,-3.3549082,8.778625,4.869133,-1
674b289ba5a0a1407f47f933,5.0948944,13.81792,-0.614785,-5.153506,-1.2710309,8.451731,10.617229,-2.8039255,9.041011,4.1249647,4
67eab26a519cd5c97afbe4ad,6.3784614,12.973276,-0.9746967,-5.2257824,-0.7947193,8.430878,10.960237,-3.0126393,9.256292,3.8334951,5
68173e3acca4c115e74c1f79,6.325465,12.891403,-0.96781766,-5.116906,-0.54660255,8.503174,10.768914,-3.595544,9.178558,4.0227456,5
6820e9c955d18171a4706ae9,5.554885,13.0205555,0.28111178,-4.8211164,-1.357888,8.671945,10.232004,-3.4723365,8.199247,4.8767033,-1
6849a5229ae94887fb8e85a2,5.5221257,13.364417,0.029680688,-4.9088764,-0.61007893,9.26634,10.38865,-3.6431696,9.251435,4.9467545,1
68790d3f82e5c2a859b46212,5.2256002,13.065606,-0.27581415,-4.871991,-1.0678071,8.630408,9.992921,-3.7178466,9.324331,4.6535883,-1
687ca12ef9918e75893b930c,4.8766546,13.451924,0.40722993,-5.129807,-1.2754031,8.590535,10.260123,-3.2590497,7.9378753,4.8303733,2
68f17b6b3cc7af61569c24e5,6.117029,12.531638,-0.2996411,-5.3728285,-1.1745609,8.602188,10.574633,-3.442076,9.084293,3.963689,-1
68faa2d69afee825b5164017,4.517872,13.272628,0.5412993,-5.5802054,-1.5379074,8.459779,9.646046,-3.243472,8.2344,4.686267,-1
6922bfde0b3a8d506e7840ee,5.121854,13.75251,-0.6694307,-5.5390263,-1.2622569,8.562274,10.6033945,-2.652078,8.972651,4.197344,-1
6948779237822dc091b0a4ae,6.137957,13.078496,-0.80423325,-5.0368834,-1.0846449,8.484245,10.931332,-3.2403135,8.820583,4.3265533,-1
69893fc07fb57ad48bfed8c0,5.7500978,13.595175,-0.49288785,-4.7238655,-1.275722,8.534121,10.077423,-3.0284276,9.115957,4.1490636,-1
699270167085d51b86d92383,4.155847,13.921635,-0.030996034,-5.2570267,-2.2593253,8.527742,10.027458,-2.5934138,8.0040455,5.004512,2
6a28bd7ce2d9807cbed9ed18,4.3736134,13.987643,-0.15356557,-5.1713676,-2.2643692,8.550789,10.178379,-2.6271322,8.140827,4.8598495,2
6a44d1628e43e801eedc9633,4.7075367,12.5554695,0.17934768,-5.2560816,-1.750298,8.701821,9.98064,-3.5766635,8.681192,4.7946944,2
6a812f88c226b941d8afc18e,4.8596888,13.207455,-0.539299,-5.0606766,-1.2444764,8.568049,10.125348,-3.3975556,8.587107,4.8777733,-1
6ade015e9e461ec6f4e29969,5.081951,13.168688,-0.27847025,-5.5837836,-1.4218165,8.539712,9.963223,-3.3436885,8.296804,4.944599,-1
6b21206d4318987ec0053edc,5.6920958,13.015792,-0.31016082,-5.1115317,-0.7206502,8.044062,10.702379,-4.492297,9.193547,4.499881,4
6b527f289be012661f5bf63b,6.027036,12.782223,0.024345623,-4.5879383,-1.3053586,9.190212,9.841886,-3.2530077,8.51009,4.250152,-1
6b618d0f52c27ebc6735a841,5.1043453,12.321341,-0.028550308,-5.3199286,-1.0220304,8.132045,11.073646,-3.9999878,8.65668,5.1390214,3
6ba988d10e9e6a20b36b7f41,6.119949,13.087935,-0.64800435,-5.5068574,-0.6679015,8.307355,10.961299,-3.0276618,9.373362,3.9683506,5
6bbfea2f92a98112335f395d,5.2377043,12.501323,-0.22160499,-5.1108575,-1.4247187,7.9297237,11.398859,-3.660249,8.434462,4.913182,4
6c09ecf15d06a229a8f004b3,5.3819036,12.918069,0.2708715,-4.7228518,-1.561269,8.904443,9.947365,-3.4055474,8.476145,4.4681416,-1
6c18127f521ea23ef76e04ac,5.5280557,13.151376,0.3241321,-5.038869,-1.1282619,8.962874,10.7374115,-3.1085284,8.393048,4.7626605,-1
6c8875a5465306cb27ca88f0,5.6011643,13.122227,0.24446411,-4.7705913,-0.7032677,9.274272,10.349278,-3.8078926,9.444667,5.105165,1
6c92885a30324ceca8f7d8ea,4.3949084,13.206049,0.7271858,-5.4267545,-1.2026412,8.724155,9.93705,-3.36393,8.17279,4.3735776,2
6cab8a9f7bb328e4abb8ec8c,4.520931,13.373082,0.65633106,-5.309559,-1.2120107,8.718274,9.94309,-3.342236,7.9761605,4.575829,2
6d32bf1c04ad4b5b713532fa,5.393242,13.781585,-0.60218465,-4.940938,-1.592616,8.096457,11.144873,-3.2273266,8.704497,4.345473,4
6d5de8fce12b5845f5ce2bda,4.5894294,13.096602,-0.033422027,-5.2447553,-2.199007,8.4611635,10.3062525,-3.0358818,8.289595,5.0712147,2
6d7c2a8cc3fb644f7c354993,5.794376,13.088905,0.16819337,-5.6344547,-1.2012663,8.071274,10.385771,-2.9068413,8.905933,4.8658204,-1
6d810a35853d8e54b09e67c2,4.770518,12.902329,0.015170606,-5.382868,-2.004877,8.558635,10.010468,-3.1573234,8.43969,5.1697183,2
6dcbdeb01457613dfd671efb,4.8764534,13.665088,0.71042097,-4.8587265,-2.248308,9.444353,9.178969,-3.6478171,7.933885,4.941802,-1
6e35a719127b4865e42fcc93,5.538714,12.699134,0.53091264,-5.428615,-1.9799163,8.952859,9.605588,-2.9002347,8.597754,4.0385027,0
6e6ebc6865331373fb6d4915,5.853469,12.579107,-0.5620877,-5.1917,-0.49452004,8.050029,10.988816,-3.7687244,9.153888,4.380611,-1
6ec62f1e0979ad2be4645bf7,6.029045,12.491238,0.13705647,-5.38697,-1.375426,8.884659,10.202628,-3.2893214,8.973864,3.8380613,-1
6f5010b6e07d8e76a7ee8195,6.666748,12.709261,-1.2620665,-5.2071824,-0.6932943,8.374029,11.072458,-3.1588697,9.33848,3.8063297,5
6f6eec1b1078733699822b5f,4.884666,13.690256,0.7543241,-4.8242445,-2.2672212,9.488746,9.143092,-3.6906033,7.931039,4.9341245,-1
6f76ef15b952b05677045d86,5.866646,12.52218,0.7446101,-4.668998,-1.0850942,9.226667,10.153516,-3.3420422,8.846974,4.3660183,0
6fae42b26aa184ee3b382d95,4.633087,13.322881,0.024256341,-5.543551,-2.0601053,8.257834,10.024242,-2.5517988,8.107232,5.2279835,2
6faf5e939bd8eb9398136e06,4.8741293,13.669857,0.7493319,-4.8309927,-2.261724,9.483116,9.146858,-3.687329,7.946912,4.94396,-1
6fb712ede2059a5113fd51bc,4.860805,12.776087,-0.31917152,-5.301269,-1.7022772,8.550049,10.063285,-3.2092814,8.432307,4.896543,-1
6fd8e78657edbc4140e1e20f,5.6336646,13.088975,0.26277798,-5.1124086,-1.0398971,9.095858,10.684015,-3.1170385,8.478867,4.744216,-1
6fe7a17f77be7d6d781a5557,6.648535,12.659138,-1.1045928,-5.2731915,-0.7077454,8.579491,10.948911,-3.2205353,9.25161,3.7966633,5
6ffa6af40e115303bc1c4be8,5.3218846,12.916071,-0.11268215,-5.346053,-0.8417497,8.717442,10.218699,-3.8218994,8.326706,4.714164,-1
7036a469f596a46e61995e4b,4.6202736,13.090797,-0.036370475,-5.23925,-2.189058,8.419104,10.39132,-3.0804522,8.277424,5.1076007,-1
7065b296786cdd167ca39b17,4.957425,13.436215,-0.6511204,-4.766147,-1.3251513,8.450697,10.602037,-3.2840993,9.147481,4.1662602,4
706894affa276d8fd6c0f3a1,5.001581,12.457925,-0.12819676,-5.091259,-1.204246,8.403018,10.676763,-3.6433368,9.083475,5.142323,3
713d72ae3aace90bb6fc4ead,5.3794165,12.608247,0.5509204,-5.5181165,-1.635255,8.79347,9.600759,-2.977971,8.654445,4.2363906,0
71769b3038bd179c3862e1a4,5.9645495,12.686554,-0.6465888,-5.202789,-0.6310374,7.964344,11.017234,-3.9621758,9.269074,4.321556,-1
71778befc88fe3c2300527c3,5.485265,13.637637,-0.565959,-5.2111297,-0.801692,8.9285,10.225695,-3.467719,9.21586,4.5469503,-1
7288835ee9fadce470bb4fd8,5.392927,12.516495,0.126513,-5.457558,-0.69578695,8.582985,10.241165,-4.149552,8.739501,4.5858808,3
72c14afda431969cc0fdc09b,5.0843086,13.858237,-0.65682495,-5.095775,-1.3045341,8.371446,10.672627,-2.7979693,9.042735,4.0617256,4
72f414e8c68e4bd80570bb91,4.248814,13.198094,-0.23141786,-5.489331,-1.9488161,8.189071,9.869505,-1.9047911,8.520461,4.984962,2
7307b0049f2d0508cbcbcadf,4.2420135,13.907393,-0.0509328,-5.264997,-2.2909868,8.493612,10.082216,-2.5651727,8.017774,4.9814186,2
7378332504e52f8628a8c10b,5.6644363,12.768103,0.20614204,-5.4263325,-1.1592122,8.6979685,10.122579,-3.9538426,8.6187105,4.2511406,-1
737e697bd96226279668e53d,5.541396,13.262889,0.06726452,-5.024679,-1.4387815,9.217572,9.960767,-3.284716,9.056525,4.3151164,-1
73d04de0030d570ecd9c1379,4.7581553,13.000255,-0.2120121,-5.5447297,-1.6459727,8.273391,9.920891,-2.2566252,8.6642,4.9214263,2
7437a422df1cdc4cb37648e0,5.873315,12.53532,0.65084785,-4.712845,-1.0818385,9.188969,10.120138,-3.4225285,8.9199915,4.388852,0
743bab33bdc659f167661043,5.18765,13.003504,-0.2577553,-4.8488097,-1.5862778,8.083179,11.06933,-2.8691506,8.334394,4.79496,-1
749a6219cf064d5f1015e1e7,4.4529676,13.896396,-0.3070265,-5.788941,-1.830588,8.472642,10.228295,-2.3961117,8.601043,4.439175,-1
756da80364339e24b33f2262,5.4209037,12.462622,-0.2099787,-5.238864,-0.61308455,8.294141,10.914148,-3.923474,8.492993,4.804276,3
7579a4256e9184a62784fbee,5.446307,12.924488,0.088966735,-4.7466125,-1.0177923,8.083698,10.110036,-3.1267207,8.664103,4.8683276,-1
757f7b8681b69d330675823c,4.8861566,12.917133,-0.5584721,-4.7858024,-1.2050282,8.375713,10.383835,-2.999991,9.072088,4.373449,4
758a5f17f7e6b815ac4429f2,4.9579105,12.897007,-0.3812199,-4.9053464,-0.93085814,8.434026,10.313451,-3.0331395,8.642362,4.896508,-1
75bf13a0afa7b9fe7d822f6e,5.6669207,13.128548,0.16998349,-4.808324,-0.5553042,9.295859,10.40768,-3.7372627,9.359242,5.1893945,1
764b7823668958928df43e0e,5.453497,13.405959,-0.30185223,-4.9640484,-0.5640401,8.91233,10.729857,-3.7890587,9.420955,4.7650104,-1
7701e8e12c50c2cf0b1f0c2d,5.4464,13.453049,-0.05843729,-4.805956,-1.3932012,9.200805,10.142037,-3.5789244,9.050276,4.3149996,-1
771d5d3c815d8ec400f1acf7,5.4114256,13.667672,-0.62200564,-4.937676,-1.7358491,8.209898,11.086395,-3.0424008,8.619703,4.369208,4
7751f80e564558008beb20ac,6.225797,12.894142,-0.65017706,-5.0374928,-1.0079893,8.623337,10.687413,-3.1887403,8.709011,4.3931723,-1
77534795e0582398ed1bd4e4,5.1248264,13.292525,-0.06278003,-5.5676684,-1.810203,8.080785,10.32479,-2.7083821,8.222108,5.0482,2
7774cb23bb675075012f0950,4.3561907,13.463096,0.5237962,-5.352318,-1.6351362,8.660251,9.999064,-3.118264,7.927589,4.7745223,2
77acffcbcfeb31400c0f8a58,5.870918,13.126275,0.17071839,-5.655493,-1.1918242,8.072981,10.400582,-2.9238927,8.924522,4.80714,-1
7854c0f8807ea7c438094d3c,4.30032,13.226701,-0.18729013,-5.4479265,-1.9541817,8.248614,9.96583,-2.2178574,8.349927,5.0868425,2
786f06b5dc2113a780ce671c,5.2145996,12.521828,0.7512414,-5.6121573,-0.5044998,8.667879,9.987478,-3.9531932,8.72502,4.7133737,-1
78895f9499cf82c4efe46660,5.141624,12.642832,-0.2106006,-5.0132084,-1.5028253,7.8733716,11.436679,-3.5830986,8.359567,4.942869,4
79b699aaecbd59dfd4646cfb,6.213919,13.100405,-0.7209996,-5.437218,-0.63651794,8.428279,10.808301,-3.0265708,9.353368,3.9161026,5
7a11601ca4c6f9baa6a8e859,5.084804,12.619818,-0.28157258,-5.2795005,-1.443899,8.550943,9.962148,-3.169236,9.126926,4.4931116,-1
7a30d8144370d600f83b4770,4.9976144,12.950105,-0.34042394,-5.600722,-1.5286316,8.244072,10.1276865,-2.2931893,8.830742,4.660082,-1
7a4c898fea01de07d161187d,5.2968254,12.642902,0.29212534,-5.3197856,-1.1613972,8.789273,10.778197,-3.3367796,8.53886,4.965022,-1
7ad726c5197e176f5a7e6a27,5.025654,12.721781,0.06691047,-5.44048,-1.0564322,8.394148,10.188161,-4.0335517,8.600334,4.989384,3
7af1de9e906b54bb92353e04,5.7487383,13.052369,-0.6420787,-5.0759535,-0.47021526,8.524454,10.676911,-3.2394395,9.198678,4.038386,-1
7b098b014c6ca751f27a786e,6.0334435,12.865448,-0.16171898,-4.718826,-1.2022,8.951101,9.997543,-3.6059058,8.401903,4.353259,-1
7b3726ef2b12167a0217abdf,5.5675616,13.050644,-0.19028072,-5.5139728,-1.558054,8.119949,10.602008,-3.0152729,8.69908,4.860632,-1
7b3d768dbee9d6d4b5a4a053,4.6951404,12.804842,0.5325041,-5.3209615,-1.7315387,8.855898,10.181135,-3.5643666,8.47156,4.3736672,2
7c8cf1cc3d328f0105b01277,5.4936333,12.202092,-0.46023938,-5.449862,-1.0403292,8.098809,11.199593,-3.721854,8.924176,4.8972344,3
7cd21264dc8eb203986c03c3,5.679792,12.8590765,0.28593597,-5.000579,-1.4619126,9.045823,9.86373,-3.131282,8.91879,4.169146,0
7cdd738ef21f74fa8b3359aa,5.409216,12.470616,-0.32879147,-5.357038,-0.4913167,8.45361,10.902142,-4.0449824,8.528132,5.0402575,-1
7d9987ee77811b1aae1ef5ca,5.9648213,12.666555,-0.66009796,-5.193416,-0.5136944,8.098167,10.943151,-3.7176557,9.215422,4.282915,4
7e20c92193dfdef37c62dff3,5.6982594,12.905382,0.18832466,-4.9198585,-0.5268878,9.196766,10.321849,-3.8299892,9.193201,5.148267,1
7e319e341046fb660b25653d,5.195727,12.202952,-0.09458463,-5.2115054,-0.9204575,7.9572835,11.328787,-4.0628486,8.649267,5.0808425,3
7e50f725b64aea527a04270f,5.445342,13.476944,-0.7574664,-4.7464747,-0.94111216,8.526839,10.573565,-3.805765,9.346244,4.2058806,4
7f3eabbc1ac1b28b55d99110,5.1111245,13.444176,-0.11397024,-5.3558345,-0.32873392,8.959188,10.690095,-3.9481993,9.357007,5.1531873,1
7f69bcf9cff81b63b30f5187,5.7961173,13.2215,-0.21311487,-5.086754,-0.62281466,9.260073,10.344609,-3.6314576,9.047295,4.7721972,1
80250dd65a82471617f1cdf0,4.725585,13.2913885,0.3875516,-5.2135577,-1.0655392,8.51815,10.075571,-3.34866,8.270581,4.476235,2
80342651ed4498dcdf580dbf,5.0480237,12.715781,0.25853562,-5.2315683,-1.0999626,8.455451,10.274754,-3.3821728,8.702791,5.426809,-1
80358e0b9ec86e818cfe0eb7,4.281254,14.0385275,-0.12934676,-5.1424694,-2.2975664,8.595588,10.081228,-2.5722897,8.144394,4.8198023,2
80970fd48bda3b4cf47dc05c,4.8875413,13.703314,0.76657456,-4.812706,-2.2854235,9.499553,9.128944,-3.704125,7.911879,4.928037,-1
80bc908feaa29855c1612759,5.326011,12.6102915,0.28555834,-5.315499,-1.1460631,8.7435,10.849811,-3.3646977,8.56645,4.9721274,-1
81bfb53fa72c7d442dcb82bc,5.447546,13.726393,-0.572379,-4.766192,-1.1676553,8.379835,10.691002,-3.7374763,9.138819,4.190029,4
81d554ece657e3efce426758,4.3863897,13.911128,-0.069100566,-5.226594,-2.153773,8.543105,10.16005,-2.6875374,8.08581,4.93098,2
821b7381b40e26e1b6e81e1e,4.2272625,13.243296,-0.28930247,-5.474001,-1.8857396,8.2259035,9.91438,-1.8810719,8.5021305,4.937275,2
82427a2f186a659613574aa3,5.1204724,13.232323,-0.4196034,-4.9099426,-1.4931285,8.141269,10.888916,-3.288521,8.403607,4.5902805,-1
8256a5b54aec1fee5064e421,5.1959486,12.546466,0.76599985,-5.6173887,-0.51072955,8.674805,9.977667,-3.9547722,8.698634,4.7064724,-1
829350fb7067c95f21eb5c5a,6.0428357,12.498988,-0.58309567,-5.411794,-0.91913086,8.061121,11.073584,-3.718688,9.048837,4.3196483,3
82aa56cf3025d8bab5818e96,4.8108554,13.070307,-0.21384028,-5.6116433,-1.726894,8.226152,9.927355,-2.1335702,8.643461,4.8708024,2
82cbac52773c1c738e6c656a,6.1001954,13.173906,-0.68637955,-5.2013774,-0.6197947,8.426717,10.798314,-3.3371875,9.35241,3.9721828,5
834aed80dc7459bd211eb46c,5.0271697,12.821388,0.17998098,-5.220009,-1.1988417,8.353022,10.3211,-3.222819,8.601583,5.480182,-1
8385dfd57b522f6fd4918ebc,5.205463,12.825687,-0.22064148,-5.1548834,-0.7186772,8.650666,10.714423,-3.7424963,9.359684,5.2332335,-1
84361970b5469101e88a8285,5.256121,12.485519,0.25919518,-5.443457,-0.6958254,8.40459,10.228524,-4.1889358,8.847842,4.6785493,3
843a02b5d6ef34232e989108,5.497469,13.663315,-0.7189093,-4.6975174,-0.993662,8.394548,10.8510475,-3.606129,9.1711855,4.0640407,-1
8470fecaa572e3d8f393747c,5.9054713,12.872859,-0.54259574,-5.2827177,-0.545959,8.257196,10.746666,-3.5425808,9.377066,4.3861504,-1
875b19363cf5e9468d08c43d,4.6565156,12.579687,0.31309572,-5.2867475,-1.8751079,8.786225,9.971653,-3.5366824,8.624593,4.700103,2
879da0bd5d1f6f7ef512a6e9,4.7558193,12.615065,0.1994975,-5.227314,-1.7351338,8.73807,10.037945,-3.6155677,8.669876,4.8998666,2
87a053add2caeacdd5fbe49f,5.8508053,12.768699,-0.52019507,-5.1572556,-0.47935686,8.136496,10.767647,-3.7287495,9.190544,4.427816,-1
87ceba627a38c9003cf1d991,5.627465,13.190402,-0.45274445,-5.078904,-0.40487894,8.909144,10.486135,-3.7424917,8.624645,4.8354645,1
87d7ae6979bad3fb62ed33bf,4.6073575,13.757885,-0.5655932,-4.9715867,-1.6927106,8.410886,10.074969,-3.301396,8.925724,4.6720343,-1
8817a30c8a6ed71732d97226,4.5031114,13.490637,0.77240914,-5.3409824,-1.2847704,8.779595,9.975286,-3.4409535,7.810531,4.7817845,2
8876639491eca88ccaa01073,4.9772906,12.877084,-0.2500777,-5.049569,-1.7471939,7.8966837,11.25709,-3.2537868,8.19899,4.97101,4
88b58d0074fda939d08f40c5,6.3621993,13.026022,-0.8952021,-5.326437,-0.6404737,8.516649,10.836668,-3.167655,9.287626,4.01719,5
88e338baa758d70008cbf834,5.9042087,12.702436,-0.0037325737,-4.896444,-0.8385115,8.6704035,10.182074,-3.5486295,8.988102,4.765442,-1
88e6aab31096319ec10e9f47,5.192191,13.172004,-0.3710906,-4.6986794,-0.84127635,8.503761,10.794716,-3.238246,9.049674,4.1610208,-1
8902167c69c31940992a9ad8,5.36287,12.30774,-0.4694047,-5.4149094,-1.1351866,8.230379,11.06069,-3.601398,8.913084,4.8398566,3
89067274cd1af60eaf28135a,5.4416547,12.651028,-0.1700102,-5.443948,-0.64981145,8.356442,10.377389,-3.6318662,9.150378,4.4516864,-1
89988c8b4ef95f4c62ba0e71,4.336109,13.979632,-0.21653329,-5.1823273,-2.1987271,8.564008,10.1259575,-2.5272377,8.291278,4.728752,2
89d19363d10eb20bd843149f,4.3268337,13.311202,-0.25950792,-5.4218287,-1.8471742,8.284634,10.042855,-2.1572278,8.455882,4.9257483,2
8b377eb78c78afe4c52ea9b6,5.7380724,13.299765,-0.30546063,-4.928938,-1.259185,8.777786,10.051326,-2.508708,8.775483,4.262422,-1
8bdb6a5fbd5a4cd73a4cb658,5.191793,12.599483,0.11783937,-5.567028,-0.7192744,8.446671,10.296334,-4.251265,8.653673,4.7344117,3
8bf87cffc0f514fac5e83fbd,5.1179004,13.323281,-0.0051899473,-4.9108515,-1.551796,8.961256,9.905894,-3.6657045,8.680271,4.8368793,-1
8c1c820f3c5170c80c26bdb7,4.8955975,12.84363,-0.0013007652,-5.283166,-1.1879247,8.424964,10.307288,-3.6676452,8.394943,5.380192,-1
8c87e4b35035803725af0663,5.2153516,12.563816,0.7762763,-5.591095,-0.5230443,8.701399,9.984134,-3.9316266,8.690866,4.7231855,-1
8c9b895f7956d512415a951c,5.846271,12.456367,0.45838362,-5.314786,-1.4443047,9.077596,10.013354,-3.2368226,8.957574,3.893783,0
8c9eca782cfc182346cccb47,4.9775777,13.030503,-0.023207637,-4.978801,-1.6621951,8.701172,9.951101,-3.760005,8.734462,4.8058825,-1
8cdca415e39320117d25b85f,5.564628,13.333274,-0.39813504,-5.053307,-0.55524397,8.9585285,10.217824,-3.2050798,8.637508,4.6453977,-1
8d63e08d06a3d4f814e5611b,5.325432,13.749187,-0.56611055,-4.8757095,-1.6234658,8.114149,11.156929,-3.1651335,8.686188,4.402685,4
8d8bf4bf9d607171720ae16d,5.630282,12.413381,0.23149738,-5.5348506,-0.4714001,8.103196,10.107728,-3.9329073,9.249062,4.282991,-1
8e0f7bf26feeffa52c6e3e38,6.528391,12.889651,-1.0605276,-5.2150025,-0.77639896,8.443709,11.070194,-3.0813792,9.1552925,3.863716,5
8e2adaa9116384a5ac7080e4,5.7137012,12.754677,-0.2509774,-5.154776,-1.351203,8.717669,10.341387,-3.9052212,8.805189,4.9540854,-1
8e9723d639d5df91aeab7f0c,4.260026,13.716743,-0.07613453,-5.2320848,-2.0783708,8.476518,9.986974,-2.6898203,8.171348,5.097901,2
8f44ebaa6a6ba385489b816c,5.462151,12.941264,0.25041673,-4.994627,-1.3841519,8.729395,10.231743,-3.6604643,8.439406,4.3533006,-1
8fd3451c69cf40bc04ddfdd8,5.395808,13.426909,-0.61179256,-4.749505,-1.1942903,8.302564,10.151215,-3.8538206,9.326608,4.281494,-1
9013fb8fc636e084602cef6a,5.306171,12.738065,0.48628464,-5.0430775,-0.78873414,8.869958,10.056118,-3.8559232,9.190428,4.8732786,-1
904d5e12468eef23c6b34c53,4.920675,13.989066,-0.6460634,-4.9930267,-1.4245065,8.480601,10.584468,-2.8690434,9.020725,4.131997,4
911fb4745ba60078b5e86db7,4.839933,13.094819,-0.037191533,-4.6555457,-0.77890486,8.386261,10.601104,-3.6777644,8.708012,4.181196,-1
91c32cf54c9b1f227cddfc8b,5.4735193,13.154351,-0.031235794,-4.8902535,-1.0322976,9.017329,10.1519165,-2.944501,8.452452,4.6956463,-1
91ff3ee062fc764012700b69,4.882248,12.852047,-0.621644,-4.9394026,-1.3597394,8.35222,10.646048,-3.322321,9.156039,4.228577,4
9269aaab3372d06b2f48b9fd,6.596651,12.603543,-1.0425394,-5.312721,-0.7694292,8.562437,10.893462,-3.2545304,9.183005,3.8490317,5
928253bbb7ec5cc78f149af4,5.61196,12.975952,-0.38433594,-5.182932,-1.3416673,9.049045,10.705154,-3.1704097,8.643415,4.7753463,-1
935f9e63f76b62f32a654865,6.188111,13.108415,-0.7421006,-5.2879505,-0.572098,8.406049,10.7923975,-3.2653244,9.395972,3.9169877,5
943beaea728e5b057bef0f47,5.452183,13.455226,-0.17966288,-5.022149,-0.55919546,9.0926075,10.552227,-3.6926963,9.350805,4.907425,1
944dc96753d3819eefd1ec92,4.8985653,13.076805,-0.33580616,-5.127868,-1.3879144,8.548595,10.097293,-2.9969974,8.839121,4.985654,-1
945fcec23896c21e6f5900c3,4.343086,13.9158,-0.40686232,-5.4025984,-1.728419,8.510146,10.329422,-2.606552,8.401596,4.8818655,-1
9478f44b009411060c5d9027,5.231186,12.215353,-0.20070036,-5.290858,-0.86784804,8.036704,11.272078,-3.9954715,8.713772,5.0256777,3
949b554ca4c4e72a032c00eb,5.0247173,13.514639,0.6671071,-4.846669,-2.0077112,9.338513,9.350691,-3.63273,8.05799,4.7827606,-1
9561d1a931d9ff97a66dde2b,5.72449,12.592619,0.55545133,-5.351649,-1.9287009,9.05635,9.576275,-2.9744375,8.709505,3.8594837,0
95734a28fcb25fdb6e51aa99,4.97324,13.034861,-0.3232095,-5.0071445,-1.7345619,7.8910604,11.193161,-3.1802096,8.250608,4.8593082,4
959dbb09df06fb5eabd7bd5f,4.858479,13.372738,0.14448242,-5.2346067,-1.994879,8.912673,9.676926,-3.0762124,8.315109,5.088033,-1
95d1561646f2da1ac3c46aff,5.661567,12.736032,-0.10197021,-5.154492,-0.61475974,8.192942,10.338889,-3.9684503,9.103784,4.6772246,-1
95d226abb5a40949a43172bd,4.647969,13.094294,-0.1334848,-5.5930085,-1.8720742,8.246775,9.863711,-2.2035856,8.47589,5.0245485,2
966962fe690872ee84edae85,5.908295,13.248706,-0.5919791,-5.0298214,-0.60542876,8.001716,10.844642,-4.4541163,9.302824,4.330908,4
96b90ce99febd1eec13333c2,5.5109987,13.007192,-0.46430072,-5.4331226,-1.2444928,8.757867,10.336055,-2.5940082,9.028773,3.981256,5
96deaa01385235fe40e25781,4.570687,13.42036,0.5658977,-5.226945,-1.2748535,8.73854,9.985997,-3.2888649,7.9711237,4.6664786,2
97bf10e4d8fe63d2afd0b7af,5.6472716,13.2565565,-0.6572521,-5.4452987,-1.1709888,8.62244,10.594897,-3.2776387,9.295183,4.638815,-1
97e3d86f097a9d7a38829522,5.670245,13.045745,-0.6617902,-5.3025002,-1.2232579,8.769884,10.813031,-3.29342,9.00705,4.797475,-1
97f524708a1133940633cc97,4.821439,12.773836,0.122247346,-5.309001,-1.5319664,8.45327,10.187243,-3.7709503,8.34913,5.347883,-1
982b05a7064b2d7dafb6a9ca,5.3274693,13.239731,0.01116423,-5.015057,-1.3152021,9.097053,10.003244,-3.7075353,8.685796,4.828313,-1
98e1f2c4338aac7c18046a7a,5.355177,13.686901,-0.64838,-4.872235,-1.4780418,8.196593,11.030149,-3.0453317,8.987368,4.2431273,4
990905b55c09c02b602bd90e,5.9087114,13.292993,-0.5856959,-5.01977,-0.6040672,7.992144,10.792072,-4.515273,9.337679,4.3194847,4
9946d1315c23b6bd75f96aa2,5.7933493,13.400831,-0.68937194,-4.9520497,-0.9058847,7.9648314,10.885075,-4.1437707,9.281485,4.3229017,4
99837a869b4512c76c24e7d7,5.1809015,12.956041,-0.4745156,-5.1002975,-0.60386336,8.473377,10.355313,-3.6685724,9.148016,4.352821,-1
99e086ba121f8cf18b9b1694,4.337101,13.260581,-0.3172999,-5.2896314,-1.9080044,8.14461,10.544142,-2.6260734,8.180187,5.132393,-1
9a00d58902d9062ca76e6d04,4.595594,13.126076,0.05255845,-5.3209143,-1.9477588,8.405278,10.130136,-3.1304486,8.198711,5.387484,2
9a3ff2e9c6408e3f5d178526,4.745234,13.276507,0.108450815,-5.609619,-1.9988817,8.212768,9.951424,-2.5312269,8.0671,5.3052917,2
9b759bfd2e34762823fe1115,5.118917,12.62991,-0.1744336,-4.981933,-1.5088481,7.8666983,11.420376,-3.6437614,8.379981,4.986267,4
9b9a94729b65f38372c8ce69,5.7094975,13.195804,0.06987787,-5.5022893,-1.2623403,8.806734,10.238735,-2.9272776,9.084421,3.76359,-1
9c06efa643010ea5474c7f34,5.2871184,12.928865,-0.3845566,-5.0419765,-1.6957582,7.928435,11.383248,-3.2404103,8.287008,4.8347616,4
9c2302abedd027ff0a4f28f4,5.1119046,13.878145,-0.658794,-5.4580536,-1.2034992,8.555963,10.563995,-2.6710403,9.026067,4.143982,-1
9c244792267bc7db096e9c70,4.756812,13.22331,-0.014944185,-5.576179,-1.9399095,8.165707,9.953778,-2.2652586,8.276955,5.068146,2
9c706b16cc4f8d50547cc701,5.027143,12.643131,-0.084811755,-5.034833,-1.2568417,8.601685,10.457729,-3.6255472,9.138258,5.1217575,-1
9df5ab2fecfa62dd02010030,5.030918,13.293557,0.11982236,-5.2119765,-1.8903006,9.014166,9.648698,-3.1728768,8.470711,5.017872,-1
9e2e4987a295859d01b969d6,5.009968,13.639104,-0.25892136,-5.0574346,-1.9010048,8.869738,10.434675,-2.6607206,8.57241,4.246947,-1
9e86ba1ff96fda62aa6100b3,6.187703,13.089644,-0.8103479,-5.415958,-0.77056676,8.552947,10.729749,-2.911895,9.351662,3.86262,5
9edff0586184a69f6cfa42c9,4.591975,13.442598,-0.23914368,-5.04092,-1.685537,8.462809,10.0451355,-3.0380652,8.242644,5.3192515,-1
9ef31868ffda4629ae49b530,5.712778,12.492889,0.75929695,-4.7769165,-1.1713866,9.173874,10.070337,-3.330025,8.78841,4.3696556,0
9f1430038c54961e2d274584,5.590429,12.969138,0.13311587,-5.9075403,-1.227086,8.581755,10.218808,-3.6095746,8.633959,4.3155127,-1
9f34cd52c71d7d61ff15bc22,6.2122355,13.114628,-0.8280616,-5.385764,-0.7169231,8.484879,10.772575,-2.9190595,9.343618,3.84849,5
9f3c425dced2c161a473bea0,5.202558,13.774756,-0.6041798,-5.0561786,-1.3519655,8.27744,10.727798,-2.8778641,8.9457655,4.133842,4
9f71ba8f845b4485a5390410,4.2827196,14.0571575,-0.1770459,-5.116059,-2.3384242,8.619467,10.085875,-2.5110807,8.163325,4.789363,2
9f71f63219589c57bdb3f523,5.2934074,13.373459,-0.5999386,-4.9344387,-1.0509909,8.274743,10.697093,-3.9074714,9.305934,4.2313704,4
9f8c2c71824897080b2e3fb5,5.1575446,12.819928,-0.30357003,-4.9906826,-1.6226178,7.8608327,11.432955,-3.4117904,8.293574,4.848626,4
9fefafe6c01d30ffa3e2e08f,6.6680446,12.819671,-1.2064346,-5.198002,-0.7075558,8.4135895,11.077619,-3.1361263,9.281329,3.8108175,5
a00bdb521bd16895379b6eda,5.5102997,13.016326,0.059787903,-4.676923,-0.99560964,8.218606,9.943966,-2.9920988,8.677693,4.7475142,-1
a03a4ad61da2102223c02088,5.8333826,13.318509,-0.5916098,-4.9859815,-0.59818584,7.9444356,10.856754,-4.425225,9.389252,4.2844176,4
a047fa4fdcf84aa0cad4f463,4.66325,12.536124,0.38598746,-5.3019466,-1.8505522,8.837107,9.9600725,-3.5926795,8.596089,4.792489,2
a0820a6a119c15d61ef4eb2d,5.9135833,13.256348,-0.67409253,-5.00754,-0.652459,7.997763,10.789131,-4.217335,9.366309,4.3498325,4
a20b698b6046c08ecbb60af9,4.678866,13.699348,-0.37048417,-5.132445,-1.4005681,8.504101,10.383001,-2.5044785,8.932344,4.1744423,-1
a23d1523ce7ef6adf8245841,5.737649,13.463583,-0.5056906,-5.328996,-0.7530986,8.502834,10.516886,-2.794941,8.827696,4.243177,-1
a25785035383906d9f7808f6,5.2803965,12.928106,-0.07215252,-5.490286,-1.7755033,8.123139,10.430033,-3.1010795,8.758069,4.988215,-1
a261e7f9ff65f82f7b330a4b,4.99384,13.348686,0.1401145,-5.4637547,-0.85404766,8.922159,10.335512,-3.9476192,8.66034,5.0242805,-1
a2cd1d0654018591134c1b98,5.6429214,13.131269,-0.40084577,-4.965502,-0.88163745,8.644964,10.119505,-3.4999866,8.768808,4.8435025,-1
a2d7c71ee5156acce6a8e74e,5.3984084,13.798149,-0.6350007,-4.929849,-1.591769,8.017378,11.224112,-3.3117173,8.704457,4.326866,4
a2d7ef8d86347b6f0d1c6785,6.692986,12.805115,-1.16644,-5.2211747,-0.70465475,8.383511,11.078785,-3.226777,9.276679,3.8492553,5
a2f320f85fe8c44c40c8fdff,5.4087815,12.639785,-0.31788817,-5.4332294,-0.39932394,8.572348,10.785779,-4.118765,8.525387,5.063363,-1
a3796e24383ded9c417260e9,4.8088126,12.7671385,-0.118531354,-5.105818,-1.7113982,8.708342,9.897013,-3.2253919,8.910192,4.5886483,-1
a3ec35a86c268a6d7eacc63b,6.620947,12.853681,-1.2228708,-5.193414,-0.76745665,8.350788,11.1335,-3.1003904,9.241179,3.8518093,5
a4931cc78c62ee0205998f89,4.3629084,13.861377,-0.0069598895,-5.3739343,-2.3629682,8.469818,10.163406,-2.5150006,7.9118376,5.0005784,2
a498d1800f031aeee9460ecb,4.2091427,13.230614,-0.29839715,-5.4606285,-1.887165,8.235513,9.889739,-1.8682642,8.520797,4.927964,2
a4bb0b739c15f1408b1ed123,5.2449303,12.416841,-0.2161446,-5.2517204,-0.84552324,8.416058,10.832491,-3.7305043,9.356638,5.2508326,3
a4ce61a4b792042207eed8af,5.007977,12.928904,-0.70993996,-4.814343,-1.176297,8.374689,10.552443,-3.2102354,9.285769,4.2149014,4
a58ed6ce3e09e990460185bb,4.8868837,13.962151,-0.6215425,-4.946951,-1.5241452,8.54795,10.524339,-2.909286,9.017089,4.1717,4
a5d8fca8c90ca1751c45c4eb,6.0895605,12.630334,-0.76639706,-5.0931716,-0.73119295,8.577551,10.714271,-3.5217943,9.048958,4.298839,-1
a5f80da2a4c30473eb02be00,5.4648023,12.718537,0.14199853,-5.263837,-1.3869277,8.577597,10.141889,-3.8123755,8.559195,4.28503,-1
a629c4eeab2f709d7bbf7fac,5.334449,13.795014,-0.55991316,-4.841646,-1.5802932,8.102933,11.176006,-3.226675,8.712826,4.3853564,4
a6ec18773b8006a3ee1869fb,5.0145345,12.269018,0.013114219,-5.293295,-0.99826926,8.377339,10.744411,-3.8793633,9.091003,5.30245,3
a736839a1291baa79c05c7d8,4.912834,12.642643,0.17022453,-5.3448887,-1.3747191,8.545551,10.134925,-3.9171994,8.529809,5.1714063,-1
a7c51ec43d8777f970915383,4.9171305,13.367954,0.15400313,-5.2144933,-1.9747926,8.97357,9.65436,-3.1445346,8.352995,5.0720234,-1
a81505190cfe0642a4a70994,5.225246,13.447879,-0.2000338,-5.5797505,-1.2397927,9.0949545,10.113445,-3.1204176,9.02782,4.540868,-1
a83b25abbe14f16dc7a9d55c,4.6845345,13.202524,0.06811751,-5.2736745,-1.8650609,8.629251,10.004306,-3.1173153,8.169675,5.400797,2
a87c5eb248404241b3ec31c2,5.2362046,12.254068,-0.22500724,-5.237831,-0.9132999,7.8560143,11.427114,-4.0291758,8.639614,4.961521,3
a8a5b9fccfddd686862f09d2,5.695311,12.543215,0.56856984,-5.382995,-1.9159199,9.066437,9.595969,-2.9818616,8.74615,3.8527944,0
a939300a2cff108f8bedfa7a,4.301239,13.9988575,-0.17197402,-5.176941,-2.2020075,8.44823,10.198313,-2.6265197,8.156798,4.908847,2
a93ce54fa5cacadd01edf78f,5.246905,13.010695,0.5272585,-5.3727155,-0.81019765,9.082905,10.442977,-3.4300268,8.230713,4.8084245,-1
a9730b1ec08884afd820efae,5.2395816,13.744841,-0.6409935,-4.8889394,-1.5957271,8.217705,11.002953,-3.0665395,8.850305,4.250742,4
a9977dafad10f5271e745082,5.3202024,13.037846,-0.7682707,-5.2256236,-1.1734269,8.525699,10.567039,-2.57195,9.362149,3.9959958,5
aa1b820483c0276b048b4490,5.2103376,12.211234,-0.1280078,-5.2380357,-0.9271461,7.935182,11.340934,-4.0476565,8.662468,5.0510135,3
aa716adedd4edf103cb3aad5,5.1500883,12.436774,0.43519315,-5.3891315,-0.67240846,8.586512,10.203903,-3.8711956,9.09904,4.6866865,3
aa735d050aa5a2c3bd29abe6,4.443998,13.809707,-0.03804988,-5.3602962,-2.3094041,8.438717,10.270963,-2.5412617,7.9397573,4.9442964,2
aadab5ebc81245e27acfdef6,4.8274236,12.724418,-0.13635595,-4.917174,-1.7642637,8.646905,9.890742,-3.6505284,8.793848,4.8025446,-1
aadd4cf516736eee01c930ae,5.4488735,12.249788,-0.432083,-5.483177,-1.1208256,8.035876,11.211564,-3.6501865,8.839951,4.9432883,3
aaef3e14feec5e900407d014,4.1792555,13.918934,-0.0022784283,-5.2665043,-2.220133,8.551115,10.094394,-2.6358376,7.951461,4.963413,2
aaefac24e4d4dad94bb04b67,6.022922,12.625444,-0.39892095,-5.3770995,-1.1823267,8.528236,10.693419,-3.9340596,8.776777,4.5718927,-1
ab27fb8cee1460e803a7603e,5.8457475,13.244036,-0.5129862,-5.052805,-0.6475975,7.9879994,10.792904,-4.4812346,9.315524,4.3673825,4
ab82c4b74f76d5c5ab0431f3,5.07901,13.479831,-0.10877502,-5.375366,-0.31613487,8.95227,10.705598,-3.9748116,9.335555,5.1665206,1
abcedcb72639cd692becb84e,4.9360948,12.972436,-0.2554627,-5.5909085,-1.5875951,8.237083,10.117919,-2.226423,8.744119,4.675349,2
ac310fca70bdfe4c86b34823,4.4459376,13.905177,-0.30660918,-5.8029084,-1.835682,8.472859,10.22901,-2.391577,8.602833,4.4278994,-1
ac7831d9560009af99f241c9,4.557119,13.417021,0.54845953,-5.311222,-1.5894519,8.6952,10.004733,-3.3403356,7.8284316,5.1359143,2
ac8b1db0a523cd1a95813480,6.5037556,12.954301,-1.0033348,-5.180497,-0.68990695,8.466714,10.866354,-3.2960618,9.302535,4.0037103,5
ad4123d842089d0552185a5a,4.9758534,13.37109,0.009612606,-5.6114397,-2.004836,8.138482,10.220576,-2.5928261,8.0753,5.1568375,2
ad833e45883dab847cabdb7c,5.001057,13.201294,-0.5854575,-4.7537594,-1.272606,8.413831,10.083725,-3.6053693,9.180199,4.4668455,4
ad8cfd3d50c75c48b290e670,5.865692,13.099098,0.21342835,-5.6799808,-1.1586454,8.051691,10.384999,-2.9110448,8.9351635,4.841227,-1
add402a2fd296d776e9a0d27,6.634654,12.753962,-1.2843897,-5.1278753,-0.6878928,8.384995,11.048773,-3.2150004,9.348336,3.813519,5
ae5274eb9b5556fa2491a7fc,5.8671446,12.510045,0.35000128,-5.310709,-1.5209627,9.121726,10.030335,-3.0922215,8.935008,3.902528,0
ae9b51523a6f5b34c5eb11ed,4.7261963,13.451338,0.06841815,-5.141404,-0.9316376,8.571124,10.399433,-3.0572033,8.805035,4.0074673,-1
afde8b4b3bb3b7204b25c675,5.5619254,12.154332,-0.32823497,-5.5169115,-1.0054866,7.9894133,11.177477,-3.9000273,8.989567,4.803312,3
b012b7bc3c0410739443a682,4.588568,13.099049,-0.0844828,-5.6077595,-1.9064758,8.242007,9.88158,-2.3778512,8.3777,5.1779137,2
b06f2506865c8c08a34fb892,4.595444,13.783985,-0.56139773,-4.9963126,-1.7018037,8.417383,10.10437,-3.2650762,8.897002,4.6767235,-1
b0bfae3cca0327cbc4625df4,5.0068,13.119014,0.627328,-5.4086733,-0.7962977,8.996245,10.194553,-3.524442,8.124639,4.845713,-1
b0d8e9f7eb3b2bf73e904d57,5.5774403,13.109793,0.29980823,-4.753907,-0.7190457,9.290718,10.327832,-3.833207,9.457316,5.1000705,1
b0faafaa09379f8bbe012b40,5.4087415,13.20031,-0.71395826,-5.242917,-1.3807552,8.732156,10.634801,-2.4866269,9.104302,3.9528008,5
b0fda693bb8ea2a8c1a61608,5.538652,13.592169,-0.20336656,-5.2249904,-1.4570079,8.211269,10.901459,-2.8967068,8.436169,4.322442,4
b145506de117c3a3db89fe99,5.5750675,13.170459,-0.7486218,-5.402298,-0.9436619,8.400046,10.724936,-3.0354507,9.600691,4.4181075,-1
b151e77c5bf8c34d3302eadc,4.912543,13.246977,-0.030825168,-5.498988,-0.6242581,8.692717,10.718402,-4.047048,8.979326,5.2133956,1
b1e73b6c32a1fa36ab5c37e6,5.27362,12.807558,-0.0630322,-5.3445854,-0.61827993,8.5361595,10.119842,-3.9366677,8.694525,4.8506866,3
b1fd55495568dd1ca34ab6a8,4.7682886,13.216116,0.20958968,-5.380033,-1.9460722,8.572305,10.006951,-3.1363838,8.0294695,5.3209014,2
b28018c0ecd538d357bbb320,5.409398,12.920206,-0.81820583,-5.2592015,-0.9434593,8.496196,10.502426,-2.6517615,9.304324,4.25829,5
b2ea783e181efd1b9d47d748,4.413554,14.022637,-0.5631194,-5.426653,-1.5245867,8.547496,10.377352,-2.6340847,8.614539,4.7352214,-1
b36573d30f286919a76c8f10,4.65383,12.646331,0.30819404,-5.309075,-2.0351233,8.771852,10.018152,-3.3893342,8.611613,4.6777515,2
b36a09f1b1f31372f24ecafc,5.569279,12.662036,0.36396378,-5.1888833,-1.7673336,8.849425,9.793915,-2.982477,8.630196,4.1696963,0
b395c578ed9394206eaae4f7,5.555982,13.428696,0.2177098,-5.0238853,-1.2053537,8.777801,10.709571,-3.2264745,8.323604,4.5099325,-1
b3b9e6b2697c7585e145034b,4.393268,14.059262,-0.29575172,-5.171226,-2.094649,8.525912,10.202623,-2.6157203,8.341964,4.7554274,2
b3bc349cef5345d7b2c35733,4.490388,13.2284775,-0.070527114,-5.5333652,-1.9969816,8.204796,9.947894,-2.359355,8.23283,5.208678,2
b3ceaf06bde221c3585707ed,5.1730213,12.224027,-0.15110157,-5.311533,-0.8868074,8.382741,10.881113,-3.8632586,9.19664,5.366205,3
b3ef25f80e70f92b7e0024b4,5.475991,13.619167,-0.43134144,-5.0511575,-1.6461703,8.226607,11.008209,-2.8426213,8.742168,4.264594,4
b480e0c4dad03e3022fa467e,4.3783336,13.165251,0.7486268,-5.3731723,-1.2169894,8.751581,9.968281,-3.4235706,8.202575,4.3094883,2
b4c1105b8c3a41510d17f3a8,5.9491935,12.743743,0.2693508,-4.532829,-1.0329255,9.172483,10.2936125,-3.3348584,8.796001,4.45441,0
b555cba764b37387807440c6,6.0057797,13.136441,-0.6687274,-5.549062,-0.9492887,8.231477,10.77753,-3.1610582,9.359751,3.9634662,5
b558ff19e65ce8368a5885d4,5.376598,13.5943985,-0.37479928,-5.0667276,-1.7702696,8.16456,11.058283,-3.013839,8.430194,4.4864373,4
b575c410e9c9fcb0303c2e99,4.8221226,12.907326,0.49428868,-5.2125015,-1.6973102,8.90428,10.229806,-3.574068,8.470187,4.346915,-1
b5b30f976c71be5b57072750,4.3460345,13.60401,-0.13361305,-5.3188033,-2.1159012,8.416771,9.967164,-2.456338,8.225081,5.092895,2
b6227873e418d00beff1bb19,5.438226,13.602815,0.0052520204,-5.0971093,-1.598981,8.416674,10.86257,-3.0735154,8.355304,4.3867407,-1
b678152b2e52c55b9325ae0c,5.1401167,13.221982,-0.8106877,-4.7225833,-1.2697134,8.395718,10.471981,-3.4052224,9.3160925,4.1098294,4
b69dfd9932a42c359fd5b64e,5.631496,13.104734,0.18541184,-5.0800195,-1.514822,9.278262,9.868129,-3.274196,9.037862,4.1774073,-1
b72d15a9ca6393c3a1d61c9e,5.042761,13.406843,-0.009826661,-5.6794004,-1.9656675,8.149641,10.2125845,-2.4629874,8.089848,5.1563,2
b737b5fb9be7c8b7a4f0a012,5.834172,13.252723,0.0010529072,-4.7753105,-1.3146306,9.017805,9.848311,-2.904616,8.655034,4.253788,-1
b76eec06cab778dae5d3877a,5.770515,13.096693,0.053901326,-4.6751404,-1.0495245,8.930218,10.313411,-3.595842,9.092378,4.852988,-1
b847f25e511839953a5607a0,5.801732,13.075649,-0.60029805,-5.2004256,-1.1225653,8.677969,10.346845,-2.512288,9.167116,4.0373306,5
b84f92b2c3450dacb4586ef8,4.625771,13.424701,0.5659467,-5.316842,-1.3237671,8.663309,10.109051,-3.4090147,7.8953166,4.814359,2
b866da8ed9f3e6d9daaee256,5.08889,12.43313,0.3725929,-5.439883,-0.60402596,8.489388,10.212961,-3.9254324,9.077171,4.663822,3
b87c62f85f5e5f58fcbec18b,5.6997943,12.856741,0.10079661,-5.4327645,-1.3926628,8.912104,10.173992,-2.8890674,8.95864,3.8036916,-1
b90541921f91e19c1e92dae4,4.9856424,13.470329,-0.46178138,-4.8005385,-1.3758477,8.421753,9.766099,-3.624383,9.113064,4.6272516,-1
b910893ee7b2f21cc44421e6,5.295252,13.686157,-0.58301806,-5.238404,-1.1597295,8.813113,10.093029,-3.2863941,9.129561,4.5399036,-1
b9184225d8422f5986bf1a9e,5.426351,13.189114,0.32286313,-4.99022,-1.1400582,8.857895,10.649018,-3.158755,8.314706,4.8340607,-1
b9ba1a883882b0cfc9c44633,4.8938293,13.048421,0.240398,-5.070535,-0.7544529,8.836134,10.094135,-3.5105577,8.242265,4.5515304,-1
b9c0f1fae25857efd2c21004,5.7377453,13.094923,-0.64026564,-5.38366,-1.0679196,8.792562,10.5098915,-3.5605953,8.837738,4.9485607,-1
ba20b624967fb88c1e87e33c,4.9455495,12.969181,-0.34729007,-5.6003447,-1.6141337,8.19629,10.190272,-2.2904217,8.732583,4.7507815,2
ba2222e9ea0ba5883ca62057,4.1914835,13.269842,-0.32404205,-5.437608,-1.906763,8.233064,9.880365,-1.8588035,8.545536,4.9065857,2
ba4ce89eb075347f8650856a,5.887565,12.878581,-0.41292363,-5.325383,-0.6485537,8.866554,10.684708,-3.2565427,9.307835,4.29768,-1
ba95080d2e39b4e82d0ca331,5.665486,12.94455,0.0051878947,-5.930644,-1.1847786,8.54978,10.367069,-3.698778,8.648141,4.3434224,-1
bb369689a4b0d27caf6a7393,4.8090177,12.651175,-0.056175753,-5.011079,-1.8036869,8.674841,9.910203,-3.627506,8.769981,4.7926354,2
bb3cf09de12e2b5412d42b3c,5.7413673,12.543787,0.7078906,-4.706715,-1.1222805,9.078184,10.241541,-3.387039,8.644911,4.576559,0
bb6fa4d53a0d98939b050c83,4.8323717,13.743865,-0.28595066,-5.0866213,-1.7007608,8.428514,10.73458,-3.1793098,8.581469,4.924177,-1
bc14d9672750788f929c2bbe,5.253529,12.47342,0.71116453,-5.577452,-0.5679807,8.63326,10.0244055,-3.9020524,8.739286,4.7435536,3
bc7aad3a2ea68a57c300b529,4.283033,13.340347,-0.2964497,-5.283038,-1.9296024,8.171826,10.514204,-2.641103,8.150086,5.1617947,-1
bcb4eb6a5d19cbc5ce04a8e9,5.120565,12.730154,-0.24912119,-4.9590583,-1.6368941,7.839524,11.472908,-3.464126,8.280445,4.90161,4
bcbbbed7d0ff5741a5c43b36,5.2294235,13.18556,-0.18473841,-5.2069283,-0.40880847,8.762622,10.543022,-3.6791453,8.743027,4.4860606,-1
bcd208413c7ca58914a7b05c,4.9494734,13.156678,-0.28357884,-5.619833,-1.6640357,8.226034,10.005828,-2.112768,8.703267,4.8239145,2
bd56309e1122cb0750a6366d,5.0369496,12.90201,0.5025286,-5.3496647,-0.9960932,8.541205,10.468771,-3.800587,8.355652,4.8951077,-1
bdc480b0e54b5930f088fdb1,4.7185407,12.660081,0.3613379,-5.2712994,-1.8813947,8.874021,9.939076,-3.5096998,8.607148,4.7448792,2
bdd11030520fcca9c289d105,4.3532286,13.212474,0.7801716,-5.39606,-1.1729355,8.773266,9.948622,-3.4229467,8.164827,4.332062,2
bdf3d558cb9ced03d962bfcd,5.6315875,12.531657,0.58561265,-5.4055996,-1.9377103,9.070554,9.600839,-2.9595542,8.741663,3.8619936,0
be0feeb19eef2c6597998c7e,5.6264186,12.802655,-0.267401,-5.036081,-0.6859432,8.257453,10.609226,-4.0494957,9.063953,4.3263235,-1
be3a40fba0eb619272107ab6,4.5131717,13.184164,0.62200326,-5.5333276,-1.4533241,8.542334,9.687583,-3.3557804,8.255515,4.6211886,2
be3cfc8d8802d9734792b069,4.9142284,12.445833,0.45178548,-5.2086935,-1.3258839,8.482055,9.917791,-3.6036575,8.777411,4.897442,-1
be473c5768f456d75f7eec58,5.204373,12.430357,0.26353312,-5.4371057,-0.8468204,8.319339,10.521117,-4.1517262,8.8791895,4.7738,3
be869f64b1d433f4fae2c59e,5.702171,13.184623,-0.058759566,-5.483239,-0.8851412,8.752622,10.322327,-2.8837507,9.110972,3.8984487,-1
be9bbbcf3a179a5e90279f6b,4.613935,13.132003,-0.22488616,-5.6280646,-1.8380136,8.144202,9.99485,-2.0803256,8.415689,4.9847198,2
beb304beeefe3866f3b2c8ca,5.9088016,13.145011,-0.4073061,-4.8430743,-0.67970884,8.52276,10.254993,-3.2586782,8.785599,4.523983,-1
bec8edba0151e6e74595eb77,5.2368784,13.370344,-0.6127277,-4.764299,-1.1543528,8.360683,10.092911,-3.7356536,9.319666,4.3672934,4
bedd0274a83d31c7c2eef2a4,5.006664,13.532521,0.67816424,-4.8455706,-2.0283587,9.350347,9.3321,-3.646909,8.044182,4.80607,-1
bf33ca098bdfd6693deb5b76,4.3294835,13.270046,-0.17260547,-5.447676,-2.0059423,8.258946,9.950081,-2.243465,8.296825,5.1359496,2
bf797a2208be707d0461268a,5.640776,12.9793625,-0.21530655,-5.061602,-1.3442258,9.102995,10.526369,-3.100311,8.578633,4.733865,-1
c00aed14099e3cc88ad5d5de,5.4321895,13.071919,-0.001293123,-4.732974,-0.9864163,8.295054,9.89552,-2.956811,8.626833,4.7806053,-1
c033e6e9106ffa2c71f3f03d,6.0898247,12.901852,-0.20566083,-4.7187676,-1.2581369,8.986595,9.951079,-3.5808961,8.380466,4.3165607,-1
c083fc1b33bf19d66b00d42b,6.554331,12.895874,-1.1283425,-5.104116,-0.7609177,8.507091,10.976476,-3.1527703,9.221774,3.862973,5
c0cae3e863522bcfb8a6493c,5.088237,12.989355,-0.43120208,-5.612797,-1.5184739,8.275891,10.101681,-2.2457297,8.855982,4.694967,-1
c1225898e27a60a17347514e,5.8774414,12.69663,0.35089839,-4.520149,-1.000299,9.16356,10.268756,-3.3836753,8.850849,4.4996724,0
c15a6dc5c75c2a599f90a6a8,6.0735116,13.267807,-0.5710109,-5.1490865,-1.3455762,8.272646,10.479895,-3.1964595,9.142139,4.2336874,-1
c165d65f2f6c5056ae6dbb12,5.7578626,12.495147,0.6587781,-5.131686,-1.3080198,9.064773,9.993835,-3.276876,8.904922,4.151376,0
c1d523e0365680365c9d5c4f,5.5246825,13.434734,-0.2539547,-5.191955,-0.7509536,9.101356,10.258685,-3.3672369,8.9350605,4.814931,1
c1ed04f25fa26a6efc90dfc2,5.180646,12.856186,-0.29783565,-4.977441,-1.6524813,7.877395,11.431035,-3.3479373,8.280804,4.838335,4
c237d477e2ef0d806b44702d,5.6343,13.013092,0.19799393,-4.8597984,-0.56644726,9.220269,10.423694,-3.7813613,9.30741,5.244708,1
c2a244bc4d8096a1c0ee0245,4.4132338,13.988576,-0.23492458,-5.086961,-2.2357616,8.444567,10.335308,-2.6465247,8.202532,4.8211164,2
c2e85740f646573b87de8613,5.3508835,12.520228,-0.25551262,-5.4556346,-0.48538938,8.449335,10.900567,-4.1553025,8.5204525,5.112047,-1
c3250c130d6c51da3629e4a8,5.3758264,13.125141,-0.056237698,-4.9711914,-0.9145529,8.98864,10.065376,-3.142425,8.381282,4.7096934,-1
c3356129fb74b719b3c9f9c9,5.6948156,12.614717,0.52922577,-5.302779,-1.8844252,9.059665,9.619399,-3.0258105,8.717782,3.911268,0
c363eeee2cefac04cc44a494,4.454568,13.213246,-0.19630481,-5.5302505,-1.876158,8.246539,9.920501,-2.1304328,8.469067,4.946671,2
c3642c1090debf141668364a,5.8581867,13.370902,-0.73666346,-4.931619,-0.75388896,8.043506,10.800394,-4.1409373,9.379549,4.351418,4
c39b737da0e635eed6930b7f,4.994399,12.80998,-0.3501429,-4.825732,-1.0205396,8.503605,10.093518,-2.9852614,8.913817,4.6227283,-1
c42e61104fa7ada970166fc9,5.4701295,13.170395,0.08765284,-5.084165,-0.897078,8.494882,10.842778,-3.0087278,8.5402565,4.6406245,-1
c4d70d44e785782300411092,5.615253,12.837993,0.35159585,-4.775873,-0.67376167,9.149144,10.384651,-3.9576628,9.344546,5.164364,1
c55719c037ae88147bbb0c28,5.6875377,13.001734,-0.45192146,-5.189813,-0.24168856,8.904855,10.616393,-3.6942391,8.66061,4.856135,1
c58583e798ce39284561c288,4.577681,13.0598345,0.61450225,-5.476578,-1.5491463,8.927288,9.813494,-4.0235844,8.18054,4.87402,-1
c589fb7185bfc4db210703de,6.4963255,12.585837,-0.96786565,-5.34664,-0.7606296,8.470159,10.938413,-3.1459801,9.275461,3.8077095,5
c5cf4fe6160e53f1b9a52f93,5.0217867,12.894841,-0.695515,-5.15094,-1.0554467,8.287673,10.620573,-2.7212214,9.239737,4.324643,-1
c7332c7092442fd73fc44a65,5.458433,13.1762495,-0.39731893,-5.3931503,-1.6268331,7.962996,11.1045685,-2.893532,8.367177,4.4431243,-1
c793e675ead9e0b988d7ac52,5.8384714,13.305607,-0.56921583,-5.0001774,-0.6198246,7.93456,10.8456545,-4.50065,9.395701,4.334477,4
c7c16ff7a7aea621845668f9,5.1454444,13.3277855,-0.79093236,-4.809413,-1.2501291,8.505273,10.497709,-3.550426,9.289756,4.1555834,4
c83b992a138bfb597f911c70,5.7747684,12.894721,-0.31800854,-5.288735,-1.0510471,8.89646,10.456871,-3.7676713,8.881947,5.0931454,-1
c868d4666ce8e404ba090250,5.186027,12.613407,0.81969863,-5.585833,-0.5260902,8.755699,9.944817,-3.919132,8.619478,4.7026772,-1
c8843f1db78fb915c37dcff2,4.6120343,13.234035,-0.16447392,-5.591475,-1.9028257,8.263151,9.902049,-2.1539795,8.45359,4.9723763,2
c90ffc0bb9d1a9da41fe1b9b,5.1535583,12.248309,-0.13492988,-5.322402,-0.8948775,8.410257,10.865683,-3.8563132,9.194561,5.403669,3
c99634d04c910e270e69cca3,4.975818,13.787422,-0.6119194,-5.449398,-1.218305,8.754251,10.486976,-2.7185361,8.913225,4.2892604,-1
c9be3659ca556424c99045c6,5.6416607,12.615778,0.32648948,-5.342993,-1.9802862,8.681776,9.874314,-2.8861563,8.749193,3.943483,0
c9defded0470cb216620a49a,4.472042,13.490599,0.81947047,-5.3199215,-1.3105859,8.832162,9.962135,-3.4854443,7.7998066,4.7756925,2
ca2eb154d7aea00f658f1766,4.6489305,13.352755,0.03435969,-5.5633345,-2.053316,8.251946,10.025941,-2.5714324,8.095645,5.22364,2
ca5d7c65aff546cf509ea07e,4.901942,13.738915,0.8097944,-4.815019,-2.3224893,9.54148,9.087942,-3.7008057,7.875832,4.9389205,-1
ca927bd87384ae969f1aa05e,4.974958,12.894644,-0.265136,-5.031582,-1.7674861,7.8720107,11.275076,-3.2348013,8.182718,4.965628,4
ca94b719d8b2d28dbe2c9997,5.4659476,13.363298,-0.0096035,-4.9038734,-1.4405087,9.229387,10.095983,-3.3603814,9.059203,4.2409806,-1
caf3cf50e8236465cd4d10bb,5.391605,13.653774,-0.6458901,-4.757607,-1.0666763,8.43358,10.644506,-3.808142,9.301439,4.20687,4
cb3823e67bc39dd314f1fe25,4.5284243,13.210092,0.47248226,-5.56608,-1.4256581,8.393173,9.688729,-3.3520668,8.324604,4.6891956,-1
cbf1748ab02ea0e7a249c4a6,5.6720886,13.158204,0.10625446,-5.5890384,-1.1023867,8.805105,10.213213,-2.9245484,9.042132,3.8995934,-1
ccb3d67dae28831d29a21274,5.462596,12.5079565,-0.2827414,-5.379649,-0.45188063,8.504985,10.841426,-4.058664,8.549608,5.014123,-1
cd1567b0bdf056fe15c3a69b,5.172059,12.635653,0.3442075,-5.5004745,-0.86648923,8.571892,10.25927,-4.2151427,8.669811,4.7346673,3
cd822f511ca1ec9e49f5a3a8,6.7532206,12.67741,-1.2310338,-5.185703,-0.7034526,8.479257,10.985694,-3.1520538,9.341986,3.736781,5
cd9b228e79d3db0bcd3618a5,6.1964097,12.883944,-0.8664983,-5.0842366,-0.53424495,8.500867,10.7406,-3.8208735,9.111221,4.1949434,4
ce265ca77388319ce489a6f3,5.8404226,13.304106,-0.5694906,-5.0080876,-0.58865434,7.932817,10.865226,-4.503371,9.383684,4.3150554,4
ce2d99053be84914fadcf83e,6.581862,12.747688,-0.96122605,-5.130624,-0.94504166,8.609756,10.868282,-3.0598085,9.134056,3.8178976,5
ceaa70a1efcf55a8a86aac2f,5.3376226,13.267399,-0.59879637,-5.1670284,-1.5549715,8.836447,10.787403,-2.709474,8.904624,4.0049987,-1
cf0c0b67ff1baced1eeddc32,4.9580245,13.414522,-0.50076574,-4.8159323,-1.3654667,8.312246,9.787834,-3.6891701,9.096804,4.748717,-1
cf3daeb78168081a91970f3f,5.6109085,13.219977,-0.30647683,-4.9723496,-1.050513,8.369972,10.024865,-3.1934996,9.29127,4.4807262,-1
cf5636eedee491ac1c923854,4.9124193,12.924435,-0.2841861,-4.9611816,-0.9645972,8.453645,10.23345,-2.9403157,8.521396,5.0054474,-1
cf58cf66aaf6dc3e4dcedb87,5.435924,12.865686,0.1441095,-5.41251,-1.5124226,8.240076,10.3672695,-3.389339,8.801339,4.917846,-1
d0baedb9a0899bd05a7bd9a4,6.1023655,13.234259,-0.6792511,-5.485839,-0.6363301,8.33451,10.848257,-2.9346983,9.460283,3.8504052,5
d0e6401d1205ebf095000320,5.612683,13.10079,0.2085008,-4.739914,-0.761885,9.225069,10.214322,-3.6807766,9.233623,4.9458933,1
d17334d6c3252205e01e2f0f,5.7078633,13.050353,0.023275763,-4.987588,-0.47270998,9.21193,10.320223,-3.7571635,9.116135,5.0621014,1
d1b5b1c1600a48288eb1b6be,4.4631314,14.050013,-0.5856915,-5.4225163,-1.4418781,8.571968,10.406898,-2.6898623,8.680149,4.6972218,-1
d1b6aa6cbb9f0cbe70482fa7,5.084951,13.104943,-0.16538635,-5.4876337,-1.643662,8.613176,9.920057,-3.1385136,8.194396,5.0471244,-1
d1d5f5dc8ce64f84e5942521,5.9441056,12.985049,-0.54981065,-5.4749417,-0.9538909,8.609879,10.482089,-2.7105532,9.302909,4.11904,-1
d20b7182a8455ebbec1680f9,5.360811,12.586098,0.48006892,-5.146609,-0.63794714,8.74468,10.067922,-3.9184198,9.190688,4.809762,-1
d21fffca01876d4ec284215a,5.6479273,12.970373,-0.5940738,-5.235719,-1.2872481,8.704863,10.320971,-2.4632866,9.089107,4.1061916,5
d23cd26b0c78b621f4e5192a,4.293106,13.608336,0.010284906,-5.2393413,-1.9975535,8.4651375,10.051746,-2.8519695,8.131209,5.08277,2
d29bf295f540a302e457e55d,6.3105707,13.1348095,-0.8501928,-5.371023,-0.6196826,8.341158,10.943305,-3.1385872,9.381479,3.8880992,5
d2bf89376aeb0ee6403479b9,4.9867845,12.643468,-0.2054406,-5.1650996,-0.7209464,8.418044,10.496825,-3.4254606,9.280288,4.3521347,-1
d354edf2a6e7f497f6566f50,5.0963306,13.152908,-0.5474183,-4.694776,-0.9714053,8.499198,10.805773,-3.0922778,9.144043,4.08641,4
d406d8a431c2adafe541e7a1,4.898585,13.652298,0.70804757,-4.8460355,-2.2249382,9.443731,9.188203,-3.6777382,7.959794,4.951355,-1
d41655c4e847a750f95b74ea,5.412984,12.334097,-0.22368792,-5.2286563,-0.65464664,8.176371,11.064292,-3.973388,8.54706,4.868399,3
d43037da6353e1b51c2c599e,4.677965,12.962613,0.16924348,-5.3646274,-1.6506603,8.461597,10.115789,-3.4667947,8.186745,5.380106,2
d473552f6443d0a97a1e80c0,5.3445153,12.599077,0.45994106,-5.173338,-0.6183561,8.7280035,10.076675,-3.8967047,9.217228,4.835266,-1
d516c536657f12c8c68699b0,5.144995,13.101105,-0.41070238,-5.144258,-0.8590609,8.258145,10.22152,-3.7657113,8.514389,4.804774,-1
d579377f2fa56c1b05cd743d,4.720099,13.517548,0.368774,-5.2959538,-1.5924286,8.453027,10.321275,-3.0826645,7.879022,4.852938,-1
d59637f77b0639e7aadd5b97,5.7808585,13.575917,-0.3995333,-4.6546674,-1.2452229,8.626821,9.932102,-2.9401536,9.026102,4.1869593,-1
d5ba850dba0fef4fd03aad94,6.462078,12.812776,-0.9707405,-5.150993,-0.67130315,8.537461,10.862414,-3.4656897,9.184638,4.0829425,5
d6389e1f1cd997076043b0b3,5.605511,13.100993,-3.536464e-06,-5.0322275,-1.0702715,8.447085,10.877706,-3.102439,8.447873,4.686611,-1
d63c8b56c79db546c72952d5,5.5522137,13.420315,-0.12511788,-4.9762726,-0.43882346,9.116495,10.433433,-3.5494082,9.236665,4.8319945,1
d6450793b107fe46a5712571,6.313087,13.127623,-0.81043077,-5.4124823,-0.5905703,8.33905,10.915359,-3.162875,9.391792,3.8955197,5
d668aae42a7a3388261db3e3,4.601499,13.157918,-0.15029651,-5.5736065,-1.9394585,8.129552,9.917782,-2.1788952,8.391036,5.0949,2
d6f6e4a3076b8b6337c95e17,5.4791636,12.904906,-0.0042126616,-4.830965,-1.4776521,9.00414,10.013297,-3.1468117,9.030079,4.2538424,-1
d7f91f5cdf4f8484c846771f,4.44042,13.741491,-0.01786791,-5.4310045,-2.3243284,8.3965845,10.147902,-2.4548275,7.9425197,5.0407577,2
d8e62ab1645970786b03374c,5.7029486,13.401375,-0.21533102,-4.96392,-0.67411923,8.89864,10.268467,-3.2801948,9.290616,4.832392,1
d8f4583f89281921f7f63ad4,5.168475,13.092436,0.18707857,-5.5786433,-1.1345257,8.486219,10.444804,-3.6262338,8.213405,5.3743935,-1
d9041d61c88d5f9eb66370a3,5.1751413,13.633804,-0.69190174,-4.789656,-1.448634,8.278912,10.734875,-3.4073422,9.117626,4.1675715,4
d94e4fd999ed20721f6a4200,5.0943227,13.86943,-0.65117687,-4.872336,-1.5200722,8.500343,10.49922,-3.0486047,9.102895,4.100603,4
d95e8250e8ec6b172fd8485e,6.202841,13.234555,-0.79852897,-5.3891582,-0.6446441,8.301223,10.864752,-3.0141304,9.480121,3.8549337,5
d9631af872adeee080c059f0,5.0414047,12.381771,-0.033904705,-5.2778506,-1.1628815,8.307496,10.7662945,-3.8690236,8.838425,5.3247657,3
d964868289c15c0072c34736,5.138014,12.995223,-0.6108307,-5.081436,-1.6974655,8.047274,10.407677,-3.437394,8.963986,4.5812764,-1
d97a71645b6712974d359408,4.3609433,13.152673,0.7790968,-5.3709645,-1.2221602,8.763552,9.973394,-3.4573581,8.204958,4.3165193,2
d9b040eb8e6fb666386f529d,5.394445,13.468897,-0.13614659,-5.0165324,-0.41301775,9.068803,10.465487,-3.6078537,9.113978,4.660417,1
d9b5a81aa44caafb1f248466,5.086619,12.21154,-0.076912366,-5.2828646,-0.9331755,8.369235,10.816166,-3.8614902,9.192311,5.358737,3
da1ff53a93f8a1fe149a0539,4.9743958,13.156427,0.23287316,-5.6103935,-0.8781748,8.769459,10.279116,-4.082342,8.490123,4.9028263,-1
da5a36af9b3184240dd746fd,4.95209,13.409463,-0.4712782,-4.8322973,-1.3790108,8.303876,9.77043,-3.6705463,9.09053,4.7325335,-1
db1b9fc4b0c5420d351d44bd,5.443917,12.628035,-0.13533206,-5.3151054,-1.2413865,8.338423,10.393438,-4.1177597,8.830589,4.418676,-1
db58632556a9a44158869f42,6.563043,12.905607,-1.0486969,-5.2195725,-0.76087105,8.401716,11.048348,-3.1508536,9.216878,3.8690088,5
dbaeb0fcb391a61fca2f65d9,4.414157,13.407661,-0.10826169,-5.2060356,-1.9284676,8.425283,9.968609,-2.9035769,8.203541,5.3325324,2
dbce13430402e08439b3f9eb,5.3130746,13.208599,-0.9207024,-4.7377553,-1.2230462,8.484566,10.441441,-3.569849,9.3915,4.0845013,4
dbd55ec02beb13605d67fdcb,5.20028,12.517043,-0.20626915,-5.233521,-0.81118727,7.957176,11.254615,-4.058473,8.659102,4.858497,3
dbf934d1e71f99bcbb1a7ec6,5.364302,13.58491,-0.6982354,-5.1067424,-1.0797007,8.743326,10.297311,-3.4872942,9.255598,4.353769,-1
dc49dd295227dbc6d5107f7f,5.6406784,13.025289,0.2282614,-4.9694834,-1.6150744,8.935666,9.784718,-3.6754105,8.369829,4.5236588,-1
dcc4732e972778911f6105c9,5.1106844,13.353302,0.1588449,-4.7137322,-0.9128977,8.95279,10.661117,-3.3919103,8.8386345,4.633455,-1
dd29fb8a5447b033619799f8,5.744576,13.491265,-0.6167512,-4.7630897,-0.6932294,8.318763,11.01719,-3.5970757,8.910718,4.297134,-1
dd3234cdd50a3f3ef3fa802a,5.351179,13.404266,-0.7666364,-4.6066127,-1.3040401,8.480799,10.237707,-3.5377278,9.317409,4.0840745,4
dd3e27e36663ee547f7d666f,6.460275,12.879161,-1.0045217,-5.07403,-0.73131084,8.565248,10.831842,-3.3521228,9.163908,4.0328293,5
dd52dfd7c241b2553027132c,5.801957,12.350581,-0.32947624,-5.424503,-1.0314393,8.15173,11.086736,-3.862638,8.8705435,4.593379,3
de32431fbbd3b7ab0d82452c,4.2100887,13.978685,-0.17613581,-5.132717,-2.2486768,8.569308,10.031263,-2.5720901,8.184032,4.8987474,2
de3a30e652f7c5731daea195,5.9062686,12.511578,-0.87362784,-5.548289,-1.2285712,8.26708,11.081538,-3.199483,9.050359,4.2687025,-1
de3ad680158bee73a8738cd8,5.661102,12.417567,0.20531447,-5.520113,-0.4543135,8.085459,10.1245575,-3.9577188,9.251894,4.262961,-1
de4faf6415fb3113c8da3961,5.057718,12.751021,0.10124061,-5.502968,-0.7439613,8.4878,10.659445,-4.199653,8.759132,5.064433,3
deb640313a4d42f5f998c3ac,5.0492296,12.630875,-0.019373693,-5.2634983,-0.5777971,8.470831,10.332151,-3.6756718,9.2650585,4.410649,-1
dec5403829dcc11d22679aeb,4.814402,13.1047125,-0.031392712,-4.648779,-0.7905319,8.388574,10.581084,-3.6515114,8.680396,4.157482,-1
dec94c73881fe8a0268cee1e,5.803006,13.084184,0.06724482,-4.7256927,-0.91350406,9.062102,10.203569,-3.584135,9.1674595,4.8714604,1
df33fdd82edb77549f51fb9b,5.511158,13.701737,-0.50903004,-4.951292,-1.1860652,8.3414955,10.737052,-3.6419148,9.068621,4.163837,-1
df5d10ea5e90f8dada900768,6.2527547,13.05885,-0.84575075,-5.5452614,-0.8158887,8.374619,10.977887,-3.0067153,9.222562,3.8713782,5
df849ba53ecfb27a63575e52,5.093518,13.184393,0.14688379,-5.525217,-1.2415675,8.444137,10.435133,-3.4852073,8.185924,5.428613,-1
df9017bcd0ff0898a5d290a3,5.7982736,13.137669,-0.43930948,-5.036544,-1.2199737,8.773525,10.133536,-2.466608,8.956108,4.172684,-1
e007a6dd6365fdba7495aa8e,4.5551343,13.241482,-0.20097484,-5.5302453,-1.9485675,8.302233,9.839435,-2.247015,8.489115,4.9604464,2
e04231341facca859ddca12c,5.6034384,12.853838,0.24600182,-4.9158807,-1.5229834,9.102902,9.885232,-3.1026788,8.934058,4.2289896,-1
e0b1dc0864d647bd7df8a892,5.652475,12.576244,0.54780495,-5.43696,-1.9586843,8.987804,9.541498,-2.911767,8.679651,3.8815172,0
e0dbda332d77d40a6fd6adc2,5.5691214,12.958263,-0.8482913,-5.277417,-1.1230283,8.619968,10.544114,-2.5028229,9.281051,4.039664,5
e0ec7755a4c56fd439ab2d9e,5.0007653,12.2354355,0.069189005,-5.3277993,-1.0201172,8.342425,10.725356,-3.9130638,9.04159,5.2819467,3
e13b0dcbbf047c18a535f2f8,4.4235926,14.008803,-0.24903639,-5.0838933,-2.1958096,8.523582,10.23766,-2.569671,8.314017,4.676604,2
e1933965fb88cb82012c2439,5.762557,13.527659,-0.2652405,-4.6005125,-1.1359853,8.726082,9.930753,-2.768912,8.716819,4.302448,-1
e1a97092fe371bed06cd8d46,5.69183,12.972243,0.2919048,-4.771469,-0.5520455,9.268362,10.411787,-3.8957381,9.456586,5.227869,1
e1c3940b8e4f362bbea941bc,5.563173,13.121393,0.08192553,-4.804144,-1.2847363,9.0284195,9.964015,-3.001856,8.205123,4.550571,-1
e1c50c251ad9181d3bc463db,4.354064,14.044758,-0.5712389,-5.413618,-1.5747807,8.52559,10.404834,-2.63262,8.547631,4.7937684,-1
e1d8e5f3df830909f4a88a21,5.2180367,12.161622,-0.041831035,-5.2434735,-0.88677734,8.002284,11.310097,-4.005048,8.660845,5.0930004,3
e25eae48948290dce7ea22e4,5.3767858,12.982548,-0.85095453,-5.2601323,-1.1136081,8.585632,10.510388,-2.41189,9.325059,4.0947413,5
e266edd92ef05692e39b2abd,5.6907763,13.374774,-0.5121901,-5.141164,-0.5345184,8.863332,10.363398,-2.9576154,8.773426,4.443352,-1
e2889d5a41f7972b77f2ddc4,4.916058,13.649143,-0.24216019,-5.1246643,-2.027333,8.2444105,10.746655,-2.8529005,8.226586,4.7921576,-1
e2f861984214faa7899533b9,6.015623,13.006853,-0.49797288,-5.2200823,-0.65116936,9.014958,10.636229,-3.2845695,9.231904,4.411331,-1
e3b1f8369224bb175f41f341,4.8675857,13.736862,0.8060589,-4.8163896,-2.324277,9.540925,9.088709,-3.6955874,7.888868,4.908612,-1
e3ed3d586a4e142127be9ef6,4.7510376,12.920854,0.268866,-5.327484,-1.4560242,8.494126,10.107517,-3.6559253,8.202275,5.3083363,-1
e57fabbd903b2c4c0168995e,4.7364664,13.113465,-0.08454248,-5.619445,-1.8183035,8.185851,9.872547,-2.2115214,8.459099,5.0664973,2
e5e0af585771a3948cc65b1e,5.5799747,13.50761,-0.34452206,-5.197933,-0.5838658,9.130499,10.295497,-3.4788878,9.072649,4.774474,1
e620f97300dcf93ff52394cf,5.536933,13.456662,-0.120957665,-4.8108144,-0.80119455,8.552617,10.899101,-3.17827,8.513996,4.6805673,-1
e68c8bd9da07cd41b7f19c1d,4.995039,13.844806,-0.36793533,-4.999974,-1.8913097,8.340823,10.753669,-2.8435657,8.489637,4.5154405,-1
e6a65e1f103253c2c7f211c0,5.715648,12.160777,-0.36076912,-5.4646325,-0.9684924,7.9962463,11.142352,-3.9399235,9.009774,4.6472187,3
e6ce3ae7f71014346ad66907,6.7344527,12.653376,-1.1800207,-5.154911,-0.75089884,8.516996,10.929906,-3.176878,9.329303,3.7548032,5
e7edb0aa0cbf8d8e1246f607,5.0864043,12.752788,-0.25278717,-4.9677753,-1.686887,7.8190465,11.482679,-3.470029,8.248638,4.926238,4
e80f0fa3e4e3b618aa1a7b07,4.6738048,12.74412,-0.15496555,-5.42732,-1.7829306,8.432611,9.903389,-2.6639838,8.80037,4.7655206,-1
e894831d84ff41a38257f67c,5.5843973,12.958529,-0.18966652,-5.3338485,-0.69229007,8.686665,10.271429,-3.9999003,8.443645,4.537679,-1
e8ade67af9ebb48e041482f4,4.5964475,13.150814,-0.28504854,-5.063926,-1.9684395,8.626671,10.046483,-2.4097652,8.310027,4.934988,-1
e8ca45409f56034f6179e6e5,6.0371847,13.016195,-0.9395847,-4.8523602,-0.7708165,8.569919,10.769199,-3.1135898,9.16455,4.0970387,5
e8d94ee43d49cb81d6406b96,4.246546,13.212059,-0.27161285,-5.5122504,-1.8632023,8.210739,9.913727,-1.8717995,8.497944,4.946455,2
e923232918d023a64f58d8af,5.8697824,13.365256,-0.70400494,-4.9339056,-0.71038496,8.087821,10.722809,-4.182525,9.270077,4.3391366,4
e938bf488694e1e5555e4705,5.1710744,13.043891,0.1726345,-5.5435143,-1.0989912,8.478364,10.4913,-3.6731637,8.246363,5.38704,-1
e961668afc0d5bcd83709b46,4.5470486,13.11714,0.61027575,-5.4530473,-1.6167912,8.926798,9.789807,-3.8674831,8.083293,4.9899073,-1
e992bee1ddd5f7813d603170,5.8921227,13.1453285,-0.47852156,-5.0663676,-1.0102597,8.504175,10.126919,-3.5137954,9.042264,4.106363,-1
